{"in_shape": [null, null, 3], "layers": [{"type": "time-distributed-dense", "shape": [null, null, 8], "weights": [[[0.12328886240720749, -0.5113241076469421, 0.39483582973480225, -2.3350508213043213, 0.7363620400428772, 0.6600770354270935, -0.06687074154615402, 0.9413741827011108], [-0.2958948016166687, 0.13855718076229095, 0.3555285334587097, 0.23577524721622467, -0.6432362794876099, 0.6359983086585999, 0.6133115887641907, 0.625282883644104], [-2.3444066047668457, -0.04212232679128647, 0.2750914692878723, 0.4975528120994568, 0.0014558007242158055, -0.39443641901016235, 0.8111604452133179, -0.49585995078086853]], [0.06482543796300888, -0.0052299415692687035, -0.0034000298473984003, -0.050223249942064285, -0.0011700168251991272, -0.0009430581121705472, 0.0013657896779477596, -0.0035949768498539925]]}, {"type": "gru", "shape": [null, null, 16], "weights": [[[1.239546775817871, 1.1765080690383911, -0.4450809359550476, 1.0120049715042114, 0.9915265440940857, 2.023717164993286, 0.07802491635084152, -1.1239583492279053, 0.36830705404281616, -0.36419185996055603, 3.191850423812866, 0.10598374158143997, 1.3779199123382568, 0.8566930294036865, 0.2831684350967407, -0.3890712857246399, 0.1013670414686203, 0.03306294232606888, -0.3251112997531891, -0.16321738064289093, -0.1097894012928009, -0.9267255067825317, 0.34569239616394043, 0.06821872293949127, -0.21841219067573547, 1.1481331586837769, -0.2485983818769455, -0.15356047451496124, 0.22807490825653076, -0.2468273937702179, -0.37166544795036316, -0.031076837331056595, -0.27464115619659424, -0.08433473855257034, 0.11553209275007248, 0.06123883277177811, 0.11508370190858841, 0.096328966319561, 0.23063358664512634, -0.0244938712567091, 0.2730826437473297, -0.27656975388526917, -0.11020590364933014, 0.29181984066963196, -0.2248470038175583, -0.07154741883277893, -0.23325662314891815, -0.2885763943195343], [-2.223097324371338, -0.24730266630649567, 1.5658576488494873, -0.2326117902994156, 0.23646607995033264, -0.7600961923599243, -0.7122677564620972, 0.7825115919113159, 0.4371325969696045, -0.26975443959236145, -0.883202075958252, -0.27807751297950745, -0.8055002093315125, -0.5084168314933777, 0.030807357281446457, 1.249477505683899, 0.231657475233078, 0.19644983112812042, -0.08147469907999039, 0.83211749792099, -0.10303235054016113, 0.3659628629684448, 0.7979542016983032, 0.00979524478316307, 0.31350177526474, -0.06548547744750977, 0.6681755185127258, 0.5157705545425415, -0.40985536575317383, 0.014202469028532505, 0.6079444289207458, -0.08555742353200912, -0.1434118151664734, 0.24160949885845184, 0.17134858667850494, -0.15300703048706055, 0.32788413763046265, -0.3775657117366791, 0.07359836250543594, 0.10112981498241425, 0.12655800580978394, -0.06582680344581604, 0.3437231183052063, 0.1510496288537979, -0.332231342792511, 0.10448326170444489, 0.02387026697397232, 0.20191197097301483], [-0.2210475355386734, -0.8175269961357117, -0.25270432233810425, -0.5684788227081299, -0.9443796277046204, -1.7338840961456299, 0.32263603806495667, 1.1272368431091309, -1.000798225402832, 1.880853533744812, -1.997190237045288, -0.261928528547287, -1.0371085405349731, -0.8392664194107056, 0.13822878897190094, -0.5455308556556702, 0.47550168633461, 0.0073726302944123745, 0.1077633798122406, 0.38909876346588135, 0.42275774478912354, 0.44195547699928284, 0.21111039817333221, -0.26113107800483704, 0.37460237741470337, -0.8950546979904175, 0.28622516989707947, 0.2972012758255005, -0.6342971920967102, 0.1623809039592743, 0.5351149439811707, 0.19739140570163727, 0.1507193148136139, -0.3428490161895752, 0.09275417774915695, 0.13282713294029236, 0.27786415815353394, 0.2746568024158478, 0.2912586033344269, -0.06290736794471741, -0.14521516859531403, -0.12118228524923325, -0.3380320370197296, 0.13030873239040375, -0.2296462208032608, 0.29293787479400635, -0.16577434539794922, -0.2652009427547455], [-2.054680347442627, -0.4275762140750885, 2.033461332321167, 0.20159631967544556, 0.632042407989502, -0.43549415469169617, -0.2980768084526062, 0.07655426114797592, 0.7598203420639038, -0.9077001810073853, 0.10164559632539749, 0.07509195059537888, -0.860958456993103, -0.6974422931671143, 0.23008747398853302, 1.4945341348648071, -0.18097828328609467, 0.4577263295650482, 0.4531753957271576, 0.027047613635659218, -0.14061063528060913, 0.07431937754154205, 0.8201269507408142, 0.14906984567642212, 0.03129109367728233, 0.1566193401813507, 0.08238651603460312, -0.07129955291748047, -0.32910028100013733, 0.3821994364261627, 0.09509370476007462, 0.09057924151420593, 0.03683153912425041, -0.030360093340277672, -0.23186926543712616, 0.3667104244232178, 0.11939995735883713, 0.1637255847454071, -0.14007799327373505, 0.19441838562488556, -0.14453329145908356, 0.2923200726509094, 0.24529199302196503, 0.10743200778961182, -0.4062071442604065, -0.15642453730106354, 0.421523779630661, 0.11497766524553299], [0.8836860060691833, 1.1798511743545532, -1.2670096158981323, 0.05920800194144249, 0.3728097081184387, 1.3082422018051147, 0.36549606919288635, -1.2829746007919312, -0.669382631778717, -0.0627845823764801, 1.942836046218872, -0.355114221572876, 0.9176713228225708, 0.45537567138671875, -0.2946983277797699, -0.7300286889076233, -0.549622654914856, -0.38405659794807434, 0.268836110830307, -0.1321142464876175, -0.09895576536655426, -0.17407643795013428, -0.17616458237171173, -0.19169548153877258, -0.01260629016906023, 0.469271719455719, 0.06153257563710213, -0.29272449016571045, -0.05301782861351967, -0.3313191533088684, -0.20601221919059753, 0.14807474613189697, 0.08485095202922821, -0.3109320104122162, -0.3074810802936554, 0.02330237627029419, 0.2442142516374588, 0.08662508428096771, -0.20847707986831665, 0.22242721915245056, 0.05665381997823715, -0.05977344512939453, -0.16650065779685974, 0.03715585172176361, 0.07618441432714462, 0.2030283659696579, -0.2218901365995407, 0.15143772959709167], [-0.19082997739315033, -0.9871160387992859, 0.16092568635940552, -0.1232527643442154, -0.9647457003593445, -1.3664439916610718, 0.650253176689148, 1.0858274698257446, -0.19994555413722992, 1.2702758312225342, -1.6261335611343384, -0.06339260935783386, -0.7211363911628723, -0.1391996443271637, 0.44179901480674744, 0.0847202017903328, 0.4014850854873657, -0.06916404515504837, 0.2847471833229065, -0.19887104630470276, -0.16072440147399902, 0.3265921175479889, 0.046197447925806046, 0.14903472363948822, 0.48541706800460815, -1.2077703475952148, 0.04933927208185196, 0.011875901371240616, -0.13247351348400116, -0.04470972716808319, 0.009188850410282612, -0.10346158593893051, 0.4036868214607239, -0.07764130085706711, 0.012740847654640675, -0.21492354571819305, -0.09573856741189957, -0.15977071225643158, 0.1419178694486618, -0.17690153419971466, -0.04670615866780281, 0.31065353751182556, 0.10645445436239243, -0.025413578376173973, -0.09482866525650024, -0.11084946244955063, -0.0638759657740593, -0.3515685200691223], [-0.9079390168190002, -1.398506760597229, 0.8278433084487915, -0.5609788298606873, -0.5906382203102112, -1.3114618062973022, -0.18886138498783112, 0.9590651988983154, -0.31629082560539246, 0.8403312563896179, -3.0637571811676025, 0.36698877811431885, -0.8878036141395569, -0.07641265541315079, 0.3348708748817444, 0.26764053106307983, 0.2614230513572693, -0.2066417634487152, 0.043727580457925797, -0.06290264427661896, -0.03844797611236572, 0.16607943177223206, 0.10466539114713669, 0.11908281594514847, 0.005439472384750843, -0.3487527668476105, 0.26042184233665466, 0.009941238909959793, -0.41908740997314453, 0.27241653203964233, 0.5106863975524902, -0.30253493785858154, 0.25476711988449097, -0.0431843064725399, 0.1702307164669037, -0.2618492543697357, 0.2165370136499405, -0.12753336131572723, 0.04196947067975998, 0.16174140572547913, -0.14663578569889069, 0.3211580514907837, -0.06643463671207428, 0.07662716507911682, 0.054994162172079086, 0.10162463039159775, -0.31942686438560486, -0.3000308573246002], [0.053759071975946426, -0.8347947597503662, 0.18560843169689178, -0.45565658807754517, -0.6893320679664612, -1.7325944900512695, 0.10954418778419495, 1.2994792461395264, -0.4377802908420563, 1.0293618440628052, -1.3289624452590942, 0.48401346802711487, -1.0699840784072876, -0.1516311764717102, 0.501492440700531, -0.02705392986536026, 0.1684740036725998, 0.03234249725937843, 0.164883092045784, 0.4267250597476959, -0.022737890481948853, 0.5509549379348755, 0.19682760536670685, 0.2459164261817932, 0.26900190114974976, -1.2448835372924805, 0.5783753395080566, 0.38238558173179626, 0.12483664602041245, 0.1525612622499466, 0.1376170814037323, 0.15148314833641052, -0.19693346321582794, -0.1049695536494255, 0.036348652094602585, 0.054443370550870895, -0.3000202775001526, 0.1180373802781105, 0.057443343102931976, 0.19604383409023285, 0.16137535870075226, -0.2230125069618225, -0.3162490427494049, 0.1326693296432495, 0.128543421626091, -0.04756980016827583, -0.10603207349777222, -0.3001877963542938]], [[-0.6633927822113037, 1.8116953372955322, -0.6439093947410583, 0.8223936557769775, -1.9791786670684814, -0.8057904839515686, 0.008632286451756954, 0.15248717367649078, -0.7001909017562866, 0.7151056528091431, -0.9435343146324158, 0.322344571352005, 0.10668440163135529, 0.08245798200368881, -0.4267701506614685, 0.9403356313705444, 0.33847737312316895, 0.050392210483551025, 0.27980074286460876, 0.1229759156703949, 0.16122229397296906, 0.02804691158235073, 0.11324195563793182, -0.04195829853415489, 0.17851711809635162, -0.2610569894313812, -0.2762766182422638, 0.20770391821861267, -0.3375455141067505, 0.1382586807012558, -0.10196691006422043, 0.2180996984243393, 0.016890112310647964, 0.1301102489233017, -0.384341299533844, -0.12128335237503052, -0.11634568870067596, 0.3911609947681427, 0.017902811989188194, 0.21729536354541779, 0.02636171318590641, 0.01365698967128992, -0.21941448748111725, -0.22128957509994507, 0.09922678768634796, 0.000917985918931663, -0.1578597128391266, -0.22360457479953766], [-1.0784506797790527, 0.09841341525316238, -2.2713356018066406, 0.4636671841144562, -0.28249499201774597, 0.3331471383571625, 0.5258175730705261, 1.0506197214126587, 0.6687835454940796, 0.6566002368927002, 1.3472124338150024, 0.5605190992355347, 0.6207790374755859, 0.5217282176017761, -1.853381872177124, 0.39244532585144043, 0.7026365399360657, 0.12050192058086395, 0.03994351252913475, 0.20760631561279297, 0.3197450339794159, 0.5066924095153809, -0.8410662412643433, 0.1527344137430191, 0.37950989603996277, -0.14123228192329407, 0.1429329663515091, -0.28423184156417847, 0.12718281149864197, 0.22977884113788605, -0.26325175166130066, 0.0015172949060797691, -0.29574164748191833, 0.3098924160003662, -0.07254698127508163, 0.15643365681171417, -0.25619444251060486, -0.22826117277145386, 0.18014557659626007, 0.30813145637512207, 0.41528061032295227, 0.19675450026988983, -0.059895459562540054, 0.5124475955963135, -0.07772564142942429, -0.06645569950342178, 0.11887580901384354, -0.15889564156532288], [0.3001823127269745, -0.8674426674842834, -0.9569581151008606, 0.15910588204860687, 0.23718832433223724, -0.3361767530441284, 0.27734243869781494, 0.4478527307510376, 0.7562582492828369, 0.09618712216615677, 0.4412255883216858, 0.7562770247459412, 0.059510767459869385, -0.7396309971809387, -0.25194746255874634, 0.06611637771129608, 0.18103887140750885, 0.017812756821513176, -0.5215347409248352, 0.0442187637090683, 0.380799800157547, 0.2655515968799591, 0.12167520821094513, 0.5766262412071228, 0.27805566787719727, 0.02099650166928768, -0.13060925900936127, -0.12740468978881836, -0.2545737624168396, 0.1659996509552002, 0.3854740560054779, -0.21421431005001068, 0.12920527160167694, 0.25411659479141235, 0.050229232758283615, 0.3736322820186615, 0.34136050939559937, -0.31437361240386963, 0.05571907013654709, 0.4351487159729004, 0.11840470880270004, 0.02281099744141102, 0.3022218346595764, 0.4033714532852173, 0.2557121217250824, -0.28465351462364197, -0.13905423879623413, -0.014199352823197842], [0.9219269752502441, -0.3011622726917267, 0.6842089891433716, -0.8277016282081604, 0.24926713109016418, 0.021237298846244812, -0.06596095860004425, -0.33990979194641113, -0.5804863572120667, 0.9513665437698364, -0.6394440531730652, -1.0059640407562256, -0.4423275291919708, 0.179454043507576, 1.0610380172729492, -1.0018274784088135, -0.679125189781189, -0.12424707412719727, 0.014464294537901878, -0.34027746319770813, -0.6621677279472351, -0.42821159958839417, 0.07140199840068817, 0.24745365977287292, -0.5901787281036377, -0.41928115487098694, 0.14546430110931396, -0.21896527707576752, 0.18757323920726776, -0.8373246192932129, -0.01885741390287876, -0.2447512447834015, 0.030851464718580246, -0.19097571074962616, -0.14826540648937225, 0.3830163776874542, -0.06973401457071304, 0.08677610754966736, -0.024267518892884254, 0.12592652440071106, -0.08752623945474625, 0.015457767061889172, 0.06570827960968018, 0.02537423186004162, -0.15680861473083496, 0.37977439165115356, -0.4614928960800171, 0.12953510880470276], [0.015518194064497948, -1.1529875993728638, -0.3414839506149292, -0.7282863855361938, 0.8930128812789917, 0.5374705791473389, 0.3798113763332367, 0.22008231282234192, 1.4848123788833618, -0.2506811320781708, 1.6474030017852783, 0.5527091026306152, 0.05052586644887924, 0.3535817861557007, -0.5719335079193115, -0.3484846353530884, 0.3039402663707733, 0.0649963840842247, -0.30664658546447754, -0.04302685707807541, 0.12990854680538177, -0.06316611915826797, 0.10413047671318054, -0.1636970192193985, 0.026478394865989685, -0.15428569912910461, 0.05809780955314636, 0.10469792783260345, -0.1836889386177063, -0.10845506936311722, 0.10838580876588821, -0.00013904176012147218, -0.33208754658699036, 0.1383894681930542, 0.3402581810951233, 0.28299781680107117, 0.18983229994773865, -0.2230789065361023, -0.10351788252592087, 0.08974887430667877, 0.25363850593566895, 0.3404957950115204, 0.26101818680763245, 0.3809911906719208, 0.521018385887146, -0.2745368182659149, 0.08665590733289719, 0.11803137511014938], [0.12682901322841644, 0.5396572351455688, 0.8341396450996399, 0.1013556718826294, -0.5139870643615723, 0.25794947147369385, -0.6641391515731812, -0.18872548639774323, -0.6531504392623901, -0.4444896876811981, -0.37602755427360535, -0.4167952239513397, -0.23772147297859192, 0.19218745827674866, 0.7271040678024292, 0.4238389730453491, 0.19146323204040527, -0.14638416469097137, 1.195596694946289, 0.010683251544833183, -0.133300319314003, 0.012669052928686142, -0.4559769332408905, -0.15186180174350739, 0.037681736052036285, -0.04351435974240303, 0.1519549936056137, 0.15456511080265045, -0.22643233835697174, -0.23194292187690735, 0.08600468188524246, 0.10786797106266022, 0.383609801530838, 0.1679312288761139, -0.4172403812408447, -0.24919317662715912, -0.2159169316291809, 0.4463563561439514, 0.0014141607098281384, -0.47837573289871216, -0.3124983012676239, 0.05431318283081055, -0.3477363586425781, -0.9417010545730591, -0.07975781708955765, 0.1928199976682663, -0.09198998659849167, -0.08136219531297684], [-1.0268596410751343, 2.5857770442962646, -1.4424549341201782, 0.6033738851547241, -0.2440553456544876, -1.1876633167266846, 0.1591908037662506, 0.044102706015110016, -0.5582255125045776, 0.6961476802825928, 0.2272689938545227, -0.14490771293640137, 0.5507017374038696, -0.4889371395111084, -1.8196313381195068, -0.15566936135292053, 0.3703959584236145, 0.24571840465068817, 0.0862353965640068, 0.46484774351119995, 0.2882295846939087, 0.10578634589910507, -0.663679301738739, 0.4228591322898865, 0.1759038269519806, 0.005649085622280836, -0.6989907026290894, 0.1358066350221634, 0.06445392221212387, 0.20192180573940277, 0.4403488337993622, 0.11800125241279602, -0.524329662322998, 0.2343200147151947, -0.0978393703699112, 0.0280658807605505, 0.038675129413604736, 0.033761776983737946, 0.14916357398033142, -0.19554337859153748, 0.0408049039542675, 0.02548041380941868, 0.04456743225455284, -0.05719598010182381, -0.05293440446257591, 0.008720695972442627, 0.2396230548620224, 0.0025925603695213795], [-0.9243146777153015, 2.049774408340454, -0.6656965017318726, 0.9159491062164307, 0.06937554478645325, 0.17940033972263336, 0.9566564559936523, -0.33928418159484863, 0.31162071228027344, 0.756190299987793, 0.8320543169975281, 0.5064106583595276, 1.0255972146987915, 0.27539563179016113, -1.2917089462280273, -0.32381895184516907, -0.062955841422081, -0.19802477955818176, -0.07306651771068573, 0.08382467925548553, 0.1291801780462265, 0.1732381135225296, -0.4583095908164978, 0.3628169596195221, 0.05628186836838722, -0.28460076451301575, 0.07401681691408157, -0.614711582660675, 0.1882571280002594, 0.6142603754997253, -0.025439541786909103, 0.08364947885274887, -0.037723980844020844, 0.011189083568751812, 0.08941751718521118, -0.5810750722885132, -0.01848275028169155, 0.04504522308707237, -0.029559092596173286, 0.18071012198925018, 0.18978339433670044, 0.12935589253902435, -0.14588753879070282, 0.10716468095779419, 0.04994745925068855, 0.06397640705108643, 0.03320525214076042, 0.004885975271463394], [0.26728329062461853, 0.8223718404769897, 0.917116641998291, -0.28960099816322327, 0.14019978046417236, 0.3479200303554535, 0.26673731207847595, 0.9399638772010803, 2.0228958129882812, -0.4428226351737976, 0.932200014591217, 0.06722747534513474, -0.8323920369148254, -0.5934345722198486, 0.5213402509689331, -0.8841472864151001, 0.7123314738273621, 0.24221168458461761, -0.2920879125595093, -0.21114009618759155, 0.10745151340961456, 0.5211463570594788, -0.12015063315629959, 0.21336770057678223, 0.07161314785480499, 0.26520228385925293, -0.17268168926239014, 0.287178099155426, 0.23619773983955383, 0.14130151271820068, -0.4281401038169861, -0.13339351117610931, 0.07166045159101486, 0.310619056224823, 0.2546983063220978, 0.25845086574554443, 0.19075404107570648, 0.06109160929918289, 0.3582986891269684, 0.3630422055721283, 0.17763349413871765, -0.006009377539157867, -0.02654147706925869, 0.17827950417995453, 0.10023289173841476, -0.2986547648906708, -0.04426361247897148, -0.06480630487203598], [-1.1629490852355957, -0.19427794218063354, -2.171387195587158, 0.34140291810035706, 0.061353664845228195, -0.6727901101112366, 0.14657700061798096, 0.2266489416360855, -0.3881114423274994, 2.2334678173065186, 0.440359503030777, 0.25004640221595764, 1.1327362060546875, -0.15555842220783234, -1.3282132148742676, 0.4220302402973175, 0.2919730842113495, 0.1982339322566986, 0.06946879625320435, -0.05593264102935791, -0.05691248178482056, 0.8325487971305847, -0.3865237832069397, -0.09847071021795273, 0.5019400715827942, -0.5787470936775208, 0.2717275619506836, 0.03214934840798378, -0.14692836999893188, 0.020188363268971443, 0.8510193824768066, 0.2887085974216461, 0.029800375923514366, 0.03131992742419243, -0.16938067972660065, -0.0015142055926844478, 0.32234159111976624, 0.31412672996520996, -0.04575624316930771, -0.10680787265300751, 0.19868741929531097, -0.011403909884393215, 0.05010393261909485, 0.0023114210925996304, -0.13391627371311188, -0.09201876074075699, -0.1406671702861786, -0.00932122953236103], [0.4986511468887329, -0.6255326867103577, 0.057012222707271576, -0.5801292657852173, 0.5723056197166443, 0.4534415602684021, 0.13051778078079224, -0.21691186726093292, 0.6024348139762878, 0.09190866351127625, 0.1667376309633255, -0.2301352471113205, 0.14633981883525848, 0.2978934049606323, 0.15963521599769592, -0.47881948947906494, -0.3680938184261322, -0.08175897598266602, -0.02221042662858963, -0.14340676367282867, -0.04636986926198006, -0.15651386976242065, 0.02114870771765709, -0.08477476239204407, -0.3231826424598694, 0.15683530271053314, -0.13372448086738586, 0.43710970878601074, 0.16556362807750702, -0.16574525833129883, -0.06380293518304825, -0.25646311044692993, -0.1433834433555603, -0.5620834827423096, 0.07634847611188889, 0.36689141392707825, 0.13448038697242737, -0.33267614245414734, 0.27717140316963196, -0.12070109695196152, 0.32639482617378235, -0.0936923399567604, -0.03235562518239021, 0.05864601209759712, 0.29760050773620605, -0.29757925868034363, -0.19881224632263184, 0.24635343253612518], [-0.2286662608385086, 0.6989943981170654, -0.5410513877868652, 0.9845290780067444, -0.44698354601860046, -0.3078579902648926, 0.31794536113739014, -0.14262497425079346, -1.8394618034362793, 0.6708073616027832, -0.07184038311243057, 0.048030786216259, 0.783187747001648, 0.05790368467569351, 0.12162984162569046, -0.7410848736763, 0.043967314064502716, 0.006436171475797892, 0.6351045370101929, -0.33210551738739014, 0.3106505572795868, 0.5699474215507507, -0.23901227116584778, 0.7719036340713501, 0.34865739941596985, -0.1686849594116211, -0.17042717337608337, -0.02040315978229046, 0.11532704532146454, 0.279634028673172, 0.12648332118988037, 0.05656006187200546, 0.4948625862598419, 0.19421066343784332, -0.1401512175798416, 0.13081376254558563, 0.047426898032426834, 0.07147734612226486, 0.08450202643871307, 0.2522822916507721, -0.2859104573726654, 0.09182973206043243, -0.06860723346471786, 0.19463391602039337, -0.35102784633636475, 0.09840476512908936, -0.14918605983257294, -0.1325366199016571], [0.14681775867938995, 0.9027500152587891, 0.5166051983833313, -0.5015432238578796, 0.4664734899997711, 0.2210889309644699, -0.9080507755279541, 0.505607008934021, 0.9668524265289307, -0.2670753598213196, 1.0777597427368164, 0.5338588356971741, -0.7298334836959839, -0.02145758830010891, 0.2628595530986786, 0.049090106040239334, 0.388314813375473, -0.2303592562675476, -0.6431818604469299, 0.43790125846862793, -0.6432729363441467, 0.04480578750371933, -0.3679393529891968, -0.2151566594839096, -0.001015372108668089, 0.17345890402793884, -0.4255252182483673, -0.1135164126753807, -0.15070103108882904, 0.027703141793608665, 0.13725116848945618, 0.00498381070792675, 0.46669283509254456, 0.06674718111753464, -0.07020052522420883, -0.37771937251091003, 0.025455335155129433, 0.2327384650707245, 0.43213218450546265, 0.07819324731826782, 0.07290956377983093, 0.5676544904708862, 0.13281051814556122, -0.4418613910675049, 0.731239378452301, -0.2076549232006073, 0.5553029775619507, 0.9414874315261841], [0.5519835352897644, -0.20030349493026733, 0.036033786833286285, -0.2528308033943176, -0.25382402539253235, -0.4729669690132141, 0.13264034688472748, -0.479897141456604, -1.134572148323059, -0.5685824155807495, -1.1641539335250854, -0.3050405979156494, 0.0306033194065094, -0.40381014347076416, 0.5729828476905823, -0.05269544571638107, -0.20195899903774261, -0.21125635504722595, 0.2301395684480667, -0.20017902553081512, -0.10638132691383362, 0.15684518218040466, 0.4122093617916107, 0.36822688579559326, -0.002336741890758276, -0.14246134459972382, -0.036994658410549164, 0.34561967849731445, 0.3831421434879303, 0.08501863479614258, 0.29937365651130676, 0.8325292468070984, 0.008272445760667324, -0.09781883656978607, -0.19308415055274963, -0.05326758325099945, -0.2532614767551422, 0.3312683403491974, -0.1826193481683731, 0.10357221215963364, -0.1885373890399933, -0.040695175528526306, -0.48539724946022034, -0.33213338255882263, -0.3809955418109894, 0.4270928204059601, 0.3548835813999176, 0.0618879459798336], [0.969565749168396, -0.5895230174064636, -0.3241880238056183, -0.3592851459980011, 0.8121175169944763, -0.15606199204921722, 0.48087549209594727, -0.06541721522808075, 0.6386273503303528, 0.09706729650497437, 0.709712564945221, 1.3619824647903442, 0.5789046287536621, -0.05229445546865463, -0.2750411927700043, 0.6321265697479248, 0.24693737924098969, -0.046902626752853394, -0.332039475440979, -0.2317260056734085, 1.1669766902923584, 0.8153800368309021, 0.010898486711084843, -0.05911305546760559, -0.023059796541929245, -0.492053359746933, 0.6359995007514954, 0.3828575015068054, -0.42650067806243896, 0.6788557767868042, -0.21851207315921783, 0.31602582335472107, -0.5783564448356628, 0.10033147782087326, 0.39653271436691284, -0.19484728574752808, 0.37662121653556824, -0.439848393201828, -0.20919358730316162, 0.21465526521205902, 0.006940044462680817, 0.12807168066501617, -0.1415199339389801, 0.24084830284118652, 0.1946234107017517, 0.14782416820526123, 0.7899984121322632, -0.28028395771980286], [1.005323886871338, -1.3084605932235718, 2.4475605487823486, -0.7442689538002014, -0.9024390578269958, 0.4499053955078125, -0.6618319749832153, 0.539768636226654, 0.017474651336669922, -1.006263256072998, -0.5832905769348145, -0.5000171661376953, -2.0190467834472656, -1.0486700534820557, 1.1785273551940918, -1.0371077060699463, -0.2801213562488556, -0.09892396628856659, -0.010716704651713371, 0.24596157670021057, 0.0201825350522995, 0.2080792933702469, -0.23329074680805206, -0.13832010328769684, 0.027113117277622223, 0.6183470487594604, -0.6280295848846436, -0.00981141161173582, -0.2639327049255371, 0.31235525012016296, 0.5042018294334412, 0.17417877912521362, -0.18624868988990784, -0.1863367259502411, 0.21892033517360687, -0.15126171708106995, -0.11677469313144684, 0.021347392350435257, 0.07989632338285446, -0.23628079891204834, 0.08095177263021469, 0.11902376264333725, -0.12950988113880157, -0.13527442514896393, -0.09019768238067627, -0.030018331483006477, -0.15584781765937805, 0.11808371543884277]], [[-0.14782875776290894, -0.2692588269710541, -0.09095841646194458, 1.0527859926223755, -0.6313641667366028, 0.5282953381538391, 0.6383793950080872, -0.40652331709861755, 0.748511016368866, -0.23123016953468323, -0.28914424777030945, 0.6515307426452637, 0.8166102170944214, 1.0305734872817993, 0.4881056249141693, 0.4558776021003723, 0.06984956562519073, 0.03881610557436943, 0.006746858358383179, 0.5705214738845825, 0.08744633942842484, -0.44397425651550293, -0.03331536799669266, -0.044050149619579315, 0.06260030716657639, -0.10488162189722061, -0.18488366901874542, 0.4570619761943817, 0.21883486211299896, 0.3822322487831116, -0.007581157609820366, 0.04363805800676346, 0.03494070842862129, 0.00944292638450861, 0.013221543282270432, -0.03067770227789879, -0.003308905055746436, 0.003969638142734766, 0.03299499303102493, 0.044460590928792953, -0.012582391500473022, -0.001292244647629559, -0.002500916365534067, 0.05293756723403931, 0.010051463730633259, -0.004500351380556822, 0.05045696347951889, -0.04667212814092636], [-0.14782875776290894, -0.2692588269710541, -0.09095841646194458, 1.0527859926223755, -0.6313641667366028, 0.5282953381538391, 0.6383793950080872, -0.40652331709861755, 0.748511016368866, -0.23123016953468323, -0.28914424777030945, 0.6515307426452637, 0.8166102170944214, 1.0305734872817993, 0.4881056249141693, 0.4558776021003723, 0.06984956562519073, 0.03881610557436943, 0.006746858358383179, 0.5705214738845825, 0.08744633942842484, -0.44397425651550293, -0.03331536799669266, -0.044050149619579315, 0.06260030716657639, -0.10488162189722061, -0.18488366901874542, 0.4570619761943817, 0.21883486211299896, 0.3822322487831116, -0.007581157609820366, 0.04363805800676346, 0.03284570574760437, 0.01584015041589737, 0.003558001946657896, -0.042042989283800125, -0.008576971478760242, 0.011835603043437004, 0.02416684851050377, 0.0411083847284317, -0.012925755232572556, 0.0028374972753226757, -0.0024041638243943453, 0.04406162351369858, 0.01319161057472229, -0.006458689458668232, 0.04544990882277489, -0.04418090358376503]]]}, {"type": "dense", "shape": [null, null, 1], "weights": [[[0.10228530317544937], [0.600875973701477], [-0.2716045081615448], [-0.015748245641589165], [0.38317105174064636], [0.03666805103421211], [0.06920484453439713], [-0.5458009243011475], [0.30263108015060425], [0.18769851326942444], [0.24966566264629364], [0.16602647304534912], [-0.46285852789878845], [-0.36165767908096313], [-0.5698369741439819], [0.24440979957580566]], [-0.006535200867801905]]}]}