{"in_shape": [null, null, 3], "layers": [{"type": "time-distributed-dense", "shape": [null, null, 8], "weights": [[[0.14649400115013123, -0.242050439119339, 0.36446937918663025, -0.8083357810974121, 0.3179754614830017, 0.5877642035484314, -0.07793908566236496, 0.20555444061756134], [-0.24450445175170898, 0.1317843794822693, 0.35246577858924866, 0.1721646934747696, -0.6470715403556824, 0.6548051238059998, 0.6319425702095032, 0.622474193572998], [-0.23207522928714752, -0.1740425080060959, 0.17029449343681335, 0.27618208527565, 0.11897608637809753, -0.5531057119369507, 0.6321521401405334, -0.4047297537326813]], [0.00427072960883379, -0.0011958889663219452, 0.0023733663838356733, -0.006420922465622425, 0.003337289672344923, 0.005047908052802086, 0.005208746530115604, -0.0005698989843949676]]}, {"type": "gru", "shape": [null, null, 16], "weights": [[[0.6235982179641724, 0.16933871805667877, 0.5516529679298401, 0.035709477961063385, 0.17768119275569916, 0.35490354895591736, 0.15934616327285767, 0.17319902777671814, 0.17178229987621307, 0.20684796571731567, 0.18825028836727142, -0.19079823791980743, -0.02363693341612816, 0.14781224727630615, 0.2872200608253479, -0.012934822589159012, 0.22289714217185974, 0.09400239586830139, -0.24628622829914093, -0.11110283434391022, 0.051841285079717636, 0.15778201818466187, 0.3355439007282257, 0.03615541011095047, 0.16793276369571686, 0.24851064383983612, 0.21012265980243683, 0.05213993042707443, -0.011950255371630192, -0.16735556721687317, 0.22033055126667023, -0.0453319251537323, -0.2560442388057709, -0.07879296690225601, 0.11993813514709473, 0.06358421593904495, 0.11385712027549744, 0.11962191015481949, 0.26197075843811035, -0.03879807889461517, 0.29258859157562256, -0.24169088900089264, -0.1031622663140297, 0.22703585028648376, -0.23905619978904724, -0.08065390586853027, -0.25956398248672485, -0.30959948897361755], [-0.42389240860939026, 0.01964912749826908, -0.23789790272712708, -0.05352397635579109, -0.0943973958492279, -0.3070456087589264, -0.6027296781539917, 0.006613129284232855, -0.0500396266579628, 0.14428064227104187, 0.1153995469212532, -0.17336393892765045, -0.07684265077114105, -0.18687817454338074, -0.23788706958293915, 0.4315354526042938, 0.11020802706480026, 0.14420701563358307, -0.2553764283657074, 0.5022591352462769, -0.21153338253498077, 0.13798168301582336, -0.16369810700416565, -0.1661730706691742, 0.26562801003456116, 0.07257823646068573, 0.20282091200351715, 0.34777918457984924, -0.2726829946041107, -0.015408411622047424, 0.04714692011475563, -0.06679341942071915, -0.196829691529274, 0.19011205434799194, 0.18737508356571198, -0.1886328160762787, 0.32617291808128357, -0.3941180109977722, 0.10560775548219681, 0.19053146243095398, 0.13648517429828644, -0.14220920205116272, 0.3426390588283539, 0.06386861950159073, -0.22593826055526733, 0.1012076884508133, 0.08342204988002777, 0.202162966132164], [-0.35014835000038147, 0.14635752141475677, -0.32710888981819153, 0.13289280235767365, -0.1658288836479187, -0.3942982256412506, -0.072100430727005, -0.012162822298705578, -0.6070478558540344, 0.3328186869621277, -0.41991621255874634, -0.026036232709884644, 0.11613515764474869, -0.3241823613643646, 0.14289043843746185, -0.4682047963142395, 0.40733757615089417, -0.049929577857255936, 0.05282492935657501, 0.40817728638648987, 0.26955482363700867, -0.1931937038898468, 0.28092265129089355, -0.24779319763183594, 0.16790811717510223, 0.14194825291633606, -0.23869414627552032, 0.09225229918956757, -0.2611471116542816, 0.20481248199939728, 0.19855980575084686, 0.19962038099765778, 0.13315477967262268, -0.3372569978237152, 0.08573158830404282, 0.14444144070148468, 0.2791731357574463, 0.25307711958885193, 0.2504937946796417, -0.07395626604557037, -0.16356612741947174, -0.13647964596748352, -0.3452267050743103, 0.2248167097568512, -0.25812768936157227, 0.3029782474040985, -0.15961994230747223, -0.22744789719581604], [-0.40120285749435425, -0.2838084101676941, -0.06022728234529495, 0.2925468683242798, -0.2194228172302246, -0.31617414951324463, -0.20269909501075745, -0.04263204336166382, 0.42863067984580994, -0.39068371057510376, 0.0690343827009201, 0.10380086302757263, -0.16109617054462433, -0.5720123648643494, -0.3550751507282257, 0.10748030245304108, 0.24775218963623047, 0.3456572890281677, -0.2575499713420868, -0.11676023155450821, -0.25918957591056824, -0.08393637090921402, -0.2916601002216339, -0.1759980022907257, 0.005773581098765135, 0.28053125739097595, -0.06420866400003433, -0.09260976314544678, -0.20834068953990936, 0.39009174704551697, -0.06735590845346451, 0.16688865423202515, -0.090640127658844, -0.16246506571769714, -0.21147382259368896, 0.31503531336784363, 0.08609887957572937, 0.1806931048631668, -0.012778996489942074, 0.19293539226055145, -0.11911696940660477, 0.13480325043201447, 0.21403343975543976, -0.14449501037597656, -0.25847846269607544, -0.15838679671287537, 0.3439750075340271, 0.08987629413604736], [-0.03736935928463936, 0.26544108986854553, 0.4790758788585663, -0.3621581792831421, 0.017338860780000687, 0.27237698435783386, 0.527355968952179, -0.33336424827575684, -0.04947807267308235, 0.02463199570775032, 0.09939997643232346, -0.4877013564109802, 0.23545925319194794, 0.5090264678001404, -0.03449035435914993, -0.06610856205224991, -0.33776193857192993, -0.3461916744709015, 0.3246091604232788, -0.14618505537509918, 0.005614578258246183, 0.13634759187698364, -0.11027152091264725, 0.03261582553386688, 0.09194091707468033, 0.1792604923248291, 0.37582123279571533, -0.28199368715286255, -0.06249649450182915, -0.4852117896080017, 0.11555609107017517, 0.15174677968025208, 0.09434358775615692, -0.2898305356502533, -0.3094121813774109, 0.029725851491093636, 0.2466096431016922, 0.10164894908666611, -0.19824320077896118, 0.17900753021240234, 0.06448841840028763, -0.03148488327860832, -0.15818381309509277, 0.01444146130234003, 0.04368940368294716, 0.19358961284160614, -0.26448363065719604, 0.12378247827291489], [-0.5180724859237671, -0.2632597088813782, -0.08547113835811615, 0.43330198526382446, -0.16306406259536743, -0.1123419925570488, 0.16183312237262726, 0.1930677741765976, 0.02580450475215912, -0.2646580934524536, -0.12227717787027359, 0.04960337653756142, 0.14641256630420685, -0.2077481895685196, 0.3646358847618103, 0.07657448202371597, 0.3532033860683441, -0.10772064328193665, 0.2341446727514267, -0.08087582886219025, -0.2765013575553894, 0.021267525851726532, 0.08683909475803375, 0.020108899101614952, 0.3693155348300934, -0.15701153874397278, -0.4011499285697937, 0.027017788961529732, 0.041390594094991684, 0.1897037923336029, -0.07910679280757904, -0.11613097786903381, 0.38539421558380127, -0.06785176694393158, 0.014721228741109371, -0.2095787525177002, -0.08758316189050674, -0.18482789397239685, 0.12303182482719421, -0.21052023768424988, -0.05623374506831169, 0.30657413601875305, 0.10547972470521927, 0.04026591405272484, -0.11748497933149338, -0.10660676658153534, -0.04456626623868942, -0.30651915073394775], [-0.540090024471283, -0.3804577887058258, -0.45625394582748413, 0.3004225492477417, 0.060872334986925125, 0.058443278074264526, -0.4653499722480774, -0.004380387719720602, -0.5479611754417419, 0.17658653855323792, -0.5226103067398071, 0.497574120759964, -0.006320509593933821, -0.11436989158391953, 0.15901528298854828, -0.13136692345142365, 0.18261770904064178, -0.24548931419849396, -0.007203145883977413, -0.057555295526981354, -0.14559917151927948, -0.20620417594909668, 0.0988047868013382, -0.0320553258061409, -0.13727767765522003, 0.07731495797634125, -0.08342348039150238, -0.03200851380825043, -0.3378930687904358, 0.4852738678455353, 0.25610506534576416, -0.3106648027896881, 0.24135059118270874, -0.049405865371227264, 0.17101602256298065, -0.2637348473072052, 0.21909940242767334, -0.14647522568702698, 0.026408571749925613, 0.16112227737903595, -0.15485547482967377, 0.3038041591644287, -0.07117903232574463, 0.12027733772993088, 0.0638372004032135, 0.10866105556488037, -0.29286396503448486, -0.26424330472946167], [-0.22444550693035126, -0.18485628068447113, -0.07035566866397858, 0.30190521478652954, 0.04282153770327568, -0.5361202955245972, -0.3017828166484833, 0.3690844178199768, -0.2975956201553345, 0.0969967395067215, 0.004060746636241674, 0.5834956765174866, -0.22444473206996918, -0.2142961621284485, 0.44884151220321655, -0.1743282675743103, 0.07378958910703659, -0.003835583571344614, 0.11472650617361069, 0.47874826192855835, -0.13728247582912445, 0.1766982227563858, 0.23306988179683685, 0.1266733705997467, 0.11782190948724747, -0.25841769576072693, -0.025119811296463013, 0.3561584949493408, 0.26835131645202637, 0.46160924434661865, 0.042937733232975006, 0.13546311855316162, -0.21035392582416534, -0.09825009107589722, 0.036112911999225616, 0.05930045247077942, -0.29460182785987854, 0.09553848952054977, 0.03436069190502167, 0.16436193883419037, 0.1489667296409607, -0.22600944340229034, -0.31890669465065, 0.19528387486934662, 0.11445727944374084, -0.041412387043237686, -0.08223209530115128, -0.25965043902397156]], [[-0.010427108034491539, -0.07396727055311203, -0.07000743597745895, 0.5229548215866089, -0.2684932053089142, -0.3705303966999054, -0.4042201340198517, 0.05276927351951599, -0.16260282695293427, 0.2745797038078308, -0.3007325530052185, 0.25129929184913635, -0.0973554253578186, -0.04699946939945221, 0.07076498121023178, 0.2867510914802551, 0.3288566470146179, 0.007463082205504179, 0.22652925550937653, 0.2932118773460388, 0.07977178692817688, -0.050645556300878525, 0.27952447533607483, -0.10972430557012558, -0.06325835734605789, 0.10875308513641357, -0.2841429114341736, 0.2595224678516388, -0.03522353619337082, 0.18200573325157166, 0.029736869037151337, 0.1711961328983307, -0.016232531517744064, 0.10158786922693253, -0.36646953225135803, -0.09741907566785812, -0.10158013552427292, 0.34951984882354736, -0.03978702798485756, 0.22838081419467926, 0.008391760289669037, -0.010973744094371796, -0.2019633650779724, -0.20116236805915833, 0.151919886469841, 0.00560715002939105, -0.1678820103406906, -0.19002151489257812], [-0.00811877939850092, 0.27824726700782776, -0.37124067544937134, 0.24686169624328613, -0.11025156825780869, -0.05641021579504013, -0.11210154742002487, 0.18090620636940002, -0.20373345911502838, 0.416209876537323, 0.22966672480106354, 0.2069627046585083, -0.01827644370496273, -0.09242953360080719, -0.2845873534679413, 0.23823820054531097, 0.01894768513739109, 0.09592581540346146, -0.05474404990673065, 0.2817972004413605, 0.23341092467308044, 0.27243828773498535, -0.1956922858953476, -0.02110278233885765, 0.366617888212204, -0.05898840352892876, 0.1788240373134613, 0.11833379417657852, 0.12229295819997787, 0.2485409677028656, 0.14678101241588593, -0.10090353339910507, -0.19541998207569122, 0.29265227913856506, -0.08958029747009277, 0.14837972819805145, -0.2510508596897125, -0.2251005917787552, 0.13578470051288605, 0.20770679414272308, 0.4044712781906128, 0.21818211674690247, -0.04946662113070488, 0.3430538475513458, -0.07532616704702377, -0.06483231484889984, 0.012377866543829441, -0.10864497721195221], [-0.19244149327278137, -0.4088195562362671, -0.4695472717285156, 0.3233930468559265, -0.30645230412483215, -0.08551732450723648, -0.16230136156082153, -0.3180018663406372, 0.029809776693582535, -0.1483740210533142, -0.15063832700252533, 0.24674341082572937, -0.2056090086698532, -0.23094810545444489, -0.3653448224067688, 0.37984704971313477, -0.10489249974489212, -0.03332069516181946, -0.02420462667942047, -0.25100618600845337, 0.21861505508422852, 0.12105478346347809, -0.23889406025409698, 0.12303850799798965, 0.26046696305274963, -0.01680700294673443, -0.16010133922100067, 0.005014568101614714, -0.02778639644384384, 0.22139723598957062, 0.2657427191734314, 0.09278909862041473, -0.14814282953739166, 0.29114803671836853, 0.02009887993335724, 0.36367109417915344, 0.3184606730937958, -0.3053203225135803, 0.031033311039209366, -0.12583497166633606, 0.10393622517585754, -0.0018937430577352643, 0.32124626636505127, 0.3248240351676941, -0.03657294437289238, -0.2735430598258972, 0.025606127455830574, -0.014451097697019577], [0.3300549387931824, -0.20224790275096893, 0.3381917476654053, -0.49217066168785095, 0.30892056226730347, -0.0829201340675354, 0.18316249549388885, -0.12550735473632812, 0.030289119109511375, -0.07568079233169556, 0.0084901237860322, -0.34623783826828003, 0.0013932149158790708, 0.22059354186058044, -0.25161686539649963, 0.07583343982696533, -0.17139416933059692, -0.0333712100982666, -0.026311323046684265, -0.4357288181781769, -0.27217963337898254, -0.2824457287788391, -0.13845530152320862, -0.02728358283638954, -0.06734126806259155, -0.12154803425073624, 0.2633456885814667, -0.24876369535923004, 0.05817994475364685, -0.23560553789138794, -0.09645787626504898, -0.11860491335391998, -0.18096308410167694, -0.1084180548787117, -0.06247473135590553, 0.3373004198074341, -0.020601844415068626, 0.031526435166597366, 0.058378878980875015, 0.15962806344032288, -0.03509610518813133, 0.09181919693946838, 0.09795229882001877, 0.06269752234220505, -0.12450265884399414, 0.33268287777900696, -0.3642936944961548, 0.15031373500823975], [-0.2570037543773651, 0.15588483214378357, -0.39132723212242126, -0.601091206073761, 0.09663120657205582, 0.1290498971939087, -0.0378868393599987, -0.26936081051826477, 0.4143797755241394, -0.3846576511859894, 0.35215309262275696, -0.04054046794772148, -0.1827518790960312, 0.46866363286972046, -0.5640367865562439, -0.2600208520889282, 0.047047488391399384, 0.08193850517272949, -0.17772874236106873, -0.2388913482427597, -0.010756333358585835, -0.14085331559181213, -0.05944082885980606, -0.06330133229494095, 0.03526677191257477, -0.17030766606330872, 0.024918869137763977, 0.21419821679592133, -0.021913956850767136, -0.07027451694011688, 0.0490400493144989, 0.19204165041446686, -0.37514373660087585, 0.1930398941040039, 0.28750017285346985, 0.2499038428068161, 0.14115972816944122, -0.16981488466262817, -0.0702139213681221, -0.03987503424286842, 0.22572077810764313, 0.3384493887424469, 0.21439242362976074, 0.044100940227508545, 0.12513841688632965, -0.29700759053230286, -0.20884263515472412, 0.1073097512125969], [0.14657405018806458, -0.013802987523376942, 0.4210215210914612, -0.07291698455810547, 0.18226319551467896, 0.3033950626850128, -0.0006130867404863238, 0.29549703001976013, 0.12038324773311615, 0.046863336116075516, 0.2401707023382187, -0.2292565554380417, 0.31671613454818726, 0.14517976343631744, 0.5208912491798401, 0.15056130290031433, 0.3377555012702942, -0.12007200717926025, -0.21056336164474487, 0.20732007920742035, 0.0017537082312628627, -0.05670107901096344, -0.21167194843292236, -0.025265322998166084, 0.03355661779642105, -0.019194670021533966, 0.16584867238998413, 0.023197859525680542, 0.1842360943555832, -0.32227665185928345, 0.32582107186317444, -0.11374526470899582, 0.34122365713119507, 0.13291817903518677, -0.36924827098846436, -0.23185110092163086, -0.18625806272029877, 0.3951955735683441, 0.007618646137416363, 0.1579480767250061, -0.28943946957588196, 0.04790883883833885, -0.2678054869174957, -0.3899087607860565, 0.30334681272506714, 0.18673409521579742, 0.12805841863155365, -0.09780542552471161], [-0.02094612643122673, -0.06794746220111847, -0.031732942909002304, 0.5074288249015808, -0.2606586217880249, -0.1433076113462448, -0.38253816962242126, -0.3177003264427185, -0.2673792839050293, 0.033811766654253006, -0.14230141043663025, 0.28730887174606323, 0.01315635908395052, -0.49593812227249146, -0.6284976601600647, -0.042860571295022964, -0.007143051363527775, 0.20326127111911774, 0.0897064208984375, 0.23593512177467346, 0.24054880440235138, 0.17913177609443665, -0.004402637016028166, 0.3019038140773773, 0.1866074502468109, 0.1371050477027893, -0.11368639022111893, 0.2588885426521301, 0.1603441685438156, 0.4435528814792633, -0.0012999505270272493, 0.10238724946975708, -0.3616320788860321, 0.21771535277366638, -0.12257921695709229, 0.011180303990840912, 0.03266385942697525, 0.04329688847064972, 0.04681989550590515, -0.10899214446544647, 0.014949275180697441, 0.0415794812142849, 0.03526146709918976, 0.020834442228078842, -0.00918801873922348, 0.018549537286162376, 0.11804872006177902, 0.06497946381568909], [0.18261714279651642, -0.002237444743514061, 0.012701550498604774, 0.5091911554336548, 0.1851741075515747, 0.400363951921463, 0.11138691753149033, 0.009715850464999676, -0.019782574847340584, 0.02685764618217945, 0.3139536380767822, 0.35338929295539856, 0.1974319964647293, -0.06485103070735931, 0.17451751232147217, 0.6080917716026306, -0.2125655561685562, -0.17004618048667908, -0.22759586572647095, 0.1995224952697754, 0.09217066317796707, 0.15490089356899261, 0.26627200841903687, 0.20347775518894196, 0.03480185568332672, -0.17924705147743225, 0.12255052477121353, 0.037727270275354385, -0.0946788564324379, 0.5126043558120728, 0.06522710621356964, -0.009938712231814861, -0.08765748143196106, 0.0004981280071660876, 0.1123071238398552, -0.5547017455101013, 0.007068236358463764, -0.0010000017937272787, -0.11387499421834946, 0.11929895728826523, 0.2049214094877243, 0.10679160803556442, -0.12117108702659607, -0.13718169927597046, 0.033430688083171844, 0.05548840016126633, -0.05513950064778328, 0.008055035956203938], [0.14374977350234985, 0.10489258915185928, 0.32883602380752563, -0.30797672271728516, 0.43619340658187866, 0.23927439749240875, 0.3535357415676117, -0.04886271059513092, 0.21534313261508942, 0.13014259934425354, 0.27364805340766907, -0.28269919753074646, 0.06946681439876556, 0.07963524013757706, -0.0029054488986730576, -0.10149669647216797, 0.19638289511203766, -0.1173238679766655, -0.19033989310264587, -0.5370922088623047, -0.09009352326393127, 0.12196539342403412, -0.09819578379392624, 0.0721186101436615, 0.05993584543466568, 0.11144054681062698, -0.09308496117591858, 0.10164851695299149, -0.02047853358089924, 0.18618182837963104, -0.3472709655761719, -0.0735849067568779, -0.08325853943824768, 0.006439375691115856, 0.20931591093540192, 0.33332493901252747, 0.17663021385669708, 0.10563412308692932, 0.008501332253217697, 0.2652111053466797, 0.11815013736486435, -0.06411050260066986, -0.006373407784849405, 0.07970549166202545, -0.12012916058301926, -0.32230108976364136, -0.10583167523145676, -0.05427826568484306], [-0.20999658107757568, 0.13473035395145416, -0.37559419870376587, 0.42814481258392334, -0.10540365427732468, -0.2908988893032074, -0.18537300825119019, -0.16978327929973602, -0.43378812074661255, 0.13659842312335968, -0.19133064150810242, 0.37863436341285706, 0.08824089169502258, -0.30310696363449097, -0.3323003351688385, 0.027053125202655792, -0.0475635752081871, 0.15107165277004242, -2.6172001525992528e-05, 0.055027421563863754, -0.16195593774318695, 0.32309433817863464, -0.2312995046377182, -0.05593148246407509, 0.45599454641342163, -0.3915860652923584, -0.06113116443157196, 0.061193957924842834, 0.03251912072300911, 0.10735402256250381, 0.1933717280626297, 0.2686971127986908, 0.024729866534471512, 0.014226362109184265, -0.16738896071910858, -0.006384808104485273, 0.3176709711551666, 0.302326500415802, -0.07952132821083069, -0.09107804298400879, 0.17269568145275116, 0.009767776355147362, 0.05695614591240883, -0.002992982277646661, -0.04958396032452583, -0.07902263104915619, -0.11532489210367203, 0.04947168752551079], [-0.08234775811433792, -0.016425974667072296, -0.0962541252374649, -0.49843916296958923, 0.12385699152946472, 0.19426091015338898, 0.05707748606801033, -0.18212474882602692, 0.11481523513793945, -0.02094137668609619, 0.07477530837059021, 0.054904669523239136, 0.4082145690917969, 0.2554428279399872, -0.0498189814388752, -0.05511721223592758, -0.19868357479572296, -0.02069026790559292, 0.03663979098200798, -0.3515079617500305, -0.11674071103334427, -0.08568507432937622, -0.10532742738723755, -0.13453896343708038, -0.2743486166000366, 0.07269910722970963, -0.09304776787757874, 0.20778898894786835, -0.030236072838306427, -0.046454086899757385, -0.10625409334897995, -0.10272902250289917, -0.1434834748506546, 0.2726965546607971, 0.10974189639091492, 0.25265079736709595, 0.15090709924697876, -0.3352563679218292, 0.3747080862522125, -0.2235390841960907, 0.36012008786201477, 0.12268779426813126, -0.0023783808574080467, 0.0019572225864976645, 0.002337172394618392, -0.336668461561203, -0.23553618788719177, 0.14671951532363892], [-0.49358174204826355, 0.18157035112380981, -0.32244086265563965, 0.3972279131412506, -0.2439456433057785, -0.4054620862007141, -0.6387842893600464, -0.07120568305253983, -0.33324819803237915, -0.13922031223773956, -0.16803765296936035, 0.2218785285949707, 0.11491228640079498, -0.0008068250026553869, -0.3731352388858795, 0.26665082573890686, -0.05995750427246094, 7.990736048668623e-05, 0.15198424458503723, 0.2514333128929138, 0.24724431335926056, 0.2797718942165375, 0.1427965611219406, 0.21184687316417694, 0.2780419588088989, -0.09669829905033112, -0.19046491384506226, 0.24022544920444489, -0.033009082078933716, 0.26181116700172424, -0.10178417712450027, 0.004566880874335766, 0.3389860689640045, 0.18847079575061798, -0.08750545978546143, 0.15242615342140198, 0.0971582755446434, 0.005055692978203297, 0.01852552779018879, 0.09967269748449326, -0.26011279225349426, 0.149422749876976, -0.027123738080263138, 0.09817022830247879, -0.3180479109287262, 0.07645491510629654, -0.1349116563796997, -0.06495968997478485], [0.567829430103302, 0.14748461544513702, 0.32381927967071533, -0.30047667026519775, 0.0967937782406807, -0.036959074437618256, 0.18766404688358307, 0.2954777777194977, 0.2692268192768097, 0.3315178155899048, 0.2778072953224182, -0.03673149645328522, -0.0038639772683382034, 0.11767277121543884, 0.4716327488422394, -0.07844582945108414, -0.132638081908226, -0.025114264339208603, -0.2581169605255127, 0.30024150013923645, 0.10427390784025192, 0.054018642753362656, 0.010846051387488842, -0.026849476620554924, -0.0894673764705658, -0.05856398493051529, -0.022947344928979874, -0.20139048993587494, 0.008819676004350185, 0.0222155898809433, 0.13670866191387177, -0.08069504797458649, 0.45436421036720276, 0.011960525065660477, -0.11035966128110886, -0.3308555483818054, -0.06298013776540756, 0.13869865238666534, 0.013637276366353035, 0.3173620402812958, -0.02864302136003971, -0.07894595712423325, 0.09697607159614563, -0.18631577491760254, 0.32332852482795715, -0.1934538185596466, -0.03622492030262947, 0.43978187441825867], [0.07905305176973343, 0.004697015043348074, -0.25745609402656555, -0.28991079330444336, -0.1791149228811264, -0.39497315883636475, 0.2972942590713501, -0.06799059361219406, -0.38542065024375916, -0.2788691222667694, -0.40814676880836487, -0.21866217255592346, -0.267250120639801, -0.46605759859085083, 0.2893047630786896, -0.07544338703155518, 0.2949158847332001, -0.17369534075260162, 0.1317729502916336, 0.2815142571926117, -0.06266224384307861, 0.08768942952156067, 0.21131229400634766, 0.0801406055688858, -0.03713667020201683, -0.10623720288276672, -0.13797996938228607, 0.043273743242025375, 0.14815041422843933, -0.003271199529990554, 0.2109927088022232, -0.11999507248401642, 0.22925326228141785, -0.06668075174093246, -0.23376010358333588, -0.1659943163394928, -0.23179607093334198, 0.40590667724609375, -0.08048973977565765, -0.026118477806448936, -0.11005278676748276, 0.040495943278074265, -0.4981614053249359, -0.11466764658689499, 0.08460524678230286, 0.37239494919776917, 0.3460957407951355, 0.09883719682693481], [0.2363346815109253, -0.0936480462551117, -0.12494073063135147, 0.1581219881772995, 0.22974956035614014, -0.2277679741382599, -0.2987082600593567, -0.05226831138134003, -0.019113341346383095, 0.23350147902965546, 0.1472920924425125, 0.2888861298561096, 0.0580025352537632, -0.03989332169294357, -0.47097259759902954, 0.013615775853395462, -0.15338659286499023, -0.09344102442264557, -0.283978670835495, 0.13749966025352478, 0.43295231461524963, -0.0032639107666909695, -0.09695019572973251, 0.08593081682920456, -0.2396259307861328, -0.10248348116874695, -0.024039404466748238, 0.2497372329235077, 0.00017831810691859573, 0.0008083840366452932, 0.061624541878700256, 0.034930214285850525, -0.09648910164833069, 0.0801972970366478, 0.2341793179512024, -0.3056398034095764, 0.30225640535354614, -0.29557204246520996, -0.11490672826766968, 0.13074694573879242, 0.0017058419762179255, 0.15007860958576202, -0.1805434674024582, -0.022824285551905632, 0.19854490458965302, 0.16270959377288818, 0.39467552304267883, -0.14141704142093658], [0.12852182984352112, -0.04205118492245674, 0.11741231381893158, -0.25814226269721985, 0.3863805830478668, -0.027262261137366295, 0.0013512995792552829, 0.2571268379688263, 0.32399943470954895, 0.00012972696276847273, 0.05237135291099548, -0.3349194824695587, -0.06910116225481033, 0.11753682792186737, 0.13222463428974152, -0.05869998037815094, -0.16551508009433746, -0.06536111235618591, 0.016438091173768044, -0.11207552254199982, 0.09823151677846909, -0.015329408459365368, -0.2781006395816803, 0.17189648747444153, 0.021070828661322594, 0.018751313909888268, -0.20581726729869843, -0.3159385621547699, -0.04947059974074364, -0.21049430966377258, 0.11384114623069763, 0.21629098057746887, -0.2508278489112854, -0.16977596282958984, 0.2297029346227646, -0.14806751906871796, -0.11776450276374817, 0.019727246835827827, 0.10665030032396317, -0.1992102563381195, 0.09887924790382385, 0.09709644317626953, -0.13374225795269012, -0.13760527968406677, -0.1090056523680687, -0.0350247398018837, -0.121833935379982, 0.06465822458267212]], [[0.30589714646339417, 0.2158462405204773, 0.2956635057926178, 0.6401798725128174, 0.2261810451745987, 0.3844805359840393, 0.09341542422771454, 0.2914474308490753, 0.28423598408699036, 0.23172445595264435, 0.27638301253318787, 0.38039952516555786, 0.2763426899909973, 0.44112762808799744, 0.33157745003700256, 0.10680323839187622, 0.137050062417984, 0.026549287140369415, 0.049321696162223816, 0.26146379113197327, 0.09893958270549774, 0.1270831674337387, 0.006858779117465019, 0.03818799555301666, 0.13688507676124573, 0.03135204315185547, 0.08793384581804276, 0.11206189543008804, 0.01713763177394867, 0.3591720163822174, 0.051065195351839066, -0.020384320989251137, 0.03278692066669464, 0.0042775338515639305, 0.0031119398772716522, -0.025824137032032013, 0.0010169633897021413, 0.006985759828239679, 0.008641702122986317, 0.0021784272976219654, 0.001101182890124619, 8.080381667241454e-05, -0.0006267951685003936, 0.00827852264046669, 0.00142277916893363, -0.0010240538977086544, 0.0008439405937679112, -0.005592388566583395], [0.30589714646339417, 0.2158462405204773, 0.2956635057926178, 0.6401798725128174, 0.2261810451745987, 0.3844805359840393, 0.09341542422771454, 0.2914474308490753, 0.28423598408699036, 0.23172445595264435, 0.27638301253318787, 0.38039952516555786, 0.2763426899909973, 0.44112762808799744, 0.33157745003700256, 0.10680323839187622, 0.137050062417984, 0.026549287140369415, 0.049321696162223816, 0.26146379113197327, 0.09893958270549774, 0.1270831674337387, 0.006858779117465019, 0.03818799555301666, 0.13688507676124573, 0.03135204315185547, 0.08793384581804276, 0.11206189543008804, 0.01713763177394867, 0.3591720163822174, 0.051065195351839066, -0.020384320989251137, 0.03799711912870407, 0.00691025797277689, -0.005174959544092417, -0.03626224771142006, -0.005468198098242283, 0.009202208369970322, 0.002814291510730982, 0.005667845718562603, -0.0024576475843787193, 0.0010653822682797909, -0.0007872077985666692, 0.00842313189059496, 0.008830561302602291, -0.0033223910722881556, 0.004216798581182957, -0.004288263153284788]]]}, {"type": "dense", "shape": [null, null, 1], "weights": [[[0.09637971222400665], [0.599007248878479], [-0.22699469327926636], [0.0001978676300495863], [0.38185545802116394], [0.0004827296652365476], [0.06797786056995392], [-0.5417968034744263], [0.23402529954910278], [0.17416790127754211], [0.07166929543018341], [0.18865858018398285], [-0.35049569606781006], [-0.2870677411556244], [-0.5543331503868103], [0.22115352749824524]], [-0.0022780979052186012]]}]}