{"in_shape": [null, null, 3], "layers": [{"type": "time-distributed-dense", "shape": [null, null, 8], "weights": [[[0.07163917273283005, -0.650912344455719, 0.2740733027458191, -1.7194422483444214, 1.206343412399292, 0.13269251585006714, 0.010014310479164124, 0.662678062915802], [-0.3263195753097534, 0.14645567536354065, 0.3498646914958954, 0.07628107070922852, -0.5707657933235168, 0.5759504437446594, 0.5401244163513184, 0.5959482789039612], [-10.039238929748535, 13.178250312805176, 8.650915145874023, -9.402256965637207, -3.045020341873169, -0.8547366261482239, 0.5602607131004333, -4.825981140136719]], [0.2232237607240677, -0.00610370235517621, -0.003119531786069274, -0.035817842930555344, 0.02971028722822666, -0.006135912612080574, 0.021364759653806686, -0.04152465984225273]]}, {"type": "gru", "shape": [null, null, 16], "weights": [[[3.166135311126709, 0.4085976779460907, 1.233511209487915, 0.5794128179550171, 0.7371534705162048, 3.6783878803253174, 1.0609314441680908, -1.4712269306182861, 1.8148945569992065, -1.56808340549469, 2.9254493713378906, 0.22512756288051605, 0.7103909254074097, 1.5333579778671265, 1.6476130485534668, -0.25139695405960083, 0.7673181891441345, -0.7268073558807373, 0.5015625357627869, 0.9977363348007202, 0.4363560378551483, -3.68550968170166, 0.9976977705955505, 0.8338925838470459, -0.40594935417175293, 1.5160821676254272, -1.2586134672164917, -0.25439196825027466, 0.3648572564125061, -0.3461739718914032, -0.41872867941856384, 0.08588968962430954, -0.06583012640476227, -0.23299935460090637, -0.11050096154212952, -0.013063721358776093, 0.03779994323849678, 0.03440505266189575, 0.23853980004787445, -0.08066363632678986, 0.05992094427347183, 0.3482885956764221, -0.05827410891652107, 0.22683945298194885, -0.36018046736717224, -0.06368137896060944, -0.2933746874332428, -0.7975752353668213], [-2.300736904144287, 1.501054048538208, 1.2808022499084473, -0.20484641194343567, 0.28913742303848267, -0.8030436038970947, -0.34101733565330505, 0.36041495203971863, 0.1332523673772812, 0.11204937100410461, -0.7828710079193115, -0.9572977423667908, -0.6655725836753845, -0.7595075368881226, -0.15465465188026428, 0.9838487505912781, 0.360050767660141, 0.48531997203826904, -0.1483777016401291, 0.8026695847511292, 0.004396879114210606, 1.0850039720535278, 1.0852625370025635, -0.1920863538980484, 0.40601053833961487, -0.031154600903391838, 1.1573034524917603, 0.5168442726135254, -0.5255358815193176, 0.13910861313343048, 0.846632182598114, -0.07679629325866699, -0.16557089984416962, 0.34791335463523865, 0.2560315728187561, -0.12886732816696167, 0.3125873804092407, -0.2992200255393982, -0.1181066632270813, 0.10128459334373474, 0.12959741055965424, -0.030318962410092354, 0.3295961618423462, 0.18142446875572205, -0.3753446638584137, 0.11300215125083923, 0.04368332400918007, 0.12219128012657166], [-0.8699752688407898, -0.44371283054351807, 1.0765049457550049, -0.48233404755592346, -0.9136682748794556, -3.4378387928009033, -0.35179969668388367, 1.2354847192764282, -1.0318949222564697, 3.3142735958099365, -1.0734665393829346, 0.07746748626232147, -0.9129810333251953, -0.7994132041931152, 0.2395724058151245, -0.8674267530441284, 0.5149628520011902, 0.26837602257728577, 0.08088406920433044, -0.13146384060382843, 0.4407615661621094, 1.4809259176254272, 0.5779357552528381, -0.19713589549064636, 0.4944811463356018, -1.029789686203003, 0.43528860807418823, 0.29666000604629517, -0.7377572655677795, 0.1650572270154953, 0.8617189526557922, 0.20766711235046387, 0.20630981028079987, -0.2910642623901367, 0.11123795807361603, 0.10329816490411758, 0.29391172528266907, 0.27989327907562256, 0.5706698894500732, -0.06351844221353531, -0.10458248853683472, -0.15815332531929016, -0.3277376592159271, 0.12833833694458008, -0.193507581949234, 0.2841353416442871, -0.07127406448125839, -0.21984922885894775], [-2.7945494651794434, 0.9351727962493896, 0.6599356532096863, 0.16593554615974426, 1.0701357126235962, -2.577341079711914, 0.1970139890909195, -1.6513311862945557, -0.5592786073684692, -0.5278372168540955, 0.19436997175216675, -0.5117846131324768, -0.9122084379196167, 0.05823894590139389, -0.631628692150116, 1.2046425342559814, -0.2785840630531311, 0.2704624533653259, -0.3694320023059845, 0.029785726219415665, -0.0059763663448393345, -0.6002259254455566, 0.6242234706878662, 0.17250341176986694, 0.17415642738342285, 0.2901553511619568, -0.00035237957490608096, 0.04667225480079651, -0.11912212520837784, 0.2958838939666748, 0.3235529363155365, 0.11283674836158752, -0.07907652109861374, 0.2859649658203125, -0.21594899892807007, 0.4272784888744354, 0.13922090828418732, 0.20042529702186584, -0.5795963406562805, 0.16926786303520203, -0.19728943705558777, 0.7790570259094238, 0.1716628074645996, -0.17626574635505676, -0.4248572885990143, -0.09643921256065369, 0.5583752393722534, 0.024691158905625343], [1.4442108869552612, 0.5483406186103821, -1.9489631652832031, -0.2977970242500305, 0.2067689299583435, 1.7555859088897705, 0.5441099405288696, -1.0285670757293701, -0.5530966520309448, -0.49678540229797363, 1.9225901365280151, -0.189702108502388, 1.0344029664993286, 0.5610917806625366, -1.4396010637283325, -0.4831978678703308, -0.5842339396476746, -0.4480529725551605, 0.38071757555007935, 0.7753773927688599, -0.18686261773109436, -0.32879185676574707, -0.5272942185401917, -0.06507333368062973, -0.04087924212217331, 0.4503645896911621, -0.11319734156131744, -0.262929230928421, 0.04604275897145271, -0.5668969750404358, -0.06202714517712593, 0.08951618522405624, 0.22091422975063324, -0.3839428424835205, -0.3401831090450287, 0.015549244359135628, 0.24578896164894104, 0.024455970153212547, -0.13710778951644897, 0.22908709943294525, 0.04923826456069946, -0.039743129163980484, -0.16848348081111908, 0.021063774824142456, 0.086565762758255, 0.19502675533294678, -0.18379049003124237, 0.14408227801322937], [-0.4240588843822479, -0.6689411401748657, 1.3663169145584106, -0.10232558846473694, -1.0085539817810059, -2.000852584838867, 0.34869417548179626, 0.9768953919410706, -0.20175406336784363, 2.4564285278320312, -1.0615841150283813, 0.017709406092762947, -0.26612427830696106, -0.0030756646301597357, 0.9367371201515198, -0.3353595733642578, 0.4357806444168091, 0.06921231746673584, 0.2816806137561798, -0.6673933863639832, -0.1743559092283249, 0.535699188709259, 0.3360796570777893, 0.18751277029514313, 0.4019389748573303, -1.2863765954971313, 0.15378497540950775, 0.001048268866725266, -0.18405216932296753, -0.7383274435997009, -0.021688148379325867, -0.09714464843273163, 0.35286417603492737, -0.08765548467636108, 0.006131139118224382, -0.22286488115787506, -0.0921206995844841, -0.13356658816337585, 0.0977659523487091, -0.17794208228588104, -0.02661292254924774, 0.26461219787597656, 0.11289142072200775, -0.023907214403152466, -0.07422418892383575, -0.10771523416042328, -0.08225606381893158, -0.3329603970050812], [-1.286698818206787, -0.7240800857543945, 1.7660305500030518, -0.37779393792152405, -0.7352734208106995, -1.8056083917617798, -0.5014463067054749, 0.8389791250228882, -0.35007208585739136, 1.6283096075057983, -3.1658599376678467, 0.2990087568759918, -0.5823546648025513, 0.012342269532382488, 0.9668840765953064, -0.10292714834213257, 0.3432314097881317, -0.07803761959075928, 0.024306897073984146, -0.7113239765167236, -0.014586304314434528, 0.4105042517185211, 0.44592294096946716, 0.1135895624756813, -0.036809757351875305, -0.38999244570732117, 0.37857431173324585, 0.0027189720422029495, -0.48109033703804016, 0.031706176698207855, 0.5204111933708191, -0.2802557647228241, 0.1811070442199707, -0.02105279266834259, 0.18131020665168762, -0.2643898129463196, 0.218927800655365, -0.10342717170715332, -0.05080171301960945, 0.15229126811027527, -0.12820741534233093, 0.2856833040714264, -0.06214910000562668, 0.08342216908931732, 0.06270384043455124, 0.10351470112800598, -0.37462136149406433, -0.2873084545135498], [0.31625500321388245, -0.6117858290672302, 1.6514313220977783, -0.4061792194843292, -0.45357397198677063, -3.741807699203491, -0.30779579281806946, 1.3263195753097534, -0.4308319389820099, 1.1499556303024292, 0.3593500852584839, 0.8100464344024658, -1.1336705684661865, 0.039131924510002136, 0.7375364303588867, -0.5963550209999084, 0.06738854199647903, 0.1451130509376526, 0.15238232910633087, 0.09966780245304108, -0.09812673926353455, 0.7025880813598633, 0.3770170509815216, 0.22953441739082336, 0.17158836126327515, -1.409590244293213, 0.6556469202041626, 0.37034040689468384, 0.06531613320112228, -0.01170186884701252, 0.08946783095598221, 0.15279671549797058, -0.17297223210334778, -0.18293070793151855, 0.00616819690912962, 0.027879521250724792, -0.2857724130153656, 0.14652885496616364, 0.1181146427989006, 0.18898482620716095, 0.18726377189159393, -0.2676246762275696, -0.30086129903793335, 0.12161967903375626, 0.17289961874485016, -0.05053447559475899, -0.08048469573259354, -0.2422008067369461]], [[-0.6451141834259033, 2.161512851715088, 0.015365181490778923, 0.9238836765289307, -1.258704662322998, 2.214212417602539, 0.2684844732284546, 0.20194360613822937, -1.775212049484253, 0.559188187122345, -0.49674150347709656, 0.11762074381113052, 1.210715651512146, -0.04923994094133377, 0.3661351203918457, 0.6901599764823914, 0.2688596546649933, 0.0764576718211174, 0.601355791091919, 0.05856914818286896, -1.3665401935577393, -0.3103557825088501, 0.0028133857995271683, 0.6760896444320679, 0.014026807621121407, -0.17158743739128113, -0.1389433890581131, 0.4685342013835907, -0.3607843816280365, 0.04244242236018181, 0.16015049815177917, 0.2773441672325134, 0.1484834849834442, 0.366987943649292, -0.7393844127655029, -0.23275473713874817, -0.16066507995128632, 0.3675110340118408, -0.14583340287208557, 0.30497559905052185, 0.11330988258123398, -0.08196116983890533, -0.251309871673584, -0.21241456270217896, 0.10288570076227188, 0.0350823700428009, 0.12315849214792252, -0.5373966097831726], [-0.7199792861938477, -2.1929543018341064, -2.7272439002990723, 1.4469735622406006, 0.9946525692939758, 0.5285395979881287, 3.093928813934326, 1.0599439144134521, 0.8694161772727966, 0.8213080167770386, 1.2959661483764648, 1.305466651916504, 0.8835281133651733, 0.7480295300483704, -3.6092069149017334, -0.007132500410079956, 0.9384866952896118, 0.1774825006723404, 0.0007338689174503088, -0.580599308013916, 0.4349089562892914, 0.7361951470375061, -0.5448635220527649, 0.038279902189970016, 0.40565478801727295, -0.1803489774465561, 0.20535780489444733, -0.3840601444244385, 0.3543983995914459, 0.4119154214859009, -0.22186627984046936, 0.11115656793117523, -0.5106319189071655, 0.47747698426246643, -0.07046078145503998, 0.18456782400608063, -0.26704132556915283, -0.3482697606086731, -0.5419144034385681, 0.42792293429374695, 0.4246731996536255, 0.21899811923503876, -0.09676309674978256, 0.5813111662864685, -0.13342419266700745, -0.04569043964147568, 0.07763830572366714, -0.19936195015907288], [-4.884496688842773, -0.9159082770347595, -0.27045512199401855, 0.3257727026939392, 2.6634702682495117, 1.137363076210022, -0.2416374385356903, 0.6560438275337219, 0.9863671660423279, 0.30489760637283325, 0.1657685935497284, 0.8729446530342102, 0.529059886932373, -0.5805176496505737, -1.6471569538116455, -0.061370011419057846, 0.5860410332679749, 0.11345289647579193, -0.7873826026916504, -0.042878687381744385, 0.6785186529159546, 0.7810225486755371, -0.010307682678103447, 0.12133767455816269, 0.14507991075515747, 0.14777402579784393, 0.04435466602444649, -0.3390200138092041, -0.6047947406768799, 0.34182143211364746, 0.17559605836868286, -0.9962874054908752, -0.04475225880742073, 0.3002105951309204, 0.0729353129863739, 0.4087267220020294, 0.398435115814209, -0.25725820660591125, 0.29402080178260803, 0.1801024228334427, -0.10982052236795425, 0.5306802988052368, -0.049917370080947876, 0.667611837387085, 0.18137650191783905, -0.2717263400554657, -0.15745387971401215, 0.47534871101379395], [1.9681073427200317, 0.0400322824716568, -0.19441545009613037, -0.8462840914726257, 0.017902836203575134, -0.12800084054470062, -0.2700214684009552, -0.7367764711380005, -1.3396179676055908, 0.3137392997741699, -0.48230355978012085, -1.2600798606872559, -0.584829568862915, -0.28439393639564514, 1.2501548528671265, -0.4609750807285309, -0.2674403190612793, -0.019809778779745102, 0.4843132495880127, -0.23124779760837555, -1.523523211479187, -1.044339656829834, 0.7741219997406006, 0.6790725588798523, -0.8884764909744263, -0.22343355417251587, 0.2646447420120239, -0.18783268332481384, -0.06698194891214371, -0.832126796245575, -0.055498749017715454, -0.6168258190155029, 0.47064194083213806, -0.40954697132110596, -0.15987654030323029, 0.4181300401687622, -0.09934040904045105, 0.1558215171098709, 0.13555936515331268, 0.10114128887653351, -0.08887641876935959, -0.030282916501164436, 0.011390051804482937, 0.01146657019853592, -0.15213921666145325, 0.4216504395008087, -0.6731523275375366, 0.17270447313785553], [0.5231572389602661, -0.16662472486495972, -0.6963024735450745, -0.7601636648178101, 0.0219265129417181, 0.13999582827091217, 0.21225307881832123, 1.213801383972168, 1.5955312252044678, -0.3796459138393402, 1.2523971796035767, 0.7975701093673706, 0.217095285654068, 0.5013007521629333, -2.1088201999664307, 0.1847132295370102, 0.35286179184913635, -0.11636868864297867, -0.7762775421142578, -0.06273011863231659, 0.2135162502527237, -0.03975370153784752, 0.3517304062843323, -0.034266941249370575, 0.00023063640401232988, -0.16065071523189545, -0.11552654951810837, 0.004355219658464193, -0.1978512555360794, -0.08030328154563904, -0.05811184272170067, -0.012245060876011848, -0.35966938734054565, 0.06173061579465866, 0.46997547149658203, 0.26777464151382446, 0.3005462884902954, 0.6487382650375366, 0.6966848373413086, 0.14546091854572296, 0.16686460375785828, 0.4347098767757416, -0.01981777511537075, 0.1994977742433548, 0.5017293691635132, -0.32646042108535767, 0.31016814708709717, -0.10120115429162979], [3.293262004852295, -1.406446933746338, -1.9979901313781738, 0.0701247975230217, -0.392800897359848, 2.006324052810669, -0.3954693078994751, -1.1472376585006714, -1.0785284042358398, -0.3525519073009491, -0.6865781545639038, 0.3134598731994629, -0.3099451959133148, -0.006629807874560356, 0.07819709926843643, 0.0345173180103302, 0.23295561969280243, -0.017214685678482056, 2.4074440002441406, 0.02030574157834053, -0.06551816314458847, 0.2591909170150757, -0.4110601246356964, -0.4872252941131592, 0.13042329251766205, 0.16162227094173431, 0.4282323122024536, 0.3560373783111572, -0.4548119008541107, -0.26254764199256897, 0.16206830739974976, 1.4313679933547974, 0.4973212778568268, 0.25215548276901245, -0.5152735710144043, -0.5257828235626221, -0.26381856203079224, 1.8396706581115723, 0.58995121717453, -0.4855116903781891, -0.4687157869338989, 0.6931833028793335, -0.13069485127925873, -1.0279195308685303, 0.004001493565738201, 0.2723222076892853, 0.07960794866085052, -0.32801109552383423], [-2.904197931289673, 1.667885661125183, -3.1235737800598145, 0.810312807559967, 0.47348088026046753, -1.1568046808242798, 1.6721343994140625, 0.2703815698623657, -0.5707069635391235, 0.6647405028343201, 0.17225083708763123, -0.06015582010149956, 1.507926106452942, -0.5066647529602051, -2.0433714389801025, 0.8066053986549377, 0.6305016875267029, 0.2190055102109909, 0.3255191743373871, 0.5647016763687134, 0.4488205909729004, 0.03072723187506199, -0.30311909317970276, 0.06249242648482323, 0.08262897282838821, -0.020143194124102592, -0.35179421305656433, -0.2120434045791626, -0.3431987762451172, 0.5000300407409668, 0.2721867859363556, -0.13274653255939484, -1.0419349670410156, 0.20727284252643585, -0.08925259113311768, 0.08104924857616425, 0.04980001598596573, 0.05550664663314819, 0.6514255404472351, -0.2630365192890167, 0.028454042971134186, 0.050849687308073044, 0.06123683974146843, -0.04426560178399086, -0.0652926117181778, 0.039474163204431534, 0.38685178756713867, 0.09249326586723328], [-0.9066475033760071, 3.3562185764312744, -1.28560209274292, 0.7326042056083679, -1.126994013786316, 0.38601571321487427, 0.8537462949752808, 0.2292076200246811, 0.5234069228172302, 0.43095874786376953, 1.1725950241088867, 0.9974356293678284, 1.6201086044311523, 0.7669367790222168, -1.691717505455017, 0.676174521446228, 0.1675778180360794, -0.40770894289016724, -0.0020310713443905115, -0.052872441709041595, 0.16088826954364777, 0.30142635107040405, -1.5243433713912964, 0.29034245014190674, 0.04840699955821037, -0.23792415857315063, -1.028146505355835, -0.656917929649353, -0.05230146273970604, 0.5986524224281311, 0.5544414520263672, 0.255287766456604, -0.13318565487861633, -0.07042642682790756, -0.018825702369213104, -0.5715227723121643, -0.02680242992937565, 0.1785767376422882, -0.5933603644371033, 0.19480879604816437, 0.1832980364561081, 0.2000700831413269, -0.1740058958530426, 0.07089042663574219, 0.052767056971788406, 0.08556531369686127, 0.09954210370779037, -0.0015819184482097626], [9.170848846435547, -3.5295162200927734, 3.237142562866211, -0.24594390392303467, 0.3942968249320984, 0.8437708616256714, 0.09829144924879074, 1.1565204858779907, 3.0644378662109375, -0.32383739948272705, 0.5091286301612854, 0.036857713013887405, -1.1255831718444824, -0.26582542061805725, 0.06241437420248985, 1.1453430652618408, 0.949420154094696, -0.0752287283539772, -0.8442742228507996, -0.3368593454360962, 0.17595365643501282, 1.0136750936508179, -0.6801804900169373, 1.2273772954940796, 0.017682325094938278, -0.1682024896144867, -0.28580084443092346, -0.2891106903553009, 0.23794403672218323, 0.14703325927257538, -0.32542407512664795, -0.39655250310897827, 0.03378399834036827, 0.28314927220344543, -0.2881529629230499, 0.3413815498352051, 0.09825205057859421, 0.1967877745628357, 0.4412854015827179, 0.30314457416534424, 0.4866887331008911, -0.8537418842315674, -0.004853421822190285, 0.1750892549753189, 0.04912858456373215, -0.20492558181285858, 0.037981338798999786, -0.12410832941532135], [2.593440532684326, 0.26246652007102966, -0.6943248510360718, 0.16761070489883423, -0.4783909320831299, -1.0679372549057007, -0.23668695986270905, 1.532004952430725, -0.5894843339920044, -0.18421709537506104, -0.21916644275188446, -0.1817677915096283, 0.8106961846351624, -0.2702702283859253, -0.10358991473913193, 0.2937051057815552, 0.314405620098114, -0.14182810485363007, -0.33566614985466003, -0.3767329156398773, 0.07071948796510696, 0.41008254885673523, -0.17788316309452057, -0.18275034427642822, 0.5684474110603333, -0.5977421402931213, -0.5815294981002808, -0.026042509824037552, -0.7372666001319885, 0.06598624587059021, 0.053068649023771286, 1.0735939741134644, -0.056402064859867096, 0.06057111173868179, -0.05051187425851822, -0.0893988087773323, 0.36130133271217346, -0.18253451585769653, 0.386824369430542, 0.23790913820266724, 0.3623031675815582, 0.054367903620004654, 0.07628508657217026, -0.11550630629062653, -0.14528994262218475, -0.16666387021541595, 0.08837124705314636, -0.08593317866325378], [-4.931643486022949, -0.7133673429489136, 0.9456002712249756, -0.4810640513896942, -0.18317340314388275, 2.375314712524414, 0.5703299045562744, -0.8126861453056335, -0.6326844096183777, 0.08185464143753052, 1.6638638973236084, -0.0681685209274292, 0.32283949851989746, -0.047476693987846375, 1.1687042713165283, -0.04020103067159653, -0.7694799304008484, -0.30139291286468506, 0.6831482648849487, -0.12561452388763428, 0.04462042450904846, -0.3882852792739868, -0.49278029799461365, -1.102184772491455, -0.3163037896156311, 0.5709896087646484, -0.18884694576263428, 0.8125828504562378, 0.1475871056318283, -0.023340003564953804, -0.41194450855255127, -0.3561924397945404, -0.08102957904338837, -0.6763390302658081, 0.06452564150094986, 0.5324500799179077, 0.12958896160125732, -0.4852094352245331, 0.38825690746307373, -0.12163019925355911, 0.3146217465400696, 0.05258374288678169, -0.04036529362201691, 0.07794560492038727, 0.21679554879665375, -0.2993127703666687, -0.14557072520256042, 0.24055977165699005], [0.9595122337341309, -0.5057641863822937, -0.9600086212158203, 1.0791178941726685, -0.6626349091529846, 0.22446496784687042, -0.9079566597938538, 0.8093141913414001, -1.6475120782852173, 0.6661041975021362, -0.08918067812919617, -0.498344749212265, 1.0691473484039307, 0.3710121512413025, 1.1273083686828613, -0.9662185907363892, -0.0005239369929768145, -0.34608981013298035, 0.7591627240180969, -0.38997283577919006, 0.3769695460796356, 0.6583153605461121, -0.5664708614349365, 0.3620503842830658, 0.37251394987106323, -0.14954665303230286, -0.6964317560195923, -0.08237309753894806, 1.1442835330963135, 0.34141793847084045, -0.1826310008764267, 0.10841542482376099, 0.4866164028644562, 0.12735587358474731, -0.24252022802829742, 0.1452731341123581, 0.02895248681306839, 0.2679348587989807, 0.3791757822036743, 0.33521768450737, -0.30481424927711487, 0.10678470134735107, -0.07865478843450546, 0.1973705291748047, -0.3476848900318146, 0.11133991926908493, -0.2763190269470215, -0.22386661171913147], [3.1183366775512695, 0.6684233546257019, -2.6848180294036865, -0.5977604985237122, 0.5485917329788208, 0.44719550013542175, -1.0606088638305664, -1.2413426637649536, 0.09118977934122086, -1.0524901151657104, 0.3201967477798462, -0.8839813470840454, -1.2338992357254028, 0.045899540185928345, 2.0289340019226074, 0.5465036630630493, -0.3599224388599396, 0.6291422247886658, -1.0290418863296509, 0.3234095275402069, -0.5442554354667664, -0.3598949909210205, 0.40790677070617676, 0.27356863021850586, 0.9889429807662964, -1.0537985563278198, -0.4477652609348297, -0.403899610042572, -0.1648649424314499, 0.3474093973636627, 0.24712981283664703, -0.06631183624267578, 0.20749816298484802, 0.6527889370918274, 0.4118340313434601, -0.3643754720687866, 0.08503175526857376, -0.2525491714477539, 0.1755596101284027, 0.11466905474662781, 0.04212852567434311, 0.4128071963787079, 0.19558247923851013, -0.4338982105255127, 0.6525401473045349, -0.39917993545532227, 0.7418290972709656, 0.31234294176101685], [-0.6149291396141052, -2.3592400550842285, -1.061389446258545, -0.164450541138649, -0.263259619474411, -0.914117693901062, 0.09195630252361298, -0.0696185976266861, -0.3069373369216919, -0.36279091238975525, 0.5162979364395142, -0.4599054753780365, -0.02311044931411743, -0.35782554745674133, 0.003078127047047019, 1.071937918663025, -0.18583142757415771, -0.1432107537984848, 0.49521365761756897, -0.2293301820755005, -0.07105278223752975, 0.4174099564552307, -0.4296492338180542, -0.3325413465499878, 0.05753467231988907, 0.08703453093767166, 0.11589887738227844, 0.498266339302063, 0.5375567674636841, 0.018209563568234444, 0.02358909510076046, 1.584280252456665, -0.003951707389205694, -0.1091131940484047, 0.1252502202987671, -0.07685848325490952, -0.2749709188938141, 0.9132095575332642, 0.7841128706932068, 0.06239299848675728, -0.4538218677043915, 0.02946104295551777, -0.5840913653373718, -0.2842755913734436, -0.36530157923698425, 0.42235273122787476, 0.25342848896980286, 0.4060463309288025], [5.85396146774292, -0.1019458919763565, -1.474815845489502, -0.7578126788139343, 0.3331651985645294, -3.5310001373291016, 0.47374629974365234, -0.84884113073349, 1.0184643268585205, 0.5508636832237244, 0.46606379747390747, 2.620344877243042, 0.5403602123260498, 0.09550131857395172, 2.3306477069854736, 0.7159550189971924, 0.41555795073509216, 0.5165213942527771, -0.2197549045085907, 0.018462615087628365, 1.4012120962142944, 1.7392292022705078, -0.6457295417785645, -0.17266720533370972, 0.2186337262392044, -0.41857674717903137, 0.43491479754447937, 0.14769837260246277, 1.9911803007125854, 0.961615800857544, -0.5286712646484375, 1.1436609029769897, -0.5867849588394165, -0.1719120740890503, 0.3637721538543701, -0.262055367231369, 0.561065137386322, -2.1182215213775635, -0.6446484327316284, 0.6952956318855286, 0.025258081033825874, 0.2785104215145111, 0.09902098774909973, 0.1978381872177124, 0.09913038462400436, 0.10640053451061249, 0.7882046699523926, -0.07118387520313263], [6.399526119232178, -2.42329478263855, 5.99849271774292, -1.2705522775650024, -2.1666696071624756, 0.31357595324516296, -1.4382061958312988, 0.43640387058258057, -0.19853360950946808, -1.6085631847381592, -3.7415952682495117, -0.6960674524307251, -3.8262195587158203, -0.9680118560791016, 1.269586443901062, -4.728146076202393, -0.37174639105796814, -0.13536474108695984, -0.12901397049427032, 0.6104422211647034, 0.024962347000837326, 0.016424041241407394, 0.0007950173458084464, -0.1939052939414978, 0.3287494480609894, 0.4942111074924469, -0.4667726457118988, 0.0033932405058294535, -0.23151282966136932, 0.11884521692991257, 0.40318578481674194, 0.15319329500198364, -0.30056625604629517, -0.2008468508720398, 0.2824714481830597, -0.13195540010929108, -0.12047341465950012, 0.08568394929170609, 0.23345886170864105, -0.25828617811203003, 0.06477151811122894, 0.05288264900445938, -0.1230773776769638, -0.11106093972921371, -0.13428932428359985, -0.028251199051737785, -0.15869960188865662, 0.15523070096969604]], [[-0.29194751381874084, -0.3528830409049988, 0.1816234439611435, 0.8447739481925964, -0.677492082118988, 0.7371746897697449, 0.7250193357467651, -0.8698067665100098, 0.8253117203712463, -1.1077146530151367, -0.40607523918151855, 0.6348175406455994, 0.25505492091178894, 0.9372403025627136, 0.827404797077179, 0.1956777721643448, 0.2888426184654236, 0.040355779230594635, 0.008176841773092747, 0.9897989630699158, 0.13487616181373596, -1.5004578828811646, 0.4010967016220093, -0.12326237559318542, 0.07511173188686371, 0.006957127712666988, -0.3722016215324402, 0.42740246653556824, 0.025954963639378548, 0.49084243178367615, 0.0800376906991005, 0.12743547558784485, 0.14337389171123505, 0.006863085087388754, 0.04896955192089081, -0.03981699422001839, 0.003819017205387354, 0.02298637107014656, 0.034567881375551224, 0.05433201044797897, -0.015490315854549408, 0.003541835118085146, 0.0006795218214392662, 0.06267326325178146, 0.0018037098925560713, -0.0009223941597156227, -0.009225369431078434, -0.12941229343414307], [-0.29194751381874084, -0.3528830409049988, 0.1816234439611435, 0.8447739481925964, -0.677492082118988, 0.7371746897697449, 0.7250193357467651, -0.8698067665100098, 0.8253117203712463, -1.1077146530151367, -0.40607523918151855, 0.6348175406455994, 0.25505492091178894, 0.9372403025627136, 0.827404797077179, 0.1956777721643448, 0.2888426184654236, 0.040355779230594635, 0.008176841773092747, 0.9897989630699158, 0.13487616181373596, -1.5004578828811646, 0.4010967016220093, -0.12326237559318542, 0.07511173188686371, 0.006957127712666988, -0.3722016215324402, 0.42740246653556824, 0.025954963639378548, 0.49084243178367615, 0.0800376906991005, 0.12743547558784485, 0.024949876591563225, 0.02177364192903042, 0.0275568887591362, -0.05409214645624161, 0.0018348408630117774, 0.011586586013436317, 0.198350727558136, 0.051134057343006134, -0.012118829414248466, 0.06449250876903534, 0.0070375134237110615, 0.05532984808087349, 0.004839305300265551, -0.005219857674092054, -0.007098767440766096, -0.1152968630194664]]]}, {"type": "dense", "shape": [null, null, 1], "weights": [[[0.13359999656677246], [0.5989317297935486], [-0.20485638082027435], [-0.01257255207747221], [0.2837027609348297], [-0.034709762781858444], [0.030930563807487488], [-0.558795690536499], [0.5535666346549988], [0.16783493757247925], [0.21894881129264832], [0.13278436660766602], [-0.4308379590511322], [-0.42128825187683105], [-0.40431395173072815], [0.23891288042068481]], [-0.0015857465332373977]]}]}