{"in_shape": [null, null, 3], "layers": [{"type": "time-distributed-dense", "shape": [null, null, 4], "weights": [[[0.3507966697216034, -0.26497790217399597, 2.0494673252105713, -0.4652193486690521], [0.14765222370624542, 0.4056229293346405, -0.026802347972989082, 0.6310846209526062], [-0.06918544322252274, 2.362553834915161, -1.457300066947937, -1.314036250114441]], [0.004758583381772041, -0.02651658095419407, -0.0032529961317777634, 0.2509400248527527]]}, {"type": "gru", "shape": [null, null, 24], "weights": [[[-0.3452084958553314, -0.1256052404642105, -0.13533830642700195, -1.0701704025268555, -0.7768958806991577, -1.1052055358886719, 1.3251217603683472, -0.6695008873939514, -0.48198458552360535, 0.09678085893392563, -1.3023508787155151, 0.27864935994148254, -0.18578799068927765, -0.5680439472198486, -0.7707396745681763, -0.7963285446166992, 0.16060702502727509, -2.198256254196167, -0.3318864107131958, -1.0283756256103516, 0.09640177339315414, -1.1971982717514038, -1.0031198263168335, -0.7395145893096924, -0.049901943653821945, 0.009219719097018242, 0.3197435438632965, -0.20699046552181244, 0.3379218578338623, -0.2873528003692627, -0.05681249126791954, 0.6146214604377747, 0.44787678122520447, -0.00019718693511094898, 0.7716236114501953, 0.9130451679229736, 0.4962359070777893, -0.14321112632751465, 0.03503677248954773, 0.7380133867263794, 0.763947069644928, 0.9662904143333435, 0.8227216005325317, 0.665341317653656, 0.4427219331264496, 0.29317086935043335, 0.9020395874977112, 0.26091212034225464, 0.22424034774303436, 0.2039230614900589, -0.051201362162828445, -0.05551743879914284, 0.218457892537117, 0.10155041515827179, -0.03022097982466221, -0.26135334372520447, -0.21879899501800537, -0.3414848744869232, -0.23796291649341583, 0.19324891269207, 0.24582867324352264, 0.18236492574214935, 0.2863883078098297, -0.13898107409477234, 0.09298592805862427, -0.07180678844451904, -0.1443794220685959, -0.010556085035204887, 0.2757870554924011, 0.05698538199067116, -0.2545410096645355, 0.11115851253271103], [-0.20816537737846375, 0.28226447105407715, 0.4856497645378113, -1.2741268873214722, -0.537810206413269, -2.0849103927612305, 0.23829658329486847, -0.9993208050727844, -0.22055025398731232, 0.19263334572315216, -0.6054773926734924, 0.7153922915458679, -0.43495383858680725, 0.46909454464912415, -0.41117021441459656, -0.9803521037101746, -0.11596092581748962, -1.7646409273147583, 0.7421419024467468, -1.2629023790359497, 0.21597589552402496, -1.488123893737793, -0.7413684725761414, -0.6129945516586304, -0.1301845759153366, -0.1643919050693512, 0.1327260136604309, -0.11578547209501266, 0.3151707351207733, 0.07659928500652313, 0.11602765321731567, 0.528496265411377, -0.05792699754238129, -0.15922200679779053, 0.314588725566864, 1.0202813148498535, 0.07828062772750854, 0.19569985568523407, -0.09590937942266464, 0.3996472954750061, 0.5757936835289001, 0.7870999574661255, 0.5897915959358215, 0.23317739367485046, 0.13154833018779755, 0.28682443499565125, -0.14590880274772644, 0.19309280812740326, -0.020259059965610504, 0.24460431933403015, -0.1021869033575058, -0.12852007150650024, 0.03314051777124405, -0.0368838831782341, -0.20937728881835938, 0.088069848716259, -0.1881886124610901, 0.11221620440483093, 0.25052303075790405, 0.2520711123943329, -0.2152462601661682, 0.04193449765443802, 0.2528766095638275, 0.12428304553031921, 0.0898098573088646, -0.12139169871807098, -0.3137497007846832, 0.04217112436890602, -0.02193235605955124, 0.18154311180114746, -0.06547564268112183, -0.19267092645168304], [0.6558550000190735, -3.061356544494629, 0.9490960240364075, -0.2830147445201874, 0.8616312742233276, 2.4649603366851807, 1.7239599227905273, 0.5284494161605835, -1.3154864311218262, -0.30930769443511963, -0.2924394905567169, 1.006593108177185, -0.16949421167373657, -1.8710248470306396, 0.1807718724012375, 1.0919607877731323, 1.1286107301712036, -1.0556248426437378, -0.8921022415161133, 0.7226888537406921, -0.7378653287887573, 1.8578438758850098, -1.8927069902420044, 0.24654389917850494, -0.06390433758497238, -0.030746178701519966, -0.008978627622127533, -0.5770940780639648, 0.397661030292511, -0.08037561178207397, 0.042199816554784775, -0.05092858150601387, -0.20256052911281586, 0.13149161636829376, 0.2709089517593384, -0.27036476135253906, -0.13020683825016022, 0.26232680678367615, 0.09685730189085007, -0.01886584237217903, -0.16511842608451843, 0.4787251651287079, -0.38867491483688354, 0.7725275158882141, -0.03628162294626236, -0.052444517612457275, 0.2355787754058838, 0.014375912956893444, -0.7370169162750244, -0.2912408709526062, -0.2554950714111328, -0.14674445986747742, 0.20564469695091248, -0.5219591856002808, 0.3440014123916626, -0.032157640904188156, -0.2745063900947571, -0.1739366352558136, 0.2444930523633957, 0.2475360929965973, -0.43099331855773926, -0.037960734218358994, 0.037035711109638214, -0.23540127277374268, -0.37714701890945435, -0.4340502619743347, -0.17581342160701752, -0.329965204000473, -0.05649036541581154, -0.18369899690151215, 0.6681450605392456, -0.467070072889328], [0.13014374673366547, 0.12889672815799713, 0.6057223677635193, -1.2124561071395874, -0.692922055721283, -1.602428674697876, 0.1664871722459793, 0.05450103059411049, 0.3499189615249634, 0.28886300325393677, -0.5961039662361145, -0.041307345032691956, -0.15187187492847443, 0.20861388742923737, 0.07301922142505646, -0.07074903696775436, 0.180045023560524, -1.3462518453598022, 0.6746230721473694, -0.7434120178222656, 0.22521604597568512, -0.4571826457977295, -0.599319338798523, -0.07940077781677246, 0.06524012982845306, -0.14774036407470703, -0.020057955756783485, 0.3133985698223114, 0.1732298880815506, -0.04022533819079399, -0.18684737384319305, 0.49798688292503357, -0.2879810035228729, 0.2939108908176422, 0.448246568441391, 0.47581493854522705, 0.033497948199510574, -0.20852872729301453, 0.2007385641336441, 0.1507815271615982, 0.10836713016033173, 0.05011981353163719, 0.3082089424133301, 0.41235342621803284, 0.46931642293930054, 0.1836891919374466, 0.20641064643859863, 0.031147848814725876, -0.11583549529314041, 0.09765669703483582, -0.09700215607881546, 0.06492114067077637, -0.26174038648605347, 0.21893198788166046, -0.22786353528499603, 0.058327142149209976, -0.11981285363435745, -0.12627838551998138, -0.04439953342080116, -0.14547592401504517, -0.02509552240371704, 0.29448482394218445, -0.25941354036331177, 0.231443852186203, -0.2738814055919647, 0.11270195245742798, 0.23725555837154388, 0.05054283142089844, 0.10313304513692856, 0.12553368508815765, 0.2548410892486572, 0.009818661957979202]], [[0.07953310012817383, 2.232797384262085, 0.8932198882102966, -0.2416524738073349, 0.8562420010566711, -0.7066767811775208, 0.1893836408853531, -0.3173445463180542, -0.549174964427948, -0.8265796899795532, 1.0773606300354004, 0.43970999121665955, 0.4131981432437897, -0.20673690736293793, 0.0838821530342102, -0.8197981119155884, 0.13213934004306793, -0.8953605890274048, 0.07183247804641724, -0.8691723346710205, 0.6228519678115845, -0.3502078354358673, 1.151429295539856, -0.8198716044425964, 0.08973417431116104, -1.0107396841049194, 0.16055803000926971, 0.09215831011533737, -0.1251421868801117, -0.262785941362381, -0.03108173981308937, -0.02793862856924534, -0.20764973759651184, -0.19499671459197998, -0.11669047921895981, 0.0030768003780394793, 0.06768088787794113, -0.12494444102048874, 0.2667657434940338, -0.17825190722942352, -0.022589240223169327, -0.21472160518169403, -0.42169302701950073, -1.0412952899932861, -0.04308512806892395, -0.259303480386734, 0.07309644669294357, 0.1732844114303589, 0.33312541246414185, 0.04497015103697777, -0.15786238014698029, 0.04081707447767258, -0.00363865471445024, 0.2273780256509781, 0.09412255883216858, 0.15148310363292694, 0.05786943435668945, 0.3039577305316925, 0.0023134725634008646, -0.41994670033454895, 0.11896289139986038, 0.04718639701604843, -0.11847449839115143, 0.240198016166687, 0.4414883255958557, 0.3999350965023041, -0.028817549347877502, 0.3909010589122772, -0.1351342499256134, -0.38117411732673645, -0.0299807321280241, -0.005277540534734726], [-3.4460203647613525, -0.5205483436584473, 0.024710610508918762, -0.4051884412765503, -0.4116358458995819, -1.4664870500564575, 0.7237533926963806, -0.6722080111503601, 1.0808039903640747, 0.3846868574619293, -0.1660139113664627, 0.2593459486961365, -0.0852620080113411, -0.5364006757736206, -0.17888778448104858, -0.09305308759212494, -0.4220946431159973, -0.33147668838500977, -0.38074445724487305, -1.2764873504638672, 0.7021610736846924, -0.3684130907058716, -0.20268158614635468, -1.114259123802185, 0.2757548987865448, 0.23270674049854279, 0.20359309017658234, 0.054207101464271545, -0.03127284348011017, -0.050678785890340805, 0.13162368535995483, 0.13720689713954926, -0.21331526339054108, 0.17331454157829285, 1.0203717947006226, 0.18570643663406372, 0.3792554438114166, 0.071208655834198, -0.06030864268541336, 0.15339325368404388, 0.1695677787065506, 0.21945227682590485, 0.367131769657135, 0.6403483748435974, 0.19964663684368134, 0.16425473988056183, -0.23250779509544373, 0.31904336810112, 0.16120360791683197, -0.20663973689079285, -0.1365441530942917, -0.207719624042511, 0.11652334034442902, 0.19256365299224854, -0.0911511778831482, -0.2321465164422989, 0.1599164754152298, -0.1687900274991989, -0.05980560928583145, 0.022726871073246002, 0.04405965283513069, 0.042828671634197235, 0.048639532178640366, -0.027961835265159607, 0.14897730946540833, -0.01843942701816559, -0.009426121599972248, 0.08060988038778305, 0.09641436487436295, -0.15569260716438293, 0.044536519795656204, 0.020190177485346794], [2.0359270572662354, 2.1023435592651367, -0.46881723403930664, 0.3431398868560791, -0.03233502060174942, -0.0289776474237442, -1.9101676940917969, 0.16766688227653503, -0.32508695125579834, -0.1493750810623169, 0.32960814237594604, -0.8150610327720642, -0.3682021200656891, 0.22451262176036835, -0.004116126801818609, -0.28615492582321167, 1.5562323331832886, -0.12349439412355423, -1.2021598815917969, 0.45088323950767517, -0.26749861240386963, 0.21422800421714783, 0.3112066984176636, 0.10974696278572083, -0.29789912700653076, -0.024888955056667328, 0.08894053846597672, 0.23264703154563904, 0.07848891615867615, -0.07314387708902359, 0.010709838010370731, -0.06200500950217247, 0.3083609938621521, 0.03739797696471214, 0.03585381433367729, 0.38935616612434387, -0.11436007916927338, -0.0567830391228199, -0.22092308104038239, -0.2524573802947998, -0.6239352226257324, -0.3715552091598511, -0.19919946789741516, -0.3138735890388489, -0.5504609942436218, -0.09398860484361649, 0.028282636776566505, -0.12108916789293289, -0.0768737867474556, 0.11168485879898071, 0.04487760737538338, -0.18138273060321808, 0.06078285351395607, -0.1090315654873848, 0.11821472644805908, -0.031317468732595444, 0.03489748015999794, -0.06371252238750458, 0.07281707972288132, 0.23945872485637665, 0.04829193651676178, 0.079231396317482, 0.22078391909599304, -0.06520028412342072, -0.08506862074136734, -0.07174690812826157, -0.10156489163637161, -0.12819044291973114, 0.02211165241897106, -0.22223562002182007, 0.002217405242845416, -0.011337256990373135], [-1.3354811668395996, 0.8275195956230164, 0.19569644331932068, -0.36652159690856934, 0.6364002227783203, -0.6239350438117981, -0.06668968498706818, -0.3264410197734833, 0.8716384172439575, -0.2543036639690399, 0.5066280961036682, 0.2123577892780304, 0.7588029503822327, -0.5150293707847595, 0.3763692080974579, -0.8326693177223206, 0.6610068678855896, -0.06852012872695923, 0.2865653932094574, -1.1017776727676392, 0.8094654083251953, -0.5735565423965454, 0.572515070438385, -1.1376770734786987, -0.20106446743011475, -0.15827733278274536, -0.10287748277187347, -0.07765066623687744, -0.040353238582611084, -0.14318262040615082, 0.00627906434237957, -0.03525224328041077, -0.37647169828414917, 0.05541335046291351, 0.1748536229133606, -0.5309154987335205, 0.024389661848545074, -0.01706530712544918, -0.18180100619792938, -0.021311720833182335, -0.1712682545185089, -0.0556587353348732, -0.10403851419687271, -0.006408189423382282, 0.3918516933917999, 0.18665586411952972, 0.3240530788898468, 0.08609096705913544, 0.10546653717756271, -0.03637448698282242, -0.09600107371807098, -0.02517191506922245, -0.00737559562548995, 0.14871332049369812, 0.060996346175670624, 0.104051373898983, 0.03352463245391846, -0.06940101087093353, 0.15636572241783142, 0.24723683297634125, -0.10136136412620544, 0.12555859982967377, -0.2760911285877228, 0.25845640897750854, 0.07660820335149765, 0.18253426253795624, -0.03114381618797779, 0.21120432019233704, -0.06387646496295929, 0.15311585366725922, 0.1435268521308899, -0.254952996969223], [1.7165000438690186, 2.2843613624572754, -0.17881163954734802, 0.758804202079773, 0.3621961772441864, -0.43485963344573975, -1.1609983444213867, 0.13281221687793732, 0.02286349982023239, -0.14358605444431305, 0.2618577182292938, -0.4453137218952179, -0.36547717452049255, 1.8878439664840698, 0.09281960874795914, -0.08634187281131744, 1.095262050628662, 0.7797282934188843, 0.15592584013938904, -0.8707904815673828, 0.006264418829232454, 1.2217867374420166, 0.496107280254364, 0.1298665553331375, -0.4451410174369812, -0.08290325850248337, 0.049690935760736465, -0.06402391195297241, -0.40199053287506104, 0.034887462854385376, -0.1546943634748459, -0.10452000796794891, -0.38706332445144653, 0.03485904261469841, -0.17493028938770294, -0.801247239112854, -0.23400509357452393, 0.0816020742058754, 0.11185327917337418, -0.09257683157920837, 0.039043128490448, -0.08660158514976501, -0.4663393795490265, -0.15978968143463135, -0.133889839053154, -0.15069764852523804, -0.14448289573192596, -0.2455524206161499, 0.3068488836288452, -0.0011154169915243983, -0.07052452117204666, 0.015575236640870571, 0.19606710970401764, -0.08074118196964264, -0.2869507968425751, -0.06681704521179199, 0.015338609926402569, 0.13391193747520447, -0.04040990024805069, 0.2104949653148651, -0.054485950618982315, 0.0295855775475502, -0.026922104880213737, -0.04303057864308357, -0.010729167610406876, 0.059728238731622696, 0.15973031520843506, -0.15404018759727478, 0.011370806023478508, 0.0922882929444313, 0.1619197130203247, -0.10593883693218231], [-2.314574956893921, -0.6734909415245056, 0.367870569229126, -0.5138812065124512, 0.20719978213310242, 0.0029977913945913315, 0.9608157277107239, 0.558964729309082, 0.8002523183822632, 0.23504269123077393, 0.3975466787815094, 0.5597910284996033, 0.3324413597583771, -1.0625367164611816, 0.7339187264442444, 1.1314891576766968, -0.8521744012832642, 0.3208746016025543, 0.30884435772895813, -0.38952624797821045, 0.4054611623287201, -0.6671121716499329, 0.22519199550151825, -0.2806254029273987, 0.0942348912358284, -0.07096098363399506, -0.12487945705652237, -0.09825508296489716, -0.06010406091809273, -0.15424324572086334, 0.07132279127836227, 0.16963453590869904, -0.14402320981025696, -0.08532564342021942, 0.36557966470718384, 0.10395586490631104, 0.1647472083568573, -0.0954800397157669, -0.1522887498140335, -0.07564090192317963, -0.0024822624400258064, -0.13038548827171326, -0.008139207027852535, -0.06698285788297653, -0.014301403425633907, -0.12432656437158585, -0.15099744498729706, 0.13956493139266968, 0.20329245924949646, 0.1279941350221634, -0.10559848695993423, 0.11921567469835281, 0.13813170790672302, 0.022066248580813408, -0.23703216016292572, 0.02372654527425766, -0.02171209268271923, 0.027129000052809715, 0.05476593226194382, 0.10923352837562561, 0.04418085142970085, -0.12716349959373474, -0.3108062148094177, -0.15259498357772827, 0.2642870247364044, -0.04265786334872246, 0.0896553248167038, -0.11814718693494797, 0.13207216560840607, 0.04384835809469223, -0.030300112441182137, 0.10693730413913727], [1.6839635372161865, 1.0035104751586914, -0.139911949634552, 0.7107656002044678, 0.11088889092206955, -0.04198870062828064, -2.36798095703125, -0.15343685448169708, -0.43693238496780396, -0.26817408204078674, 0.3645068109035492, -0.19750748574733734, -0.19646430015563965, -0.09578350931406021, 0.1541205644607544, -0.44173115491867065, 1.2541688680648804, -0.10409069061279297, 0.007671243045479059, -0.043557438999414444, -0.22889626026153564, 0.19963856041431427, -0.1201438158750534, 0.38245296478271484, -0.08800993859767914, -0.05739888921380043, -0.10775812715291977, -0.022848358377814293, -0.16830652952194214, 0.06365516781806946, -0.30979111790657043, 0.11248207092285156, 0.2417769581079483, -0.1920972764492035, -0.10805445909500122, 0.23159374296665192, 0.06760886311531067, 0.01946220174431801, 0.02066338062286377, -0.39050745964050293, -0.39624395966529846, -0.20332644879817963, -0.3080863058567047, -0.22497087717056274, 0.13731981813907623, -0.020712697878479958, -0.26304739713668823, -0.24358221888542175, 0.16364380717277527, 0.05142923444509506, 0.12202049791812897, 0.007077808491885662, 0.09978829324245453, -0.0028541493229568005, 0.027741778641939163, -0.13359130918979645, 0.09472562372684479, 0.10276032984256744, 0.07293843477964401, -0.108798548579216, 0.003055212553590536, 0.1354236900806427, 0.03609716519713402, -0.021959951147437096, -0.18517398834228516, -0.007519322447478771, 0.0659075453877449, -0.1828935146331787, -0.0008192670065909624, -0.11233118176460266, 0.03846414387226105, -0.17039735615253448], [-0.7169061303138733, -0.35693320631980896, 1.5884751081466675, -0.2365165650844574, 0.9303140044212341, 0.8473443984985352, 0.402553528547287, 0.22528956830501556, 0.8859733939170837, -0.9105609655380249, 0.49298739433288574, 0.30367085337638855, 0.4573143720626831, -0.7207250595092773, 0.47769904136657715, 0.23290956020355225, -0.7724157571792603, -0.007142656482756138, 0.3293074667453766, 0.45646628737449646, 0.17008261382579803, 0.030653374269604683, 0.9835747480392456, 0.3195132911205292, -0.04259438440203667, 0.0757373496890068, -0.029469328001141548, 0.05409516021609306, -0.06695806980133057, -0.10936722904443741, -0.37134119868278503, -0.028986869379878044, -0.009139379486441612, -0.1281605213880539, -0.00990765355527401, -0.033127278089523315, 0.07009340822696686, -0.30144602060317993, 0.1896538883447647, -0.5934234857559204, -0.049770843237638474, -0.033233802765607834, 0.43162253499031067, -0.7116857171058655, 0.05160963535308838, -0.1385543793439865, 0.0083732008934021, 0.3992308974266052, -0.06461504101753235, -0.08527974039316177, -0.07151711732149124, -0.04978538304567337, -0.14348269999027252, 0.08638609945774078, -0.0358119010925293, 0.2386244833469391, 0.16413989663124084, 0.19610369205474854, 0.2751813530921936, 0.12957942485809326, 0.009622761979699135, -0.24288326501846313, -0.18907147645950317, 0.38296812772750854, -0.028354763984680176, 0.25669628381729126, -0.02238236553966999, -0.08928516507148743, 0.139614075422287, 0.04744325950741768, -0.07079910486936569, 0.14669175446033478], [2.98126220703125, 0.6445426940917969, -0.05586261674761772, 0.14564292132854462, 0.45476871728897095, 0.9995145201683044, -1.5723341703414917, 0.4515841007232666, -0.28644704818725586, -0.15445652604103088, 0.8054705858230591, -0.6159830689430237, -0.4676441550254822, -0.1548050045967102, -0.631035566329956, -0.3193225860595703, 1.7571401596069336, 0.017500657588243484, -1.022519826889038, 0.11124130338430405, 0.9696164727210999, 0.07267234474420547, 0.3517950177192688, 0.5936875939369202, -0.41767874360084534, -0.26218855381011963, -0.21590711176395416, -0.11164890974760056, -0.3075196146965027, -0.06453194469213486, -0.21391645073890686, -0.4706721603870392, 0.034902606159448624, -0.19718070328235626, -0.38230952620506287, -0.5061703324317932, -0.13214288651943207, 0.049391891807317734, -0.15003128349781036, -0.9496231079101562, -0.7881593704223633, -0.23768191039562225, -0.18737773597240448, -0.39143842458724976, -0.2313547134399414, -0.31293225288391113, -0.3967972695827484, -0.3361782431602478, -0.15277262032032013, 0.021133234724402428, -0.07887987792491913, 0.05522620305418968, 0.14625397324562073, -0.09414034336805344, -0.007792314514517784, 0.11614864319562912, 0.10652098804712296, 0.14660122990608215, 0.007533640135079622, -0.19576503336429596, 0.18028490245342255, -0.043726690113544464, -0.1104680597782135, 0.1631671041250229, -0.2910362780094147, 0.18298421800136566, 0.15156811475753784, 0.22387799620628357, -0.1769670844078064, -0.19028884172439575, 0.10669983923435211, 0.13643239438533783], [1.8264683485031128, 0.4363276958465576, 0.281972199678421, 0.32995450496673584, 0.431301474571228, 2.631408929824829, -0.3704679608345032, -0.3705112338066101, -1.9043043851852417, -0.40656837821006775, 0.3014669418334961, -1.1497403383255005, -1.0547524690628052, -0.3147308826446533, -0.40469613671302795, -0.4213677644729614, 1.8920583724975586, -0.03126034885644913, 0.15242919325828552, 0.37142688035964966, -0.8607785105705261, -0.10296602547168732, 0.18899640440940857, 0.9466246366500854, -0.1528226137161255, -0.15998630225658417, -0.16477122902870178, -0.05286948010325432, -0.9768961071968079, 0.12471947073936462, -0.10584139823913574, -0.528580904006958, 0.02252357080578804, -0.13184531033039093, -0.6420239210128784, 0.12218962609767914, -0.03942478448152542, -0.17864248156547546, -0.09390422701835632, -0.6616513133049011, -0.0939934104681015, -0.5035775899887085, 0.13427390158176422, -0.3135856091976166, -0.23769928514957428, -0.3748084008693695, -0.35824164748191833, -0.04189199581742287, -0.06139284744858742, -0.18245664238929749, 0.009705150499939919, -0.05524521321058273, 0.04478628188371658, -0.20152243971824646, -0.057008035480976105, 0.38507723808288574, 0.027325334027409554, 0.17192868888378143, 0.10199841856956482, 0.11938359588384628, -0.04548005387187004, -0.141716867685318, 0.02994169108569622, -0.36038681864738464, 0.07392127811908722, 0.0795331746339798, -0.06975261121988297, 0.27228331565856934, 0.0788445696234703, -0.061311330646276474, -0.06718353927135468, -0.07705538719892502], [0.09394422173500061, 0.04434903338551521, 0.8013074398040771, -0.5080717206001282, -0.1044163629412651, 0.8783541321754456, 0.14666037261486053, -1.066608190536499, -1.5203615427017212, -1.3758493661880493, 0.09091367572546005, 0.2254970222711563, 0.37070316076278687, -0.7868713736534119, -1.3521318435668945, -2.247776508331299, 0.7374899387359619, -1.509440541267395, 0.09365125745534897, -0.825488805770874, 0.5088449716567993, -0.7819393873214722, -0.7872648239135742, -1.1362327337265015, 0.35425302386283875, -0.14251002669334412, 0.3610105812549591, 0.18991206586360931, -0.016060249879956245, -0.1415036916732788, 0.1386418640613556, 0.03492393717169762, -0.10411661118268967, -0.4675919711589813, 0.010986210778355598, -0.1691693216562271, -0.027379726991057396, 0.03038608841598034, -0.0011865760898217559, -0.12251432985067368, 0.22228014469146729, 0.6981266140937805, 0.38262590765953064, 0.722847580909729, -0.042549874633550644, 0.3136039972305298, 0.32827451825141907, 0.3594098389148712, -0.0557287223637104, -0.17754416167736053, 0.07534375041723251, 0.04854699969291687, -0.29490867257118225, 0.1965188980102539, 0.11143872886896133, 0.34391677379608154, -0.02047020196914673, 0.35628995299339294, 0.3978230059146881, 0.29232147336006165, -0.2037784457206726, -0.20260785520076752, -0.6802607178688049, 0.2579094171524048, -0.02127678506076336, 0.02032710425555706, 0.3595143258571625, 0.1755496710538864, 0.015334031544625759, -0.04523957520723343, -0.07587281614542007, 0.18556708097457886], [-0.01624082215130329, 0.3645133376121521, 0.3195137083530426, -0.006892254110425711, -0.7261852025985718, -1.3229156732559204, -0.0747796818614006, -0.0028457497246563435, -0.42960089445114136, -0.38489338755607605, 0.40614962577819824, 0.655423641204834, 0.6812436580657959, -0.46134835481643677, -0.13371510803699493, -0.640323281288147, -0.21319325268268585, -0.2706605792045593, -0.5940883755683899, -0.6318195462226868, 0.9658445119857788, -0.1867562085390091, 0.5903962850570679, -0.6515865325927734, 0.24640265107154846, 0.15445531904697418, -0.0820421427488327, 0.047541286796331406, 0.43342968821525574, -0.32669636607170105, -0.0762181356549263, 0.04968796297907829, -0.43731942772865295, 0.22598598897457123, 0.14765386283397675, 0.715546727180481, 0.6846003532409668, 0.006719039287418127, 0.21000553667545319, 0.22800883650779724, 0.12390530854463577, 0.7682883143424988, 0.20779094099998474, 0.6327371597290039, 0.22261440753936768, 0.48759332299232483, 0.2330968976020813, -0.011226685717701912, 0.20021575689315796, 0.20820441842079163, 0.15152263641357422, 0.5909559726715088, -0.273730993270874, -0.39255115389823914, 0.3423547148704529, 0.043778982013463974, 0.0964488536119461, -0.16331709921360016, -0.017641756683588028, 0.48772305250167847, -0.2551395297050476, 0.3284796476364136, 0.12004894018173218, 0.3752870261669159, 0.19987662136554718, 0.4280673563480377, -0.28213751316070557, 0.4882653057575226, 0.13254761695861816, 0.24978382885456085, -0.7200427055358887, 0.02005704678595066], [0.9735183715820312, -0.46943584084510803, -0.4258255064487457, -0.05148344486951828, -0.6157957315444946, 0.9684919118881226, 0.17633095383644104, 0.48099949955940247, 0.5351119637489319, 0.817375659942627, -0.2730012536048889, 0.04983671382069588, -0.035067394375801086, 1.1832510232925415, 0.12081354856491089, 0.7292141318321228, 1.0702271461486816, -0.07372337579727173, -0.21001149713993073, 0.8599941730499268, 0.16466866433620453, 0.177909716963768, -0.8573079109191895, 0.6976421475410461, -0.073977991938591, 0.16756872832775116, -0.7910235524177551, -0.02737412042915821, 0.392559677362442, 0.6459922790527344, -0.3299117088317871, 0.27313968539237976, 0.28376567363739014, -0.025732416659593582, 0.371163934469223, -0.3052578866481781, -0.5565892457962036, -0.10502614825963974, 0.27776965498924255, 0.31748712062835693, -0.31840553879737854, 0.055582091212272644, 0.009184966795146465, 0.8957961797714233, -0.13025151193141937, 0.06958062201738358, -0.10873895138502121, 0.25359663367271423, -1.1278592348098755, -0.013357293792068958, 0.14518195390701294, -0.07625751197338104, 0.04456471651792526, -0.710790753364563, -0.27795207500457764, -0.3068390488624573, -0.6078326106071472, -0.13674801588058472, -0.3948306441307068, -0.12642809748649597, 0.28949105739593506, 0.0427652932703495, 0.18080733716487885, -0.5077425241470337, -0.5601990818977356, -0.18595723807811737, 0.06242716684937477, -0.4444448947906494, 0.5677664279937744, -0.0626785084605217, 0.03142169490456581, 0.05396951362490654], [-1.7979106903076172, -0.6161524057388306, 0.04487523436546326, 0.018129047006368637, -0.6505644917488098, -1.4209810495376587, 0.7957464456558228, 0.7169690132141113, 0.9587705135345459, 0.1554175317287445, -0.6132664680480957, 0.07505635172128677, 0.034936342388391495, -0.4191403388977051, 0.2615227997303009, -0.4940985143184662, -0.8848726153373718, -0.5862331986427307, 0.10222765058279037, -0.6958886981010437, -0.14388981461524963, -0.7219098806381226, -0.4821457862854004, -0.94264817237854, 0.14437146484851837, 0.279889851808548, 0.20569242537021637, 0.12886343896389008, 0.2194516956806183, -0.01650489680469036, 0.3251504898071289, 0.8159239888191223, 0.16550391912460327, 0.07650242745876312, 0.30383169651031494, 0.7962361574172974, 0.06548251211643219, 0.15625882148742676, 0.2107822746038437, 0.8130108118057251, 0.2284708172082901, 0.6682429313659668, 0.5904102921485901, 0.3538499176502228, 0.30020850896835327, 0.3202430307865143, 0.48348623514175415, 1.2389473915100098, -0.06770217418670654, 0.008624536916613579, 0.08364495635032654, 0.019147517159581184, 0.144693985581398, 0.1204126849770546, -0.08190469443798065, -0.20209349691867828, -0.09607869386672974, -0.11399687826633453, -0.2039024382829666, 0.04284238442778587, 0.08552081137895584, -0.11033573746681213, 0.010029553435742855, 0.011674974113702774, 0.36602896451950073, -0.010337144136428833, -0.4436495006084442, 0.09859423339366913, 0.13895532488822937, 0.0465853214263916, 0.025741243734955788, 0.010642165318131447], [1.7856615781784058, 1.784077525138855, -0.9056957960128784, 0.5605512857437134, -0.7833835482597351, -0.45043691992759705, -0.521526038646698, -0.616818368434906, -0.8109778761863708, -0.30241426825523376, -0.4923851490020752, -0.0027963409665971994, -0.7051799893379211, 0.49128931760787964, -0.8567538261413574, -0.883976936340332, 0.8325294852256775, -0.8665582537651062, -0.7408106327056885, -0.8069003820419312, 0.23474662005901337, -1.126041293144226, -0.07316010445356369, -0.46162208914756775, -0.6553530097007751, 0.020857106894254684, -0.016308140009641647, 0.06771550327539444, -0.0005174812395125628, -0.14679506421089172, 0.021447235718369484, -0.007987537421286106, 0.0747457817196846, -0.16652344167232513, -0.22837747633457184, -0.0058783236891031265, -0.30897635221481323, 0.019559847190976143, -0.16653254628181458, 0.3659604787826538, 0.06522031873464584, 0.17791566252708435, -0.04421866685152054, 0.007332963403314352, -0.35895898938179016, -0.12293876707553864, 0.07655830681324005, -0.14497913420200348, -0.2127140611410141, 0.25492629408836365, -0.16974715888500214, -0.07728878408670425, -0.007162616588175297, -0.23133260011672974, 0.18316355347633362, -0.07499867677688599, -0.02390407584607601, 0.056735023856163025, -0.1867924928665161, 0.2829667925834656, -0.16902843117713928, 0.1070529967546463, 0.2890462577342987, 0.11339375376701355, 0.12377211451530457, -0.061718426644802094, -0.16165979206562042, -0.04054323956370354, 0.04425038397312164, -0.018038593232631683, -0.11361843347549438, -0.021335195749998093], [-2.4666597843170166, 0.703406810760498, 0.9054847359657288, -0.6847580671310425, 0.2719407379627228, 0.34929099678993225, 0.0667567104101181, -0.2846052348613739, 0.17322082817554474, -0.28313106298446655, 0.4147232472896576, 0.16402053833007812, 0.413279265165329, -1.3120492696762085, 0.10996179282665253, -0.36362969875335693, -0.6524102091789246, -1.8735419511795044, 0.042073074728250504, -0.5990332365036011, 0.39335495233535767, -2.870736837387085, 0.1667601317167282, -0.4085054397583008, 0.2618491053581238, 0.07507368177175522, -0.09320999681949615, 0.04000223055481911, 0.1359999179840088, 0.002222927752882242, 0.24445949494838715, 0.1025565043091774, 0.14629244804382324, 0.26139938831329346, -0.07187943905591965, 0.17913499474525452, 0.5144864320755005, 0.26984548568725586, -0.08031107485294342, -0.384253591299057, 0.08545190095901489, 0.13803285360336304, 0.13297463953495026, -0.3710212707519531, 0.2517010569572449, 0.10074524581432343, -0.028260916471481323, -0.0020633309613913298, 0.03641614690423012, -0.14236944913864136, -0.2521369755268097, 0.06797812879085541, 0.04422220215201378, 0.23491477966308594, -0.029500838369131088, 0.10439833998680115, 0.0824282169342041, -0.010233543813228607, -0.13693998754024506, 0.1951068788766861, 0.157736137509346, -0.008609269745647907, -0.06987491995096207, 0.1941518783569336, 0.13058587908744812, 0.1958509385585785, -0.1617274433374405, 0.13310293853282928, 0.0669105127453804, 0.2106545865535736, -0.11217755079269409, 0.15335124731063843], [0.9325148463249207, 0.11260619759559631, 0.4379154145717621, 0.05085940286517143, 0.37858203053474426, -0.7065978050231934, 0.7571865320205688, -0.5091329216957092, -0.4976026713848114, -1.0847848653793335, 0.6055479645729065, -0.15097586810588837, -0.17815732955932617, -0.5428529381752014, 0.4051509201526642, -1.4741380214691162, -0.12242746353149414, -2.1302802562713623, -0.28147798776626587, -1.2332426309585571, 0.043584998697042465, -0.8040333390235901, 1.0596145391464233, -0.5211700201034546, 0.36709967255592346, -0.7661186456680298, 0.1485067754983902, 0.30685946345329285, 0.06739380955696106, -0.027535567060112953, -0.030260488390922546, -0.10234475135803223, -0.18361763656139374, -0.012997478246688843, 0.15032507479190826, 0.2716021239757538, -0.15521912276744843, -0.7052116990089417, 0.08184126019477844, -0.24511826038360596, 0.5016379952430725, -0.18452200293540955, 0.39232736825942993, -0.4725876748561859, -0.2097284346818924, 0.41770413517951965, 0.02236754819750786, 0.2997364103794098, 0.20736132562160492, 0.12723605334758759, -0.09093879163265228, 0.09358871728181839, -0.07570792734622955, -0.0016865050420165062, 0.03617759048938751, 0.1057911366224289, -0.06480403989553452, 0.20089180767536163, 0.20087014138698578, 0.06956952065229416, 0.021544527262449265, 0.1685759276151657, 0.17466112971305847, 0.13107265532016754, 0.5049630403518677, 0.12683150172233582, -0.4541146755218506, 0.31714746356010437, 0.2568145990371704, 0.14236554503440857, -0.13987936079502106, 0.1975889950990677], [0.11316811293363571, 0.7581288814544678, 0.8581437468528748, -0.1062493845820427, 0.8895674347877502, -0.5126659870147705, -0.9659886360168457, -0.6279783844947815, -0.4402080476284027, -0.7836688756942749, 1.1603889465332031, 0.17410165071487427, 0.3544696271419525, -0.4594419002532959, 0.28326308727264404, -0.5884392261505127, 0.21526677906513214, -0.49694815278053284, -0.2600148916244507, -0.20615071058273315, 0.6447944045066833, -0.04240499809384346, 0.923467218875885, -0.5597153902053833, -0.04169655591249466, 0.08269421011209488, -0.1680580973625183, 0.1743619740009308, -0.027621759101748466, -0.5016841292381287, -0.47421449422836304, -0.11733260750770569, -0.1560090035200119, 0.1415741741657257, -0.08447461575269699, -0.3090433180332184, 0.11165402829647064, 0.032316166907548904, -0.08032277971506119, -0.4342055320739746, -0.11983655393123627, -0.1745329052209854, 0.45003238320350647, -0.49487966299057007, 0.06534697115421295, -0.14227187633514404, -0.03867778182029724, 0.10031832754611969, 0.32510337233543396, 0.148905411362648, 0.09058761596679688, 0.05545852333307266, -0.0922665148973465, -0.07447909563779831, 0.17257189750671387, 0.4332531690597534, 0.07664839923381805, 0.1566135436296463, 0.12772296369075775, -0.38559195399284363, 0.321567565202713, -0.2270941287279129, -0.16974428296089172, 0.051315099000930786, -0.03548605740070343, 0.3535265028476715, -0.03129982203245163, 0.20449239015579224, 0.3388161063194275, -0.30969029664993286, 0.024006353691220284, 0.1442612260580063], [-1.8713120222091675, 0.046941690146923065, 0.2311735898256302, 0.29439279437065125, 1.0272011756896973, -0.4537665545940399, -0.8219625353813171, 0.14634324610233307, 1.14150869846344, 0.9720314741134644, 0.3049338459968567, 0.9459379315376282, 1.104892611503601, 0.721537709236145, 0.3324533998966217, 1.240870714187622, -0.3616473376750946, 1.5215673446655273, 1.4092930555343628, 0.345681756734848, 1.0557594299316406, 0.9609143137931824, 0.8332672715187073, -0.45079413056373596, 0.24332331120967865, 0.056132033467292786, 0.04466018080711365, 0.25164562463760376, 0.21762438118457794, 0.25776463747024536, -0.11498522758483887, -0.749488353729248, 0.01035082247108221, 0.013886663131415844, 0.25160548090934753, -0.27520951628685, -0.016018643975257874, 0.44637054204940796, 0.16870547831058502, -0.2924361228942871, -0.33975276350975037, -0.24224594235420227, -0.3977659046649933, 0.14774280786514282, 0.07289160788059235, -0.13877415657043457, -0.23752665519714355, -1.0035985708236694, 0.08261243999004364, 0.06366516649723053, -0.34192898869514465, 0.2823137044906616, 0.11383956670761108, 0.06781400740146637, -0.14505572617053986, 0.00027277431217953563, -0.07125214487314224, -0.1982746422290802, 0.06775031983852386, 0.23096348345279694, -0.14488646388053894, -0.2580074965953827, -0.06664995849132538, -0.027526656165719032, -0.3049894869327545, -0.036375124007463455, 0.7209823727607727, 0.0017298862803727388, -0.09508765488862991, -0.018747370690107346, 0.0698980912566185, -0.15328985452651978], [0.17119809985160828, 0.644584596157074, 0.2679506242275238, -0.2749459445476532, 0.5579146146774292, -0.4251171052455902, 0.028809521347284317, -0.6611413955688477, -0.7351258993148804, -0.7887396812438965, 0.765548586845398, 0.15725785493850708, 0.19979162514209747, -0.5321621894836426, -0.1518203169107437, -1.5511419773101807, 0.08698581904172897, -2.0990612506866455, -0.45908311009407043, -1.4459888935089111, 0.1649150848388672, -1.2257459163665771, 0.41329434514045715, -1.0890682935714722, 0.11951161921024323, -0.5352811217308044, 0.07721353322267532, 0.36668941378593445, 0.21232359111309052, -0.370339572429657, -0.3302958607673645, 0.08123476803302765, -0.16544471681118011, 0.1039302870631218, 0.14403751492500305, -0.2673439085483551, 0.032029710710048676, -0.19867545366287231, -0.10866440087556839, -0.6370165944099426, 0.011742720380425453, 0.21397259831428528, 0.2013317346572876, -0.28836289048194885, 0.04554760083556175, 0.13961701095104218, 0.48652079701423645, 0.2010687291622162, 0.26191940903663635, 0.12059416621923447, -0.02374221384525299, 0.1480705291032791, -0.06246794015169144, 0.041235197335481644, 0.27486521005630493, 0.2760934829711914, 0.2305593490600586, 0.4842066764831543, 0.16655361652374268, -0.09096188843250275, 0.13483268022537231, -0.060229022055864334, 0.3589012026786804, -0.06976079195737839, 0.18543429672718048, 0.11435209214687347, -0.3548854887485504, 0.5485274195671082, 0.4639512598514557, 0.20602355897426605, -0.2937367558479309, 0.06176292151212692], [-0.5826451182365417, -0.9353014826774597, -0.9140812754631042, -0.6620730757713318, -2.6993961334228516, 0.37091225385665894, 0.8228551149368286, 0.3091411292552948, 0.3142799735069275, 0.6840378642082214, -0.8708651065826416, 0.7780510783195496, 0.046653714030981064, -0.364899218082428, -0.1885794997215271, 0.1266227662563324, -0.8731812834739685, -0.6157877445220947, 0.23724663257598877, 0.17919385433197021, -0.09496565908193588, -0.4557160437107086, -1.8136147260665894, 0.2792447507381439, 0.2555994689464569, -0.23175500333309174, 0.11061061918735504, 0.20174507796764374, 0.10211142897605896, 0.2996765673160553, 0.40739309787750244, 0.31095245480537415, 0.5127180814743042, -0.01640321873128414, 0.24752335250377655, 0.4880062937736511, 0.3509301543235779, 0.21075862646102905, 0.07065439224243164, 0.3318161070346832, 0.1513151079416275, 0.7977139353752136, 1.2563557624816895, 0.9167433381080627, 0.37818604707717896, 0.3915135860443115, 0.24491268396377563, 0.15900027751922607, -0.07070782780647278, -0.19664490222930908, 0.050262823700904846, 0.09400046616792679, 0.007801971398293972, -0.05437886342406273, -0.03179199993610382, -0.01963050477206707, -0.07406657189130783, 0.05050944536924362, 0.12858876585960388, 0.3044726848602295, 0.10078397393226624, 0.13532695174217224, -0.02085774578154087, 0.0919426679611206, 0.11988343298435211, -0.36221614480018616, -0.017443997785449028, -0.3574867248535156, 0.18268315494060516, 0.26100751757621765, -0.13500158488750458, -0.16562913358211517], [-2.742281436920166, -0.29577669501304626, 0.8209399580955505, -1.0241236686706543, -0.15861067175865173, 0.18678338825702667, 1.5258708000183105, -0.49876669049263, -0.6252354383468628, 0.006629285868257284, 0.08257421851158142, 0.27680978178977966, -0.1131601631641388, -0.9662213921546936, -0.02026292122900486, -0.5087860822677612, -0.53952956199646, -1.4107393026351929, 0.3516067862510681, -1.0187798738479614, 0.1454809159040451, -1.5528661012649536, -0.15999077260494232, -0.35894352197647095, 0.6894837021827698, 0.13046258687973022, 0.10741065442562103, 0.022060727700591087, 0.0998203456401825, 0.06317243725061417, -0.07484319061040878, 0.40011855959892273, -0.06915242224931717, 0.11614801734685898, 0.065605528652668, 0.7601613998413086, 0.5210855603218079, -0.07744842022657394, -0.10701236128807068, -0.12384630739688873, 0.33595189452171326, 0.0702756941318512, 0.3740268647670746, 0.05965831130743027, 0.1585388332605362, 0.10643605887889862, 0.06138857081532478, 0.12089019268751144, 0.2357742041349411, -0.11335776746273041, -0.17152513563632965, 0.06696635484695435, -0.3304380178451538, -0.05027595907449722, -0.08201058954000473, 0.18408122658729553, -0.09349808841943741, -0.16829253733158112, 0.06333575397729874, -0.0394287072122097, 0.1994938999414444, -0.20933857560157776, -0.06653125584125519, 0.1166134625673294, 0.31050416827201843, -0.0289835873991251, -0.10531500726938248, -0.11251606047153473, -0.10092805325984955, 0.028229478746652603, -0.12997886538505554, 0.111366406083107], [-2.737527370452881, -0.32099711894989014, 0.3216460049152374, 0.07212717086076736, 0.6608321070671082, 1.032378077507019, -0.27670106291770935, 0.5660083889961243, 1.292091727256775, 0.7200109362602234, 0.44492173194885254, -0.5337411165237427, 0.7374474406242371, 0.5511935353279114, 0.7002906203269958, 1.279022455215454, -0.7873387932777405, 0.6599982976913452, 0.6457362174987793, 0.18176059424877167, 0.4375807046890259, 0.5766401886940002, 0.027332143858075142, 0.1908450871706009, -0.006325752008706331, 0.43397170305252075, 0.14272689819335938, 0.25410696864128113, -0.10459630936384201, 0.16545821726322174, 0.03266796097159386, 0.20923937857151031, -0.15073426067829132, 0.30334576964378357, 0.1267445683479309, 0.013237678445875645, 0.2666357159614563, -0.09623253345489502, 0.026516247540712357, 0.09187299758195877, 0.20209430158138275, 0.14489060640335083, -0.5052159428596497, 0.21570010483264923, 0.25345751643180847, -0.11156249046325684, -0.2689753770828247, -0.01754527911543846, 0.013824922032654285, -0.09395768493413925, 0.19729167222976685, 0.16682285070419312, -0.021210357546806335, -0.212088942527771, -0.0459812730550766, -0.06877415627241135, 0.011053142137825489, 0.06526950746774673, -0.18310725688934326, 0.0965491235256195, -0.23075488209724426, -0.17750611901283264, -0.1584993600845337, 0.06013153865933418, -0.05666220933198929, -0.0003055495035368949, 0.07779666781425476, -0.149514302611351, -0.21688465774059296, 0.05608176440000534, -0.02182779274880886, -0.10346069931983948], [-0.0665321871638298, -0.20640060305595398, 0.9498249888420105, -0.14826159179210663, 0.6107410192489624, 1.0948458909988403, 0.11346039921045303, 0.014720502309501171, -0.16597403585910797, -0.9387143850326538, 0.5674445033073425, -0.1573127806186676, 0.09044080972671509, -0.3039860725402832, 0.23496177792549133, 0.08199892938137054, -0.4208100736141205, 0.08012920618057251, -0.19657807052135468, 0.08661043643951416, -0.2543059289455414, -0.1862514615058899, 0.6120750904083252, 0.08538952469825745, 0.17583337426185608, -0.05623488128185272, -0.07362109422683716, 0.5280313491821289, -0.07672092318534851, -0.18120943009853363, 0.06484251469373703, -0.04149985313415527, -0.16164939105510712, -0.23564966022968292, -0.15506747364997864, 0.13140800595283508, 0.09256549179553986, 0.07149440795183182, 0.22202347218990326, -0.3818108141422272, 0.047484368085861206, -0.332746684551239, 0.11292214691638947, -0.5488394498825073, -0.3006124794483185, 0.12177372723817825, -0.06798005104064941, 0.2570875585079193, -0.05525147542357445, -0.2741992473602295, 0.0808846578001976, -0.09517372399568558, -0.07319507747888565, 0.19844110310077667, -0.39849206805229187, 0.29084381461143494, -0.012286536395549774, 0.32528623938560486, 0.3048633337020874, -0.2806156575679779, 0.37173333764076233, -0.20512601733207703, -0.3617577850818634, -0.1637624204158783, 0.02850339561700821, 0.2819509506225586, -0.16721737384796143, 0.34335780143737793, 0.18128056824207306, -0.0725562646985054, -0.1830153465270996, 0.13977065682411194]], [[0.5161946415901184, 0.31986895203590393, 0.9548453092575073, -0.8920924663543701, 0.3773215115070343, -0.5153043866157532, 0.2113204300403595, 0.53801029920578, 0.4773101508617401, 0.5930958390235901, 0.9340090155601501, 0.3781455159187317, 1.1256611347198486, 0.25507524609565735, 0.7056601643562317, 0.27001917362213135, 0.7024359107017517, -0.5216624140739441, 0.7678943872451782, -0.21863919496536255, 0.35128170251846313, 0.03358558565378189, -0.3354179859161377, 0.5546123385429382, 0.39301449060440063, 0.03688506782054901, 0.0377422459423542, 0.03732577711343765, -0.17957718670368195, 0.052718356251716614, 0.012568797916173935, -0.3394324481487274, 0.0002309940755367279, 0.07418622821569443, 0.03752489015460014, -0.24785543978214264, 0.23263101279735565, 0.04358687996864319, 0.0771448016166687, 0.24817883968353271, -0.05685799941420555, -0.24290402233600616, -0.1327354609966278, 0.059104859828948975, 0.3445798456668854, 0.0479990653693676, -0.05276620388031006, -0.09440594911575317, -0.002266740193590522, 0.02006460912525654, -0.007811271119862795, -0.0031229841988533735, 0.009919721633195877, 0.042511235922575, -0.0029580113478004932, 0.026629546657204628, -0.011677009984850883, -0.030252406373620033, -0.006686723791062832, -0.0062808324582874775, 0.005346514284610748, 0.005865348502993584, -0.020692283287644386, 0.0050803180783987045, -0.07567363977432251, 0.005520245525985956, 0.12154588103294373, -0.017486892640590668, 0.016942011192440987, 0.0020269525703042746, 0.04043308645486832, 0.006464645266532898], [0.5161946415901184, 0.31986895203590393, 0.9548453092575073, -0.8920924663543701, 0.3773215115070343, -0.5153043866157532, 0.2113204300403595, 0.53801029920578, 0.4773101508617401, 0.5930958390235901, 0.9340090155601501, 0.3781455159187317, 1.1256611347198486, 0.25507524609565735, 0.7056601643562317, 0.27001917362213135, 0.7024359107017517, -0.5216624140739441, 0.7678943872451782, -0.21863919496536255, 0.35128170251846313, 0.03358558565378189, -0.3354179859161377, 0.5546123385429382, 0.39301449060440063, 0.03688506782054901, 0.0377422459423542, 0.03732577711343765, -0.17957718670368195, 0.052718356251716614, 0.012568797916173935, -0.3394324481487274, 0.0002309940755367279, 0.07418622821569443, 0.03752489015460014, -0.24785543978214264, 0.23263101279735565, 0.04358687996864319, 0.0771448016166687, 0.24817883968353271, -0.05685799941420555, -0.24290402233600616, -0.1327354609966278, 0.059104859828948975, 0.3445798456668854, 0.0479990653693676, -0.05276620388031006, -0.09440594911575317, 0.0059261624701321125, 0.01898965984582901, -0.009347603656351566, -0.0012000001734122634, 0.009670734405517578, 0.04079205542802811, -0.003635772969573736, 0.024973692372441292, -0.013695084489881992, -0.03026586025953293, -0.006832960061728954, -0.015119513496756554, 0.006884601432830095, 0.0049520512111485004, -0.01992352493107319, 0.01072501391172409, -0.05823580548167229, 0.010313599370419979, 0.10300271213054657, -0.0182550847530365, 0.014487288892269135, 0.004863251931965351, 0.03806224465370178, 0.005276119336485863]]]}, {"type": "dense", "shape": [null, null, 1], "weights": [[[-0.306282639503479], [-0.1850733608007431], [-0.20829851925373077], [0.07716560363769531], [-0.4166422486305237], [0.023083310574293137], [-0.35211610794067383], [-0.07131800055503845], [0.505439043045044], [0.13887572288513184], [0.38573944568634033], [-0.25297343730926514], [0.04080577567219734], [-0.3591679632663727], [-0.05293894186615944], [0.36118653416633606], [-0.519860029220581], [0.2640918791294098], [-0.3074689209461212], [0.19233691692352295], [-0.32138726115226746], [0.06683726608753204], [-0.46097615361213684], [-0.030449843034148216]], [-0.03448313847184181]]}]}