{"in_shape": [null, null, 3], "layers": [{"type": "time-distributed-dense", "shape": [null, null, 4], "weights": [[[-1.2818838357925415, -0.4912273585796356, 1.0315734148025513, -0.28221645951271057], [-0.16471052169799805, 0.43370702862739563, -0.11530613154172897, -0.2585255801677704], [-16.446657180786133, -2.6930289268493652, -10.594706535339355, -17.165225982666016]], [0.02608579210937023, -0.1404317319393158, -0.03778153657913208, -0.00812168512493372]]}, {"type": "gru", "shape": [null, null, 8], "weights": [[[-1.7476434707641602, 2.1306393146514893, 0.7458940744400024, -0.3025914132595062, -0.6263099908828735, -0.037872642278671265, -0.8936758041381836, 3.781484842300415, 0.08750655502080917, -0.12060990929603577, 0.9972737431526184, -0.2229202836751938, -0.8154555559158325, -0.32256558537483215, -0.191203311085701, -1.0010221004486084, -0.39716029167175293, -0.18058045208454132, -0.2607952952384949, 0.16679684817790985, -0.37044161558151245, 0.7663406729698181, 0.7079912424087524, 0.1131572276353836], [1.657211422920227, 0.58424311876297, -0.3486385643482208, -0.6329901218414307, -0.81496661901474, 0.43637239933013916, -1.1638307571411133, -2.0637006759643555, -0.5004401803016663, 1.2343300580978394, -0.9220954775810242, 0.5005977153778076, 2.1574718952178955, -0.0790935754776001, 2.329345464706421, 1.2765207290649414, -0.0957074910402298, 0.1330806165933609, -0.28735315799713135, 0.04867127537727356, 0.10896354913711548, 0.1029602512717247, 0.11975674331188202, -0.1668444126844406], [1.457861304283142, -1.098919153213501, -0.4998035728931427, 4.889280319213867, 0.5355806946754456, -0.5973255038261414, 0.9743112921714783, -1.7929456233978271, -0.5441306829452515, -0.44117283821105957, -3.1625356674194336, -0.13723251223564148, -0.10235097259283066, -0.23386339843273163, 0.5669291019439697, 0.24936579167842865, 0.14291095733642578, -0.026070261374115944, 0.49067553877830505, -0.4435407817363739, 0.591112494468689, -0.49310600757598877, -0.35741931200027466, 0.49129512906074524], [-0.566625714302063, -0.08668803423643112, 0.04403615742921829, 1.8347493410110474, 1.3677672147750854, 0.5125181674957275, 0.9214463233947754, 2.89536714553833, 0.2391686737537384, -1.4294143915176392, 0.09675993770360947, -0.34715214371681213, -1.12764310836792, -0.30856987833976746, -0.799787700176239, -0.9224241971969604, 0.2901079058647156, -0.2306310087442398, -0.33446913957595825, -0.0007928837439976633, 0.01812206581234932, 0.20738333463668823, -0.2756767272949219, 0.9357302188873291]], [[-1.3501681089401245, 0.4621169865131378, 2.25370192527771, -0.9023699164390564, -1.1617804765701294, -1.5756025314331055, 2.211489677429199, 10.366496086120605, 0.6205059885978699, -0.5562880635261536, -1.236404299736023, -0.28511708974838257, 0.005554986651986837, -1.0623703002929688, 0.46035081148147583, -0.8251585364341736, 1.1284924745559692, 0.3759016990661621, -0.9752628207206726, 1.453895926475525, 0.7220068573951721, 1.2270252704620361, 0.671186625957489, -0.16423654556274414], [0.4403514564037323, 1.1398513317108154, 0.6777206659317017, -1.046576976776123, 0.850496768951416, 0.2615208923816681, -3.1439895629882812, -2.0304267406463623, 0.3494318425655365, 0.2886749804019928, 4.976438045501709, 1.362078070640564, -1.095123052597046, 0.7586039900779724, -1.2207554578781128, 1.9815962314605713, -0.1329813152551651, -0.03397489711642265, 0.1875218152999878, -0.2928121089935303, -0.04327147454023361, 0.013705720193684101, 0.49068766832351685, -0.07213538140058517], [-1.2297897338867188, 0.46095600724220276, -0.6886483430862427, 0.06101435795426369, -0.3601527214050293, 1.166674017906189, 0.768499493598938, -3.541255474090576, 0.07800039649009705, 0.5474473834037781, -0.1652589589357376, -1.1697348356246948, 0.8552720546722412, -0.7292588353157043, 0.08917557448148727, -1.825069546699524, -0.208385169506073, 0.6693740487098694, 0.08467501401901245, -0.5903096199035645, 0.14262789487838745, 0.47359609603881836, -0.24250589311122894, -0.21287395060062408], [-0.600325345993042, -0.4954734444618225, 2.606961488723755, -2.8835620880126953, 0.1359240561723709, 0.44166985154151917, -1.6678696870803833, 0.6951343417167664, -0.34364864230155945, 0.27704522013664246, -0.6230887770652771, -0.04072893038392067, 0.2867227792739868, -0.14260947704315186, -0.9208046793937683, -0.2131679356098175, -0.8741191625595093, -0.6445856094360352, -0.7848197221755981, 1.4318740367889404, 0.236467644572258, -0.19550958275794983, 0.8730008602142334, 0.3108465075492859], [-0.8998280763626099, 0.42071908712387085, 1.4113638401031494, -2.431530237197876, -1.1832386255264282, 2.3886868953704834, -0.5210289359092712, 0.48202890157699585, 0.48047342896461487, 0.9484119415283203, 0.3064546585083008, 0.36431020498275757, -0.22026515007019043, -0.09545586258172989, 0.3172263503074646, -0.3108347952365875, -0.015635360032320023, 0.2514558732509613, 0.1160188689827919, 0.3814455568790436, 0.832659125328064, 0.88359534740448, 0.2759532928466797, -0.18966667354106903], [1.4304224252700806, -0.6623690128326416, -0.876650869846344, -1.095884084701538, 0.47369831800460815, -4.837536334991455, -0.6464406847953796, -3.7031619548797607, 0.18827219307422638, -1.6924861669540405, -1.0960795879364014, -2.11830997467041, -0.704158365726471, 0.9907464981079102, -0.3518259823322296, 0.31901851296424866, -2.386017322540283, -0.277060329914093, -0.48330000042915344, 1.5735838413238525, -1.3378454446792603, -0.5760343670845032, 1.2834891080856323, 1.2888844013214111], [-0.10776706039905548, -1.6255265474319458, 0.9393680095672607, -2.0384764671325684, 0.4652341306209564, 0.2470005452632904, 3.1456894874572754, 3.523089647293091, 0.7294840812683105, 0.7390262484550476, -0.2773284614086151, 0.5901196002960205, 0.33567577600479126, 0.08151821792125702, -0.27267691493034363, 0.3168654143810272, -0.6929850578308105, 0.1745937019586563, -0.08358943462371826, 0.701511025428772, 0.18853281438350677, -0.08090778440237045, 0.1728489100933075, -0.30974477529525757], [2.709270477294922, -0.06003871187567711, 0.42976048588752747, -0.27943405508995056, 1.2535549402236938, 3.345116376876831, -1.2221102714538574, -3.362558364868164, -1.7074116468429565, -1.7088137865066528, 0.09882304817438126, -0.824333667755127, -2.385669469833374, -0.47752493619918823, -0.5449780821800232, 0.46102043986320496, -0.0010772747918963432, -0.19060823321342468, -0.07373515516519547, 0.1453302502632141, -0.25048771500587463, 0.12915906310081482, -0.34624531865119934, 1.111289620399475]], [[1.2126997709274292, 1.0975309610366821, 0.7302605509757996, 0.16824932396411896, 1.5810272693634033, -0.681337296962738, 0.8473829030990601, 0.19309532642364502, 0.3656114935874939, 0.28797197341918945, 0.5215491652488708, -0.1141369491815567, -0.48870083689689636, 0.4686935245990753, 0.3268996477127075, 0.017333952710032463, -0.02538887970149517, 0.10742427408695221, 0.0015467120101675391, 0.07335308194160461, 0.004961089231073856, -0.07648950815200806, -0.06784969568252563, 0.28945258259773254], [1.2126997709274292, 1.0975309610366821, 0.7302605509757996, 0.16824932396411896, 1.5810272693634033, -0.681337296962738, 0.8473829030990601, 0.19309532642364502, 0.3656114935874939, 0.28797197341918945, 0.5215491652488708, -0.1141369491815567, -0.48870083689689636, 0.4686935245990753, 0.3268996477127075, 0.017333952710032463, -0.0625145211815834, 0.09860678017139435, 0.00888078287243843, 0.06879992038011551, -0.04528738930821419, -0.11428380012512207, -0.07857055962085724, 0.2984691560268402]]]}, {"type": "dense", "shape": [null, null, 1], "weights": [[[-0.9015092253684998], [-0.7139577865600586], [-0.5127357244491577], [0.5408803820610046], [0.5262030959129333], [0.5914324522018433], [-0.8359095454216003], [-0.342896968126297]], [0.045885659754276276]]}]}