{"in_shape": [null, null, 3], "layers": [{"type": "time-distributed-dense", "shape": [null, null, 8], "weights": [[[0.14686720073223114, -0.5584543943405151, 0.3526007831096649, -1.8625972270965576, 1.2352200746536255, 0.0827297568321228, -0.003985668532550335, 0.7088781595230103], [-0.3219919800758362, 0.16168087720870972, 0.3550955057144165, 0.11796942353248596, -0.588200569152832, 0.5877807140350342, 0.5582403540611267, 0.6089370846748352], [-15.261024475097656, 5.638528823852539, 2.9544875621795654, -2.539073944091797, -0.9595637321472168, 0.326886385679245, 1.3053076267242432, -1.608680009841919]], [0.2004375457763672, -0.0061758398078382015, -0.004218957852572203, -0.059544313699007034, 0.020349618047475815, -0.0036068789195269346, 0.017809415236115456, -0.036050014197826385]]}, {"type": "gru", "shape": [null, null, 16], "weights": [[[3.3232178688049316, 0.4208466708660126, -0.41083794832229614, 0.49475520849227905, 0.871242105960846, 4.090087413787842, 0.7874628901481628, -1.7430280447006226, 1.5431805849075317, -1.2608393430709839, 3.4413230419158936, 0.41554734110832214, 1.2120836973190308, 1.2981263399124146, 1.5763009786605835, -0.15064175426959991, 0.6461379528045654, -0.8666170239448547, -0.2712491452693939, 0.9600713849067688, -0.08305446058511734, -3.266960859298706, 0.5819281339645386, 0.8408787250518799, -0.5139538645744324, 1.6241943836212158, -0.999735951423645, -0.32190603017807007, 0.2403974086046219, -0.4737147390842438, -0.43969660997390747, 0.06859488040208817, -0.04508325830101967, -0.19556976854801178, -0.09558877348899841, -0.016493437811732292, -0.010768209584057331, -0.007924986071884632, 0.2741992473602295, -0.0975140705704689, 0.11779753118753433, 0.2389599084854126, -0.05824948474764824, 0.2069108635187149, -0.35591110587120056, -0.08209244906902313, -0.28624826669692993, -0.7792312502861023], [-2.5559704303741455, 1.4532124996185303, 1.3329976797103882, -0.1798679381608963, 0.3147805333137512, -1.3691620826721191, -0.3690977394580841, 0.47061851620674133, 0.16042669117450714, 0.05600057914853096, -0.9864994883537292, -0.9481122493743896, -0.6595418453216553, -0.7192367315292358, -0.08176521956920624, 1.0177571773529053, 0.33828437328338623, 0.5102463364601135, -0.23018521070480347, 0.8019532561302185, -0.014947754330933094, 1.0765101909637451, 1.116520643234253, -0.17669521272182465, 0.40560728311538696, -0.09600105881690979, 1.0396379232406616, 0.5469424724578857, -0.4170941710472107, 0.16356462240219116, 0.8109698295593262, -0.09989487379789352, -0.15809862315654755, 0.33074265718460083, 0.23210284113883972, -0.13595040142536163, 0.31525033712387085, -0.3080287277698517, -0.1418594866991043, 0.10132807493209839, 0.12338951975107193, -0.03193238005042076, 0.32239603996276855, 0.17440038919448853, -0.3674306273460388, 0.11189562827348709, 0.03596799075603485, 0.10982368141412735], [-1.1147499084472656, -0.5324321389198303, 1.2279431819915771, -0.4798577129840851, -0.9338898062705994, -3.8716561794281006, -0.30076268315315247, 1.2988861799240112, -1.0493789911270142, 3.1725335121154785, -1.4740742444992065, 0.02492089383304119, -0.851955771446228, -0.7964316606521606, 0.36525243520736694, -0.9157576560974121, 0.5477646589279175, 0.3247089684009552, 0.08169393241405487, -0.04911250248551369, 0.45888763666152954, 1.3807146549224854, 0.63460373878479, -0.20754428207874298, 0.464619904756546, -1.0730470418930054, 0.4183488190174103, 0.3136497437953949, -0.676149308681488, 0.21502918004989624, 0.8837909698486328, 0.2020869106054306, 0.18637970089912415, -0.3123261332511902, 0.116520456969738, 0.10946405678987503, 0.29371580481529236, 0.2949874699115753, 0.5640210509300232, -0.06529354304075241, -0.11462996900081635, -0.15316013991832733, -0.3279990553855896, 0.13572046160697937, -0.19682787358760834, 0.2902670204639435, -0.07108265906572342, -0.21486587822437286], [-3.708449125289917, 0.771115779876709, 0.7709276676177979, 0.18637952208518982, 1.3523149490356445, -2.4815070629119873, 0.21872609853744507, -1.3940904140472412, -0.4087252616882324, -0.5796560645103455, 0.03364848718047142, -0.22229793667793274, -0.8494954705238342, -0.14064085483551025, -0.3733583092689514, 1.4127885103225708, -0.28363272547721863, 0.25041699409484863, -0.5338860750198364, 0.0016272785142064095, -0.030254265293478966, -0.5102187991142273, 0.71030193567276, 0.21055343747138977, 0.16731083393096924, 0.17721669375896454, -0.13000428676605225, 0.06209773197770119, -0.11678406596183777, 0.31066665053367615, 0.13849332928657532, 0.11035357415676117, -0.07787200808525085, 0.25053873658180237, -0.2108972817659378, 0.40403982996940613, 0.15486276149749756, 0.17162352800369263, -0.5369397401809692, 0.1763543337583542, -0.1659366935491562, 0.7450957894325256, 0.14396679401397705, -0.20233537256717682, -0.45763295888900757, -0.1156361773610115, 0.5379801988601685, 0.01589233987033367], [1.7104073762893677, 0.6231303215026855, -2.0086169242858887, -0.28957220911979675, 0.2691265642642975, 2.1687867641448975, 0.5729127526283264, -1.1181056499481201, -0.559485912322998, -0.4593944847583771, 2.134216547012329, -0.1171242818236351, 0.9746441841125488, 0.49893465638160706, -1.411285161972046, -0.4832342863082886, -0.5793204307556152, -0.5164220929145813, 0.4166075885295868, 0.756290853023529, -0.16015873849391937, -0.39721444249153137, -0.5462926030158997, -0.07521835714578629, -0.04200567677617073, 0.5134897232055664, -0.04504365101456642, -0.29210472106933594, -0.050099216401576996, -0.5958454608917236, -0.09593278914690018, 0.12871770560741425, 0.21871858835220337, -0.36905649304389954, -0.3313162922859192, 0.017350388690829277, 0.24411505460739136, 0.03890318423509598, -0.11194546520709991, 0.24155817925930023, 0.05298292264342308, -0.04292226955294609, -0.16917163133621216, 0.026242302730679512, 0.08206325769424438, 0.1978081315755844, -0.16060911118984222, 0.12346359342336655], [-0.7330257296562195, -0.7702066898345947, 1.47170090675354, -0.10475996881723404, -1.0248007774353027, -2.4951283931732178, 0.3872489333152771, 1.047240972518921, -0.22268593311309814, 2.3569891452789307, -1.3683003187179565, -0.018534261733293533, -0.21570546925067902, -0.049405988305807114, 0.9424957036972046, -0.3337692618370056, 0.4512973725795746, 0.1359768658876419, 0.25876352190971375, -0.6157313585281372, -0.16404980421066284, 0.5105869174003601, 0.38929784297943115, 0.17588388919830322, 0.4345201551914215, -1.3295671939849854, 0.13209006190299988, 0.01795881800353527, -0.13743416965007782, -0.5696452856063843, -0.031979359686374664, -0.10807222872972488, 0.3414056897163391, -0.09790436923503876, 0.015619955025613308, -0.22146828472614288, -0.09058300405740738, -0.12403377145528793, 0.08667827397584915, -0.1826838105916977, -0.0334736630320549, 0.2705850899219513, 0.11356556415557861, -0.019955914467573166, -0.07386505603790283, -0.10537991672754288, -0.11082328110933304, -0.3254457116127014], [-1.5502874851226807, -0.8065490126609802, 1.8421871662139893, -0.37964385747909546, -0.7488981485366821, -2.212430000305176, -0.4832102358341217, 0.9083853960037231, -0.3700597584247589, 1.5366449356079102, -3.4158987998962402, 0.2613697052001953, -0.5404176115989685, -0.026990938931703568, 0.9764212965965271, -0.09984703361988068, 0.3541516959667206, -0.022079620510339737, -0.00693971524015069, -0.6644436120986938, -0.010062619112432003, 0.3919808268547058, 0.48690834641456604, 0.10238318890333176, -0.0156426839530468, -0.4310964047908783, 0.35736149549484253, 0.0194989126175642, -0.4315488636493683, 0.18222802877426147, 0.5154663324356079, -0.29214420914649963, 0.16977398097515106, -0.03195638209581375, 0.18738806247711182, -0.26346635818481445, 0.2203732281923294, -0.09459573030471802, -0.061622586101293564, 0.14728683233261108, -0.1348588615655899, 0.2911747395992279, -0.06164976954460144, 0.08661561459302902, 0.06371960043907166, 0.1057019829750061, -0.39482197165489197, -0.27926549315452576], [-0.04229793697595596, -0.8482459187507629, 1.8685022592544556, -0.40590399503707886, -0.4806513488292694, -4.4299845695495605, -0.26272621750831604, 1.3762768507003784, -0.4509701430797577, 1.1329858303070068, -0.3621237277984619, 0.7808536887168884, -0.9799399971961975, -0.008230476640164852, 0.769267201423645, -0.6149443984031677, 0.10631987452507019, 0.23443572223186493, 0.1696530282497406, 0.1813867688179016, -0.05898481607437134, 0.647511899471283, 0.46619948744773865, 0.22495417296886444, 0.24661268293857574, -1.4563980102539062, 0.6445004343986511, 0.3897307515144348, 0.10856388509273529, 0.03830063343048096, 0.06458861380815506, 0.14402303099632263, -0.1866898387670517, -0.18936152756214142, 0.027052011340856552, 0.03492021933197975, -0.28663021326065063, 0.15714310109615326, 0.10672028362751007, 0.18593822419643402, 0.17904579639434814, -0.2641195058822632, -0.3008594214916229, 0.1303045153617859, 0.16778025031089783, -0.04554944112896919, -0.13579609990119934, -0.23569069802761078]], [[-2.162912368774414, 1.861634373664856, 0.23107650876045227, 0.9150060415267944, -1.3186310529708862, 1.4820749759674072, 0.1714211404323578, 0.21608270704746246, -1.8429367542266846, 0.5248518586158752, -0.5477555990219116, 0.04421640560030937, 1.1893365383148193, -0.03667460381984711, 0.5149360299110413, 0.6786332726478577, 0.23059940338134766, -0.015505892224609852, 0.6583176851272583, 0.02297281287610531, -1.3669277429580688, -0.2840315103530884, -0.02930479124188423, 0.7146207094192505, -0.0667286142706871, -0.22387394309043884, -0.16179251670837402, 0.4955964982509613, -0.3460005223751068, 0.07492384314537048, 0.07761700451374054, 0.2894660532474518, 0.15447880327701569, 0.2854923903942108, -0.7406564354896545, -0.2497347593307495, -0.13896861672401428, 0.37989261746406555, -0.14516088366508484, 0.32170626521110535, 0.09022657573223114, -0.02067859284579754, -0.24851034581661224, -0.2074044942855835, 0.12464676052331924, -0.01064341515302658, 0.07746744155883789, -0.4660099446773529], [-0.32938656210899353, -1.8706247806549072, -2.8306257724761963, 1.3642464876174927, 1.0070196390151978, 0.2105613797903061, 3.4929285049438477, 1.0690979957580566, 0.8308382034301758, 0.6713099479675293, 1.1391433477401733, 1.3580127954483032, 0.6864935755729675, 0.7393918633460999, -3.181842565536499, 0.11144652217626572, 0.8731280565261841, 0.1833595633506775, -0.03538088500499725, -0.5809512734413147, 0.3924659490585327, 0.670139491558075, -0.6856324076652527, 0.038631096482276917, 0.35783252120018005, -0.2029121369123459, 0.15359771251678467, -0.35534605383872986, 0.3514941930770874, 0.3512455224990845, -0.16476589441299438, 0.09348729997873306, -0.4991941750049591, 0.42606836557388306, -0.06882868707180023, 0.17323598265647888, -0.26057204604148865, -0.3246444761753082, -0.5133464336395264, 0.4336605668067932, 0.421598345041275, 0.22721970081329346, -0.08045823127031326, 0.5678893327713013, -0.11880408972501755, -0.04655751213431358, 0.13493794202804565, -0.21296581625938416], [-3.434378147125244, -0.8867199420928955, -0.44653645157814026, 0.29816439747810364, 2.589266061782837, 1.653174638748169, -0.6279654502868652, 0.6447937488555908, 0.9980908632278442, 0.3852788209915161, 0.2352553755044937, 1.0774688720703125, 0.4661282002925873, -0.6226781606674194, -1.811464786529541, -0.0524059422314167, 0.5368248224258423, 0.094423308968544, -0.7154592275619507, 0.001019910559989512, 0.6153585910797119, 0.6302309632301331, 0.11045216768980026, 0.21296995878219604, 0.2284325659275055, 0.08769214898347855, 0.0361965112388134, -0.3051493763923645, -0.5915395617485046, 0.2962913513183594, 0.1516592651605606, -1.0258605480194092, 0.005955099128186703, 0.25327417254447937, 0.06238149479031563, 0.41198426485061646, 0.3453284800052643, -0.32397475838661194, 0.1531057506799698, 0.2328658550977707, -0.03282628953456879, 0.41695424914360046, 0.025429286062717438, 0.6068978309631348, 0.19343848526477814, -0.27667662501335144, -0.16180752217769623, 0.45383375883102417], [2.6331796646118164, -0.14178402721881866, 0.4777466356754303, -0.8131304979324341, 0.050087615847587585, -0.05230771377682686, -0.3081919848918915, -0.6378653049468994, -1.1160097122192383, 0.5321460962295532, -0.43445613980293274, -1.0983388423919678, -0.4817436635494232, -0.15888629853725433, 1.3768537044525146, -0.6164443492889404, -0.007715888787060976, -0.14046640694141388, 0.2761596143245697, -0.2698921263217926, -1.3621447086334229, -1.0728679895401, 0.7249693274497986, 0.7681027054786682, -0.9071023464202881, -0.2204548567533493, 0.1652006208896637, -0.1721239984035492, 0.022032752633094788, -0.8144635558128357, -0.005083201453089714, -0.4210958182811737, 0.5012596845626831, -0.45473384857177734, -0.17667114734649658, 0.42049476504325867, -0.09731367230415344, 0.1429077535867691, 0.18840213119983673, 0.09941001236438751, -0.07764975726604462, -0.037758149206638336, 0.04101249575614929, 0.012288988567888737, -0.1544966697692871, 0.41147372126579285, -0.7043662071228027, 0.13181819021701813], [0.9635360836982727, -0.15392203629016876, -0.8338403105735779, -0.7476884126663208, 0.11664196103811264, 0.2832561135292053, 0.003312913468107581, 1.0933053493499756, 1.643808126449585, -0.2320849746465683, 1.3949832916259766, 0.9368553161621094, 0.22689303755760193, 0.4569387137889862, -1.8718392848968506, 0.1741228848695755, 0.36467158794403076, -0.16054940223693848, -0.7582288384437561, -0.05516006797552109, 0.22214117646217346, 0.013825853355228901, 0.43695181608200073, -0.06373850256204605, 0.029731161892414093, -0.13446465134620667, -0.06879576295614243, -0.018403179943561554, -0.21922548115253448, -0.08235753327608109, -0.016666367650032043, -0.006633041426539421, -0.36167439818382263, 0.06799615174531937, 0.48146364092826843, 0.2740018665790558, 0.28413814306259155, 0.20168264210224152, 0.7815622091293335, 0.09748166799545288, 0.18802660703659058, 0.4177996516227722, 0.06094570830464363, 0.24993322789669037, 0.490312397480011, -0.3035101592540741, 0.3225119709968567, -0.09127265959978104], [0.8573822379112244, -1.6026815176010132, -0.9071301817893982, 0.1239507794380188, -0.4318946599960327, 0.9639488458633423, -0.14199687540531158, -1.188929557800293, -0.9933924078941345, -0.4674851596355438, -0.5423998236656189, 0.06365099549293518, -0.3123461902141571, 0.02141055092215538, -0.18038269877433777, 0.11843112111091614, 0.16613833606243134, 0.012628170661628246, 2.449059009552002, -0.0137472003698349, -0.16035492718219757, 0.27622807025909424, -0.4197289049625397, -0.5940129160881042, 0.022596340626478195, 0.12010226398706436, 0.3375171422958374, 0.19547921419143677, -0.5111778378486633, -0.23390623927116394, 0.15226998925209045, 1.4767868518829346, 0.47694143652915955, 0.262796014547348, -0.4889514148235321, -0.4186837077140808, -0.23609444499015808, 1.6825432777404785, 0.5518646240234375, -0.6050549149513245, -0.4117746949195862, 0.2063910812139511, -0.1622307151556015, -1.0163381099700928, 0.014616087079048157, 0.2149609625339508, 0.11012453585863113, -0.22393295168876648], [-2.719766139984131, 2.3984787464141846, -2.4068288803100586, 1.0142617225646973, 0.443906307220459, -0.8891457319259644, 1.7429635524749756, 0.24274294078350067, -0.48470738530158997, 0.2392958700656891, 0.29585275053977966, -0.2674323320388794, 1.4606118202209473, -0.49528932571411133, -2.197402238845825, 0.5036879181861877, 0.7384325861930847, 0.2972404658794403, -0.05444879084825516, 0.5532942414283752, 0.5014925599098206, 0.01641424559056759, -0.593006432056427, 0.09524095058441162, 0.034816842526197433, -0.005503425840288401, -0.35650575160980225, -0.15264777839183807, -0.255930095911026, 0.4025789499282837, 0.31105488538742065, -0.10094700008630753, -1.0326855182647705, 0.24756774306297302, -0.048624902963638306, 0.07907845079898834, 0.05457188934087753, 0.13248029351234436, 0.65874183177948, -0.2751399278640747, 0.02984967641532421, 0.0867455005645752, 0.03662523999810219, -0.04114416241645813, -0.05384127050638199, 0.0431123711168766, 0.43721023201942444, 0.09609488397836685], [-2.7096035480499268, 3.0423245429992676, -1.254907250404358, 0.7738304138183594, -1.0967684984207153, 0.25701406598091125, 0.9458878040313721, 0.12052889913320541, 0.4495792090892792, 0.6109058260917664, 1.3155335187911987, 1.339294672012329, 1.5638337135314941, 0.6061396598815918, -1.9343549013137817, 0.9190069437026978, 0.0523197241127491, -0.4249042570590973, -0.01767745614051819, -0.12034442275762558, 0.13657057285308838, 0.2796224057674408, -1.6452370882034302, 0.3301316499710083, 0.009375049732625484, -0.26220688223838806, -0.958658754825592, -0.6317015290260315, 0.06669443845748901, 0.6000398397445679, 0.30065372586250305, 0.18194565176963806, -0.05006598308682442, -0.06194889917969704, -0.0021317927166819572, -0.5770464539527893, -0.038759034126996994, 0.1418575644493103, -0.6187727451324463, 0.22806483507156372, 0.17244182527065277, 0.19447138905525208, -0.173691526055336, 0.08472294360399246, 0.05451852083206177, 0.08227670937776566, 0.0754266232252121, -0.01253125537186861], [2.5179080963134766, -2.6324610710144043, 3.081545114517212, -0.29491958022117615, 0.4881354868412018, 0.5405508875846863, 0.6264188885688782, 1.6481589078903198, 2.772655963897705, -0.38893556594848633, 0.8136609792709351, 0.3797130286693573, -1.1014002561569214, -0.20027677714824677, 0.336933970451355, 0.8472402095794678, 1.0406463146209717, -0.055696118623018265, -0.7192695140838623, -0.3390021324157715, 0.20384278893470764, 1.015984058380127, -0.6321181654930115, 1.1348962783813477, 0.005482491571456194, -0.016423635184764862, -0.275038480758667, -0.19184057414531708, 0.2620425224304199, 0.15496672689914703, -0.3470597267150879, -0.21981260180473328, 0.05619164556264877, 0.2793545424938202, -0.29902181029319763, 0.29956579208374023, 0.07959944009780884, 0.283333420753479, 0.5091606378555298, 0.3375150263309479, 0.3288477957248688, -0.4728090465068817, -0.021161239594221115, 0.18226653337478638, 0.05620109662413597, -0.23080144822597504, 0.029253512620925903, -0.13268820941448212], [2.6470162868499756, 0.3282429873943329, -0.9763746857643127, 0.33400455117225647, -0.6138513088226318, -1.0829747915267944, -0.4912109076976776, 1.3013811111450195, -0.4730589687824249, -0.8037651777267456, -0.017682848498225212, -0.010434039868414402, 1.12831711769104, -0.1720588654279709, -0.5277795791625977, 0.12094870954751968, 0.2885718047618866, -0.2007477879524231, -0.3634728491306305, -0.3371005058288574, 0.04275527969002724, 0.5592186450958252, -0.07933147996664047, -0.20790943503379822, 0.5313876271247864, -0.6011492609977722, -0.13899344205856323, -0.05235980823636055, -0.6977237462997437, 0.11000321805477142, 0.24593663215637207, 0.9317662715911865, -0.06590401381254196, 0.019699901342391968, -0.04254746437072754, -0.06689027696847916, 0.370776891708374, 0.15342427790164948, 0.46018701791763306, 0.1808134764432907, 0.31196239590644836, 0.05709395557641983, 0.08223330229520798, -0.04884287342429161, -0.15967115759849548, -0.13658784329891205, 0.0691823810338974, 0.04518096148967743], [-0.32224971055984497, -0.7206945419311523, 0.6439905762672424, -0.5157709717750549, 0.16433025896549225, 2.347358465194702, 0.6766487956047058, -0.5227808356285095, -0.15624263882637024, 0.10656632483005524, 1.7888915538787842, -0.06144474819302559, 0.40906044840812683, 0.11810019612312317, 0.40929168462753296, 0.01776724122464657, -0.5069157481193542, -0.39088961482048035, 0.5879305601119995, -0.12305339425802231, 0.08730141073465347, -0.30313923954963684, -0.5000163316726685, -1.047749400138855, -0.30396193265914917, 0.7858713865280151, -0.20160819590091705, 0.8305491209030151, 0.16957154870033264, -0.05489369109272957, -0.35663291811943054, -0.3867461383342743, -0.11005646735429764, -0.5840786695480347, 0.12871231138706207, 0.5035351514816284, 0.1411820501089096, -0.4138967990875244, 0.3862655758857727, -0.1199001893401146, 0.3351914882659912, 0.05991912633180618, -0.044245991855859756, 0.059213828295469284, 0.21855907142162323, -0.313681423664093, -0.2166806161403656, 0.23618626594543457], [-1.8271058797836304, -0.8330672979354858, -0.8360759615898132, 1.2533835172653198, -0.6803522706031799, 0.09962070733308792, -0.9909465909004211, 0.6651796698570251, -1.6540439128875732, 0.6103575229644775, 0.5866309404373169, -0.5001731514930725, 1.0074738264083862, 0.3318949341773987, 0.881668746471405, -0.9127436876296997, 0.02299596555531025, -0.2763843536376953, 0.7001738548278809, -0.4671463966369629, 0.39396318793296814, 0.5859383940696716, -0.6951000094413757, 0.4447309374809265, 0.3565181493759155, -0.14695841073989868, -0.6299776434898376, -0.05169408395886421, 0.8990362882614136, 0.24746711552143097, -0.14691661298274994, 0.04463023319840431, 0.504647433757782, 0.12396363168954849, -0.19930864870548248, 0.13742057979106903, 0.03908926993608475, 0.19689896702766418, 0.41166651248931885, 0.32999387383461, -0.30416634678840637, 0.12470703572034836, -0.07104599475860596, 0.19776761531829834, -0.34246310591697693, 0.11388381570577621, -0.24468353390693665, -0.2012416571378708], [0.7010194659233093, 1.0730135440826416, -1.4196748733520508, -0.5612578988075256, 1.091782569885254, 0.6375584006309509, -0.9346403479576111, -0.6964520215988159, 0.2437116950750351, -0.9324413537979126, 0.5569338202476501, -0.10318470001220703, -0.9287223219871521, 0.035330869257450104, 2.1476705074310303, 0.6082949638366699, 0.004990945570170879, 0.4537815749645233, -0.84819495677948, 0.2168245166540146, -0.5855799317359924, -0.394205242395401, 0.5427064895629883, 0.24722851812839508, 0.6703851222991943, -0.5234951376914978, -0.4502289295196533, -0.3673000931739807, -0.15217667818069458, 0.24868427217006683, 0.20545513927936554, -0.023860342800617218, 0.22380205988883972, 0.5378216505050659, 0.24080342054367065, -0.3998514711856842, 0.06194842606782913, -0.20747072994709015, 0.2743876874446869, 0.06329111009836197, 0.009797567501664162, 0.5966333746910095, 0.19581443071365356, -0.4561539888381958, 0.6872135996818542, -0.35365480184555054, 0.6052234768867493, 0.4385545253753662], [0.7773939371109009, -2.05291748046875, -1.140548825263977, -0.1675356924533844, -0.4200030565261841, -0.8243924975395203, -0.038439054042100906, -0.21458561718463898, -0.3825400769710541, -0.37474513053894043, -0.36879846453666687, -0.15545329451560974, -0.03304331749677658, -0.41435980796813965, -0.16419269144535065, 0.8674132227897644, -0.3216594457626343, -0.13266974687576294, 0.3786926567554474, -0.21469171345233917, -0.10481315106153488, 0.23732195794582367, -0.35930001735687256, -0.2428872287273407, 0.0868159607052803, 0.01570267602801323, 0.13269485533237457, 0.428975909948349, 0.5343319177627563, 0.03831654042005539, 0.015313527546823025, 1.430571436882019, 0.016494525596499443, -0.1957777738571167, 0.06102641299366951, -0.07260222733020782, -0.281593918800354, 0.8022817969322205, 0.7936367988586426, 0.18198350071907043, -0.4194695055484772, -0.06174994632601738, -0.5198414921760559, -0.33814048767089844, -0.355898380279541, 0.42507773637771606, 0.2361336350440979, 0.2863061726093292], [5.340958595275879, 0.27251800894737244, -1.5570428371429443, -0.6083068251609802, 0.7043588161468506, -2.9496121406555176, 0.5866890549659729, -0.8636720180511475, 1.008328914642334, 0.5727580785751343, 0.49214428663253784, 2.5941879749298096, 0.39791345596313477, 0.09101603925228119, 2.9040963649749756, 0.9444761276245117, 0.24438734352588654, 0.2901981472969055, -0.059024736285209656, -0.14665794372558594, 1.3174046277999878, 1.5121161937713623, 0.21723993122577667, -0.21745994687080383, 0.2072834074497223, -0.39189207553863525, 0.455485463142395, 0.08528802543878555, 2.039053201675415, 0.857197105884552, -0.3647891581058502, 0.8868395090103149, -0.6886733174324036, -0.03609416261315346, 0.36774942278862, -0.2573390603065491, 0.5141979455947876, -1.9299840927124023, -0.4630228877067566, 0.7095508575439453, -0.0620366595685482, 0.17652755975723267, 0.0733070820569992, 0.2137371301651001, 0.07054613530635834, 0.14294882118701935, 0.809540331363678, -0.13007813692092896], [8.155978202819824, -2.534435272216797, 5.94003438949585, -1.1368615627288818, -2.0545547008514404, 0.3773351311683655, -1.9100399017333984, 0.5049688816070557, -0.15692658722400665, -1.6116312742233276, -3.6062090396881104, -0.8622829914093018, -3.3512847423553467, -1.0243804454803467, 1.4286633729934692, -4.2382965087890625, -0.36481285095214844, -0.12154173105955124, -0.0016845064237713814, 0.47315460443496704, 0.016682304441928864, 0.350897878408432, -0.06283865123987198, -0.18606950342655182, 0.2622074782848358, 0.5197546482086182, -0.5497017502784729, 0.01104550901800394, -0.3075564503669739, 0.2726766765117645, 0.42226386070251465, 0.1716897040605545, -0.2796810567378998, -0.19626714289188385, 0.2476363182067871, -0.13635249435901642, -0.12649455666542053, 0.02243199199438095, 0.1965349316596985, -0.2556794285774231, 0.07405254244804382, 0.04701791703701019, -0.11785423010587692, -0.12061075121164322, -0.1327495276927948, -0.03428375720977783, -0.18421293795108795, 0.14768527448177338]], [[-0.29301565885543823, -0.3304539918899536, -0.022564422339200974, 0.8424179553985596, -0.6251263618469238, 0.8123546838760376, 0.5892292261123657, -0.8949872851371765, 0.8012309670448303, -0.9742552638053894, -0.318270206451416, 0.6405822038650513, 0.3491347134113312, 0.9281674027442932, 0.8782142400741577, 0.26144132018089294, 0.26007965207099915, 0.0039898608811199665, -0.07659763097763062, 1.0180745124816895, 0.11692449450492859, -1.45469069480896, 0.26774606108665466, -0.12218011915683746, -0.0050659882836043835, -0.0043648709543049335, -0.3208025097846985, 0.4349658191204071, 0.07307569682598114, 0.45246264338493347, 0.07289538532495499, 0.11855536699295044, 0.14017759263515472, 0.011739775538444519, 0.04289064556360245, -0.03986046463251114, 0.001330023049376905, 0.018976867198944092, 0.029002804309129715, 0.051646001636981964, -0.015478807501494884, 0.0010941337095573545, -0.0008595364633947611, 0.0646403580904007, 0.0049512689001858234, -0.0014707916416227818, 0.0068717715330421925, -0.1238575428724289], [-0.29301565885543823, -0.3304539918899536, -0.022564422339200974, 0.8424179553985596, -0.6251263618469238, 0.8123546838760376, 0.5892292261123657, -0.8949872851371765, 0.8012309670448303, -0.9742552638053894, -0.318270206451416, 0.6405822038650513, 0.3491347134113312, 0.9281674027442932, 0.8782142400741577, 0.26144132018089294, 0.26007965207099915, 0.0039898608811199665, -0.07659763097763062, 1.0180745124816895, 0.11692449450492859, -1.45469069480896, 0.26774606108665466, -0.12218011915683746, -0.0050659882836043835, -0.0043648709543049335, -0.3208025097846985, 0.4349658191204071, 0.07307569682598114, 0.45246264338493347, 0.07289538532495499, 0.11855536699295044, 0.017847970128059387, 0.02748769335448742, 0.03263721615076065, -0.05326017737388611, -0.0016026354860514402, 0.017339540645480156, 0.1808193027973175, 0.04896046221256256, -0.014862910844385624, 0.054848019033670425, 0.003204928943887353, 0.05647147446870804, 0.009002435021102428, -0.005268480163067579, -0.0013985912082716823, -0.11391732096672058]]]}, {"type": "dense", "shape": [null, null, 1], "weights": [[[0.12131847441196442], [0.5958552360534668], [-0.2221847027540207], [-0.011691144667565823], [0.31864550709724426], [-0.013850913383066654], [0.04969087243080139], [-0.561263382434845], [0.46789947152137756], [0.19354042410850525], [0.21145708858966827], [0.14542390406131744], [-0.40453705191612244], [-0.4279213547706604], [-0.444825679063797], [0.2410861700773239]], [-0.001213040784932673]]}]}