{"in_shape": [null, null, 3], "layers": [{"type": "time-distributed-dense", "shape": [null, null, 8], "weights": [[[-0.06571359932422638, -0.5555859804153442, 0.38915905356407166, -1.62262761592865, 0.47140899300575256, 0.8393162488937378, 0.06253542751073837, 0.895660936832428], [-0.24563704431056976, 0.13829177618026733, 0.353588342666626, 0.2442418336868286, -0.6414284706115723, 0.6420176029205322, 0.6239942908287048, 0.6337505578994751], [-0.39977291226387024, -0.12559734284877777, 0.1861206293106079, 0.4936164915561676, 0.07267313450574875, -0.5039386749267578, 0.6757813692092896, -0.4250842332839966]], [0.016973091289401054, -0.004344911780208349, 0.0006685741827823222, -0.0456303171813488, 0.00275495951063931, 0.0011576695833355188, 0.005180623847991228, 0.009328735992312431]]}, {"type": "gru", "shape": [null, null, 16], "weights": [[[1.4538460969924927, 0.5481690764427185, 0.26831480860710144, 0.9727681875228882, 0.8271844387054443, 1.0429564714431763, -0.07282193750143051, -0.9470950365066528, 0.3823569416999817, 0.31479474902153015, 0.986992359161377, -0.05018343776464462, 0.6456999778747559, 0.8032345771789551, 0.5426214337348938, -0.31043925881385803, -0.012843312695622444, 0.05580629035830498, -0.30953577160835266, -0.23375315964221954, -0.026131361722946167, -0.37831801176071167, 0.3712162971496582, 0.1264633983373642, -0.14251339435577393, 0.5244609117507935, -0.11744927614927292, -0.13325920701026917, 0.07911111414432526, -0.010200313292443752, -0.25208789110183716, -0.03580078110098839, -0.2634558379650116, -0.08572869002819061, 0.11462480574846268, 0.06306348741054535, 0.10797714442014694, 0.11275369673967361, 0.23596958816051483, -0.029848996549844742, 0.27672433853149414, -0.2601419687271118, -0.11193367838859558, 0.28882378339767456, -0.2267790585756302, -0.06853920966386795, -0.2534368336200714, -0.2831918001174927], [-1.4086254835128784, -0.3286740183830261, 0.7940672636032104, -0.27427732944488525, 0.27512964606285095, -0.6578643918037415, -0.5772542953491211, 0.8134920001029968, 0.546299934387207, -0.49183836579322815, 0.0002689367684070021, -0.2572709918022156, -0.3446888029575348, -0.48809927701950073, -0.2305016666650772, 1.0793933868408203, 0.4482707679271698, 0.16353990137577057, -0.15224838256835938, 0.724007248878479, -0.15072393417358398, 0.2848808765411377, 0.3644474148750305, -0.10779976099729538, 0.3038175702095032, -0.0245207492262125, 0.3209305703639984, 0.4782532751560211, -0.37774980068206787, -0.05135967582464218, 0.5309830904006958, -0.0393771156668663, -0.20540454983711243, 0.22885525226593018, 0.18352462351322174, -0.16102927923202515, 0.337780237197876, -0.3974551260471344, 0.10626181960105896, 0.16929291188716888, 0.13879309594631195, -0.1285993605852127, 0.3445623517036438, 0.1338595747947693, -0.3103363513946533, 0.09784553945064545, 0.08561020344495773, 0.19408105313777924], [-0.5483817458152771, -0.1831563413143158, -0.5839059948921204, -0.49478858709335327, -0.9240614771842957, -1.215694785118103, 0.41936391592025757, 0.9614119529724121, -1.0643882751464844, 0.935815155506134, -1.372449278831482, -0.1664876937866211, -0.4055827260017395, -0.8117009997367859, -0.08577252924442291, -0.5978404879570007, 0.5157791376113892, -0.006114639807492495, 0.10749353468418121, 0.43563219904899597, 0.35383397340774536, 0.121443010866642, 0.21499811112880707, -0.30710840225219727, 0.2930392324924469, -0.26000580191612244, 0.21969574689865112, 0.29045501351356506, -0.4861970841884613, 0.07254542410373688, 0.44907301664352417, 0.18500292301177979, 0.15182481706142426, -0.33988723158836365, 0.08963718265295029, 0.13426810503005981, 0.2809092700481415, 0.2639150023460388, 0.27436354756355286, -0.0701359361410141, -0.15017038583755493, -0.11901120096445084, -0.3380892872810364, 0.13863059878349304, -0.23664233088493347, 0.2919233441352844, -0.16839168965816498, -0.26088961958885193], [-1.278116226196289, -0.5480712056159973, 1.0246930122375488, 0.17079612612724304, 0.5385339856147766, -0.3601730763912201, -0.33131054043769836, 0.3883429765701294, 1.063437581062317, -1.0845000743865967, 0.33280882239341736, 0.06789564341306686, -0.3749017119407654, -0.7424279451370239, 0.0677051991224289, 0.8282411694526672, 0.37771302461624146, 0.3558030128479004, 0.11703959852457047, -0.008827535435557365, -0.19351933896541595, -0.015397066250443459, 0.5401555299758911, -0.14920338988304138, 0.025739941745996475, 0.22446352243423462, 0.03536677733063698, -0.09738750010728836, -0.39482298493385315, 0.3574097454547882, 0.04618960991501808, 0.23492729663848877, -0.13776442408561707, -0.08361697196960449, -0.22027775645256042, 0.3662073314189911, 0.11223175376653671, 0.16124573349952698, -0.028839267790317535, 0.20642316341400146, -0.12722215056419373, 0.14404632151126862, 0.2125394642353058, 0.09512215107679367, -0.3968283236026764, -0.1562235951423645, 0.40834733843803406, 0.10124021768569946], [0.699029266834259, 0.6653594374656677, -0.544522762298584, 0.08917906135320663, 0.2968997061252594, 0.6671744585037231, 0.31235015392303467, -1.2286605834960938, -0.65415358543396, 0.2808956205844879, 0.2779349982738495, -0.43068885803222656, 0.45765987038612366, 0.47203582525253296, 0.05846836790442467, -0.6488366723060608, -0.6937639713287354, -0.36941099166870117, 0.2667108178138733, -0.21389317512512207, -0.0526706799864769, -0.14577949047088623, -0.1779003143310547, -0.11636164784431458, -0.0026270218659192324, 0.3837379813194275, 0.15409912168979645, -0.29103562235832214, -0.13127756118774414, -0.31644511222839355, -0.2515866160392761, 0.14642572402954102, 0.08619236201047897, -0.30573296546936035, -0.30751076340675354, 0.02427593618631363, 0.24176304042339325, 0.09526056796312332, -0.20757754147052765, 0.1834826022386551, 0.05676728114485741, -0.04405584931373596, -0.16206277906894684, 0.03469996526837349, 0.07196886837482452, 0.20201843976974487, -0.2537146508693695, 0.147303506731987], [-0.5060272216796875, -0.5083247423171997, -0.19049562513828278, -0.07650592178106308, -0.8926980495452881, -0.8610758781433105, 0.6816942691802979, 1.0100685358047485, -0.284716933965683, 0.36756718158721924, -0.9768846035003662, -0.0005664806813001633, -0.2283899337053299, -0.17520031332969666, 0.18376846611499786, 0.04946044087409973, 0.4721907675266266, -0.07626154273748398, 0.28732267022132874, -0.13272036612033844, -0.2116777002811432, 0.2773799002170563, 0.04647695645689964, 0.08697105199098587, 0.4407738745212555, -0.6176462173461914, 0.010577238164842129, 0.01766372099518776, -0.04497621953487396, -0.034312743693590164, 0.10748278349637985, -0.11957889050245285, 0.4065859317779541, -0.07399164885282516, 0.01311510894447565, -0.21429333090782166, -0.09215988218784332, -0.17075739800930023, 0.13379663228988647, -0.1882254034280777, -0.04962008818984032, 0.31426531076431274, 0.10604868829250336, -0.020741261541843414, -0.09949125349521637, -0.1125134751200676, -0.047598447650671005, -0.34817230701446533], [-1.0347487926483154, -0.7500549554824829, 0.2539524734020233, -0.5374770760536194, -0.5143997073173523, -0.4571492075920105, -0.1345030665397644, 0.8862394094467163, -0.35798096656799316, 0.24918696284294128, -0.9831599593162537, 0.4370509684085846, -0.34602805972099304, -0.09179852157831192, 0.01607082597911358, 0.20914684236049652, 0.3767048716545105, -0.21887163817882538, 0.046805527061223984, -0.002121293218806386, -0.0861152857542038, 0.13198888301849365, 0.10400504618883133, 0.05154789984226227, -0.015808461233973503, -0.20693525671958923, 0.20001134276390076, 0.007906114682555199, -0.33849167823791504, 0.20465770363807678, 0.5425916910171509, -0.30870744585990906, 0.25465282797813416, -0.04360533133149147, 0.17022980749607086, -0.2625724971294403, 0.2200034260749817, -0.13728007674217224, 0.03787553682923317, 0.16929684579372406, -0.14737674593925476, 0.31412366032600403, -0.06840759515762329, 0.07952431589365005, 0.05571071058511734, 0.10100860893726349, -0.2978401780128479, -0.2956330180168152], [-0.27562740445137024, -0.47617799043655396, -0.07797958701848984, -0.4060661196708679, -0.6980445384979248, -1.3411816358566284, 0.132968470454216, 1.2207279205322266, -0.5317403078079224, 0.5528126955032349, -0.8806567192077637, 0.5462787747383118, -0.6350972652435303, -0.1941576600074768, 0.27177608013153076, -0.05660245940089226, 0.21619272232055664, 0.026074690744280815, 0.16691219806671143, 0.4927794635295868, -0.07564642280340195, 0.4653167724609375, 0.19782644510269165, 0.18699653446674347, 0.21076412498950958, -0.7354881763458252, 0.5418740510940552, 0.39115530252456665, 0.21792392432689667, 0.16732028126716614, 0.26135262846946716, 0.13368211686611176, -0.19291211664676666, -0.1015431210398674, 0.036086555570364, 0.05609343945980072, -0.2974470257759094, 0.10745339840650558, 0.04711965471506119, 0.183763787150383, 0.15695221722126007, -0.2178676724433899, -0.3171622157096863, 0.13856498897075653, 0.12200549244880676, -0.04863855987787247, -0.08357034623622894, -0.2987186908721924]], [[-0.31751126050949097, 0.6547718644142151, -0.7175163626670837, 0.7310360074043274, -0.7386037707328796, -0.5701679587364197, 0.0017576041864231229, 0.051413629204034805, -0.3134014308452606, 0.8640233278274536, -0.4859614372253418, 0.33620548248291016, 0.4534827470779419, 0.10743243992328644, -0.3040611743927002, 0.9316979050636292, 0.3553173840045929, 0.049138929694890976, 0.2670457363128662, 0.16036146879196167, 0.17628858983516693, 0.023932619020342827, 0.22576671838760376, -0.072557732462883, 0.0814044252038002, -0.05350553244352341, -0.2701679766178131, 0.20926080644130707, -0.1976347714662552, 0.15334849059581757, -0.053106144070625305, 0.18446147441864014, 0.0026313364505767822, 0.122270368039608, -0.37618330121040344, -0.11512047797441483, -0.10644399374723434, 0.36594250798225403, 0.013095875270664692, 0.21809500455856323, 0.018965326249599457, -0.015400530770421028, -0.20613527297973633, -0.22541502118110657, 0.10719844698905945, 0.0012001295108348131, -0.17872849106788635, -0.2222653031349182], [-0.3399675190448761, -0.6152616143226624, -1.0939387083053589, 0.351051390171051, -0.6104928851127625, -0.36736223101615906, 0.3701939582824707, 0.8119036555290222, 0.5489559173583984, 0.7748854756355286, 0.5580375790596008, 0.5193514227867126, 0.3835209608078003, 0.38046008348464966, -0.9344392418861389, 0.8636239171028137, 0.6024598479270935, 0.11227560043334961, 0.025940407067537308, 0.2915298342704773, 0.2920542061328888, 0.41638869047164917, -0.08908326178789139, 0.09749662131071091, 0.38670822978019714, -0.10828354209661484, 0.26224827766418457, -0.2803705632686615, 0.13233986496925354, 0.2403305172920227, -0.19259211421012878, -0.025171641260385513, -0.2557193338871002, 0.3019709885120392, -0.08175638318061829, 0.1502596139907837, -0.2556934654712677, -0.22952352464199066, 0.1602974683046341, 0.26308441162109375, 0.4097437560558319, 0.2147400826215744, -0.05959228053689003, 0.5028550624847412, -0.05902397260069847, -0.06720411032438278, 0.09690000861883163, -0.13531801104545593], [-0.17024850845336914, -1.3289483785629272, -0.7270657420158386, 0.19911347329616547, -0.5703216195106506, -0.5830259323120117, 0.3198767602443695, 0.39008450508117676, 0.6112658381462097, 0.03141219913959503, -0.263246089220047, 0.5677821040153503, -0.11963479965925217, -0.786207914352417, -0.4679950177669525, 0.06703779101371765, 0.1428932398557663, 0.009529015980660915, -0.23359347879886627, -0.00759575329720974, 0.3104567527770996, 0.17820346355438232, 0.09962698072195053, -0.08101110905408859, 0.2751080393791199, -0.02392404153943062, -0.13517075777053833, -0.1520853489637375, -0.18212349712848663, 0.18797768652439117, 0.41012632846832275, 0.21195797622203827, 0.061147965490818024, 0.2732616662979126, 0.0347476564347744, 0.3652481436729431, 0.34080666303634644, -0.3025623857975006, -0.002940694335848093, 0.37023597955703735, 0.12931986153125763, -0.002034565433859825, 0.29610675573349, 0.4823874235153198, 0.22906962037086487, -0.2954271137714386, -0.10716360062360764, -0.05595562979578972], [0.6625419855117798, -0.278630793094635, 0.5629046559333801, -0.8678178191184998, 0.42900460958480835, -0.03248290345072746, 0.08630207926034927, -0.2245856523513794, -0.38611656427383423, 0.03267509490251541, -0.08108163625001907, -0.9009521007537842, -0.4388156533241272, 0.2178921401500702, 0.6498392820358276, -0.37777405977249146, -0.25784537196159363, -0.11810302734375, 0.0005801105289719999, -0.37635141611099243, -0.4768867492675781, -0.35314738750457764, -0.05897672101855278, 0.11548516154289246, -0.2025771290063858, 0.04523279890418053, 0.21627198159694672, -0.260897696018219, 0.23296190798282623, -0.3942405581474304, -0.008374800905585289, -0.1828410029411316, -0.06536600738763809, -0.1716628074645996, -0.11918263137340546, 0.3831687569618225, -0.057440385222435, 0.0681026428937912, 0.0005092306528240442, 0.17303906381130219, -0.08182446658611298, 0.03527383878827095, 0.0699489563703537, 0.0347307063639164, -0.2028321623802185, 0.3696191608905792, -0.42634832859039307, 0.1517900675535202], [-0.12240246683359146, -0.9762715697288513, -0.13118527829647064, -0.6990683078765869, 0.206789031624794, 0.2561787962913513, 0.43420594930648804, 0.24070687592029572, 1.3662821054458618, -0.34984683990478516, 0.8330570459365845, 0.4598338305950165, -0.35551148653030396, 0.2802584767341614, -0.4926334619522095, -0.3016003668308258, 0.3482102155685425, 0.07112454622983932, -0.2072353959083557, -0.07264064252376556, 0.0808921679854393, -0.09282895177602768, 0.10858401656150818, -0.1415783017873764, 0.03642808273434639, -0.15790455043315887, 0.07313217222690582, -0.12437979131937027, -0.2358127236366272, -0.08694740384817123, 0.0956895500421524, 0.2974957227706909, -0.31679776310920715, 0.152088463306427, 0.2994631230831146, 0.27562305331230164, 0.16918273270130157, -0.17140845954418182, -0.2281654328107834, 0.05091111361980438, 0.24998775124549866, 0.37351199984550476, 0.15369471907615662, 0.40482404828071594, 0.46993592381477356, -0.2873480021953583, 0.04843347147107124, 0.13226623833179474], [0.0801386684179306, 0.9418608546257019, 0.4983634948730469, 0.05028156936168671, 0.19032147526741028, 0.46475347876548767, -0.583292543888092, -0.1361992359161377, -0.5121899843215942, -0.3151838779449463, 0.04763777181506157, -0.521446704864502, 0.2729603052139282, 0.3387725353240967, 0.5798723697662354, 0.377089262008667, 0.13139402866363525, -0.14978381991386414, -0.15383128821849823, 0.028211325407028198, -0.08033844083547592, -0.1001821756362915, -0.40783679485321045, 0.044294387102127075, 0.023988785222172737, -0.0338328517973423, 0.1274137943983078, 0.19956234097480774, 0.14166615903377533, -0.2771027684211731, 0.04423094540834427, -0.4247904121875763, 0.27112266421318054, 0.1576666682958603, -0.3854529857635498, -0.232323557138443, -0.19815194606781006, 0.4039071798324585, 0.03931325301527977, -0.4498066306114197, -0.3138040602207184, 0.0732128918170929, -0.23695442080497742, -0.922453761100769, -0.041552189737558365, 0.2047257423400879, -0.10248865932226181, -0.04700570926070213], [-0.42129167914390564, 0.627921998500824, -0.7547135949134827, 0.4372386038303375, -0.4982544183731079, -0.8008514642715454, 0.08009041845798492, -0.13428747653961182, -0.6976239085197449, 0.8292337656021118, -0.39706963300704956, 0.009511662647128105, 0.1770392209291458, -0.4492926001548767, -1.207972764968872, 0.08213876932859421, 0.22803367674350739, 0.2317417711019516, 0.11027099937200546, 0.5058006048202515, 0.27517130970954895, 0.28099530935287476, -0.23388253152370453, 0.402447372674942, 0.18825623393058777, 0.04005182534456253, -0.12613901495933533, 0.1376475840806961, 0.20057760179042816, 0.2758990526199341, 0.7318800091743469, 0.09025000035762787, -0.44520866870880127, 0.2184353619813919, -0.11642463505268097, 0.011998835951089859, 0.034818314015865326, 0.03612148389220238, 0.09577633440494537, -0.09174949675798416, 0.029053250327706337, 0.020454097539186478, 0.03606480360031128, -0.05305085703730583, -0.03856002539396286, 0.008160186931490898, 0.16080519556999207, 0.03543795645236969], [-0.2550365626811981, 0.24137617647647858, -0.4539746642112732, 0.864208459854126, -0.02145734429359436, -0.06157515197992325, 0.5680209398269653, -0.2353125661611557, 0.25396549701690674, 0.7962455153465271, 0.06787244975566864, 0.3937796950340271, 0.8887014985084534, 0.20116564631462097, -0.5928507447242737, 0.6869276762008667, 0.004414819180965424, -0.17154178023338318, -0.12572960555553436, 0.45597511529922485, 0.12539838254451752, 0.14289817214012146, -0.044931791722774506, 0.2890072464942932, 0.08222657442092896, -0.2640376091003418, 0.16830532252788544, -0.6244126558303833, 0.17255248129367828, 0.6208899021148682, -0.00653297733515501, 0.06462453305721283, -0.11304846405982971, 0.01510229054838419, 0.10793016850948334, -0.5785612463951111, -0.005574185401201248, 0.011329599656164646, -0.04592308774590492, 0.1639678180217743, 0.19619594514369965, 0.14301876723766327, -0.13329017162322998, 0.11180977523326874, 0.036771371960639954, 0.05904560536146164, 0.03880053013563156, 0.017933877184987068], [-0.24684686958789825, -0.7894001007080078, 0.6241089105606079, -0.3138939142227173, 0.30547580122947693, 0.03282400593161583, -0.19907447695732117, 0.6333398222923279, 0.8364813327789307, -0.41962745785713196, -0.24644532799720764, -0.10677187144756317, -0.46806299686431885, -0.538730263710022, 0.12121221423149109, -0.7724084258079529, 0.3424472510814667, 0.1621968150138855, -0.27059316635131836, -0.2540610730648041, 0.0675799548625946, 0.07480114698410034, -0.14958436787128448, 0.03445913642644882, 0.060184016823768616, 0.26279082894325256, -0.12888900935649872, 0.1659863442182541, 0.16213256120681763, 0.1726597547531128, -0.4845094680786133, -0.07884761691093445, 0.045954011380672455, 0.15869835019111633, 0.21919280290603638, 0.3164495825767517, 0.19321589171886444, 0.09814146906137466, 0.24468907713890076, 0.3114125728607178, 0.13184505701065063, 0.0018729298608377576, -0.02227092534303665, 0.1712319701910019, 0.040150441229343414, -0.30686354637145996, -0.10488226264715195, -0.005169513635337353], [-0.4876585304737091, 0.7398838400840759, -1.4111888408660889, 0.15741436183452606, -0.2959287166595459, -0.8204717636108398, 0.41610807180404663, 0.12945638597011566, -0.37073010206222534, 1.0628561973571777, -0.020775550976395607, 0.2618470788002014, 0.16799724102020264, -0.13846039772033691, -0.7906773090362549, 0.41347813606262207, 0.5042168498039246, 0.16800087690353394, 0.08646591007709503, 0.10115844011306763, -0.11398951709270477, 0.8549104928970337, -0.16980834305286407, -0.04725182056427002, 0.49561429023742676, -0.5088592767715454, 0.07374776154756546, 0.04501187056303024, 0.03335326910018921, -0.04452219605445862, 0.8888369798660278, 0.27777326107025146, 0.025535237044095993, 0.011429112404584885, -0.1812002956867218, 0.006318571045994759, 0.3140808939933777, 0.31640690565109253, -0.062255389988422394, -0.1152685284614563, 0.17975500226020813, 0.0016307684127241373, 0.04738125205039978, -0.0026673562824726105, -0.10785655677318573, -0.0804862305521965, -0.1267038881778717, 0.01830260641872883], [0.265327125787735, -0.7829352021217346, 0.15497678518295288, -0.5691840648651123, 0.26866504549980164, 0.2919587194919586, 0.43461984395980835, -0.09492253512144089, 0.7949867248535156, -0.03751717880368233, 0.19034889340400696, 0.061289869248867035, 0.157803475856781, 0.19229035079479218, 0.11787520349025726, -0.37009066343307495, -0.14198271930217743, -0.19381065666675568, 0.0033833838533610106, -0.18455870449543, -0.08159362524747849, -0.1261080801486969, -0.041941724717617035, -0.08559537678956985, -0.30517128109931946, 0.13058052957057953, -0.09890151768922806, 0.04034002497792244, 0.11814388632774353, -0.121202751994133, -0.02853621356189251, -0.10818136483430862, -0.15431401133537292, -0.2466963678598404, 0.055099379271268845, 0.33461490273475647, 0.13596855103969574, -0.3070535659790039, 0.27190980315208435, -0.14478369057178497, 0.31067419052124023, 0.16771315038204193, -0.04835939407348633, 0.06895063072443008, 0.2557916045188904, -0.2931293249130249, -0.10695695132017136, 0.22501961886882782], [-0.36001378297805786, 0.11053923517465591, -0.48225849866867065, 0.8722906112670898, -0.32270047068595886, -0.5690621137619019, -0.18845047056674957, -0.2984744608402252, -1.1243740320205688, 0.4737863838672638, -0.35746458172798157, -0.29314568638801575, 0.7413032650947571, -0.005102615337818861, -0.2813725769519806, -0.14389429986476898, 0.21780720353126526, 0.018164770677685738, 0.5567213892936707, -0.008265691809356213, 0.29928621649742126, 0.5321441888809204, 0.28144150972366333, 0.62965989112854, 0.38000085949897766, -0.11739001423120499, -0.062430690973997116, -0.020661121234297752, 0.09246955811977386, 0.3121115565299988, 0.13935218751430511, 0.0358540304005146, 0.454026997089386, 0.1895105391740799, -0.1338471919298172, 0.12447144836187363, 0.05668202042579651, 0.049356818199157715, 0.06690703332424164, 0.28168389201164246, -0.2856191396713257, 0.1299235224723816, -0.06581421196460724, 0.19093304872512817, -0.3519524931907654, 0.09363050758838654, -0.12093295156955719, -0.09012704342603683], [0.19600212574005127, 0.15131168067455292, 0.2952929139137268, -0.5048508048057556, -0.013966708444058895, -0.08888297528028488, -0.1046227440237999, 0.5786054730415344, 0.7166160941123962, 0.02338368073105812, 0.31257426738739014, 0.49914422631263733, -0.4893195629119873, 0.07997146248817444, -0.05505291745066643, 0.039010610431432724, -0.04045693203806877, -0.014869621954858303, -0.6011675596237183, 0.34481361508369446, -0.2837597131729126, -0.022915879264473915, -0.4408525228500366, -0.11111180484294891, -0.10649421811103821, 0.07678909599781036, -0.35190874338150024, -0.16181166470050812, -0.03972543030977249, 0.03226121515035629, 0.10599425435066223, 0.01643717847764492, 0.4606054127216339, 0.04299506917595863, -0.06718844175338745, -0.361910343170166, 0.029547538608312607, 0.19365020096302032, 0.2381712794303894, 0.3474572002887726, 0.04356612265110016, 0.16769756376743317, 0.1365533471107483, -0.43108391761779785, 0.7303904294967651, -0.20640011131763458, 0.42701801657676697, 0.5883090496063232], [0.36311250925064087, 0.8808347582817078, -0.04843655973672867, -0.23905077576637268, -0.007534886710345745, -0.1569364219903946, 0.017092952504754066, -0.5695980191230774, -1.066940426826477, -0.5180553197860718, -0.38406822085380554, -0.4357946813106537, 0.0545663982629776, -0.4400428533554077, 0.5066853165626526, -0.21636974811553955, -0.1496642529964447, -0.21131569147109985, 0.14412158727645874, -0.16782845556735992, -0.11183319240808487, 0.14506177604198456, 0.4270915985107422, 0.17445890605449677, -0.019113615155220032, -0.15108825266361237, -0.11611993610858917, 0.4566219747066498, 0.1320030689239502, 0.045097898691892624, 0.28843826055526733, 0.10995503515005112, 0.09093725681304932, -0.0821240171790123, -0.20626793801784515, -0.05518239736557007, -0.25603875517845154, 0.3594018816947937, -0.13063862919807434, -0.11817802488803864, -0.15398932993412018, 0.0017681014724075794, -0.479089617729187, -0.1876952201128006, -0.3900739550590515, 0.42662161588668823, 0.4070119261741638, 0.05884869396686554], [0.0714796856045723, -0.3283519446849823, -0.14656345546245575, -0.27339592576026917, 0.2132536917924881, -0.14758937060832977, 0.4340387284755707, 0.20866996049880981, 0.507176399230957, 0.10493923723697662, 0.35558292269706726, 1.160117745399475, 0.13492898643016815, -0.08719837665557861, -0.5352787375450134, 0.42940160632133484, 0.15706074237823486, -0.04455401748418808, -0.2970147132873535, -0.0961330458521843, 1.0157556533813477, 0.36135387420654297, 0.08102693408727646, -0.03603103756904602, -0.053494807332754135, -0.5448405146598816, 0.17498129606246948, 0.6832181811332703, -0.46720024943351746, 0.57421875, -0.12066687643527985, 0.23742160201072693, -0.2841576039791107, 0.1209016963839531, 0.3524937927722931, -0.21053119003772736, 0.3506685197353363, -0.3844347894191742, -0.23202376067638397, 0.1282985508441925, 0.03423593193292618, 0.18788881599903107, -0.17120933532714844, 0.24753545224666595, 0.22657090425491333, 0.14451810717582703, 0.7385914325714111, -0.25870078802108765], [0.2987518608570099, -0.7070183157920837, 1.1287297010421753, -0.554125964641571, 0.8958372473716736, -0.01579759642481804, -0.6278931498527527, 0.49588584899902344, 0.1484004408121109, -1.0143731832504272, -0.44850844144821167, -0.43912404775619507, -0.8591248393058777, -0.7945289015769958, 0.5823063254356384, -0.9909636974334717, -0.31813856959342957, -0.09232322126626968, -0.023694049566984177, 0.1498459130525589, 0.042918335646390915, -0.18620610237121582, -0.29393231868743896, -0.07835642248392105, 0.009203995577991009, 0.41682031750679016, -0.6406630873680115, -0.042388491332530975, -0.1915826052427292, 0.04378937557339668, 0.060763973742723465, 0.19497354328632355, -0.2161397635936737, -0.17613737285137177, 0.2249947041273117, -0.14886800944805145, -0.114189013838768, 0.022511465474963188, 0.08873692154884338, -0.23667480051517487, 0.08783640712499619, 0.12461687624454498, -0.12761043012142181, -0.12991869449615479, -0.09586925804615021, -0.029940707609057426, -0.1441688984632492, 0.11473754048347473]], [[-0.28027352690696716, -0.5842763781547546, 0.07216072827577591, 1.2068206071853638, -0.7530497908592224, -0.1819504201412201, 0.5557971596717834, -0.2616998255252838, 0.7173029780387878, 0.22108779847621918, -0.36840853095054626, 0.5533347129821777, 0.6570755243301392, 1.0084370374679565, 0.35503241419792175, 0.43704304099082947, 0.08372924476861954, 0.03363441675901413, 0.03794509917497635, 0.5217554569244385, 0.09645616263151169, -0.14661647379398346, 0.09357786923646927, 0.09548721462488174, 0.08865077793598175, -0.09369025379419327, -0.0715271607041359, 0.4545730650424957, 0.23370467126369476, 0.40018779039382935, 0.0833488255739212, 0.021362170577049255, 0.0399237796664238, 0.006272852420806885, 0.008220718242228031, -0.030577756464481354, -0.003736216574907303, 0.0059211947955191135, 0.019591452553868294, 0.038947951048612595, -0.00520877493545413, -0.002609127201139927, -0.004965401720255613, 0.054901957511901855, 0.004861955996602774, -0.005014984868466854, 0.017144639045000076, -0.029428109526634216], [-0.28027352690696716, -0.5842763781547546, 0.07216072827577591, 1.2068206071853638, -0.7530497908592224, -0.1819504201412201, 0.5557971596717834, -0.2616998255252838, 0.7173029780387878, 0.22108779847621918, -0.36840853095054626, 0.5533347129821777, 0.6570755243301392, 1.0084370374679565, 0.35503241419792175, 0.43704304099082947, 0.08372924476861954, 0.03363441675901413, 0.03794509917497635, 0.5217554569244385, 0.09645616263151169, -0.14661647379398346, 0.09357786923646927, 0.09548721462488174, 0.08865077793598175, -0.09369025379419327, -0.0715271607041359, 0.4545730650424957, 0.23370467126369476, 0.40018779039382935, 0.0833488255739212, 0.021362170577049255, 0.04521555453538895, 0.011154313571751118, -0.001812127185985446, -0.041673433035612106, -0.008822411298751831, 0.010904587805271149, 0.01397017389535904, 0.04423071816563606, -0.007888850755989552, -0.003803328378126025, -0.0063320971094071865, 0.046634722501039505, 0.006206664256751537, -0.006944282446056604, 0.015725426375865936, -0.026919769123196602]]]}, {"type": "dense", "shape": [null, null, 1], "weights": [[[0.09849966317415237], [0.5976170897483826], [-0.2453564554452896], [-0.026152249425649643], [0.3760991096496582], [0.03780466690659523], [0.06654102355241776], [-0.5434224605560303], [0.28917357325553894], [0.176408588886261], [0.14830049872398376], [0.16992996633052826], [-0.4009518325328827], [-0.34168264269828796], [-0.5480749607086182], [0.2373954802751541]], [-0.007096927613019943]]}]}