{"in_shape": [null, null, 3], "layers": [{"type": "time-distributed-dense", "shape": [null, null, 4], "weights": [[[0.33214879035949707, -0.28632280230522156, 2.0624148845672607, -0.47186407446861267], [0.1470521241426468, 0.4083826541900635, -0.03527197241783142, 0.6472477316856384], [-0.19853779673576355, 1.7772526741027832, -1.016036868095398, -0.939142107963562]], [0.004499479196965694, -0.02451162226498127, -0.006185693200677633, 0.2454381138086319]]}, {"type": "gru", "shape": [null, null, 24], "weights": [[[-0.20128779113292694, -0.037782471626996994, -0.1899726688861847, -0.9896849393844604, -0.7552236914634705, -1.2127121686935425, 1.3082258701324463, -0.6931223273277283, -0.47708332538604736, 0.10602879524230957, -1.3112883567810059, 0.3419124186038971, -0.16721272468566895, -0.5575990080833435, -0.7585809230804443, -0.8192569613456726, 0.06865131855010986, -2.046328544616699, -0.43355390429496765, -1.0590792894363403, 0.11184986680746078, -1.18186616897583, -0.9319694638252258, -0.6999086737632751, 0.007039504125714302, -0.0038678792770951986, 0.3175108730792999, -0.1978001743555069, 0.37594103813171387, -0.2858814299106598, -0.06279732286930084, 0.6442834138870239, 0.41477641463279724, -0.004887041635811329, 0.7898575067520142, 0.8737891912460327, 0.4983755350112915, -0.14983540773391724, 0.02128502167761326, 0.6815893054008484, 0.7802262306213379, 0.9733830690383911, 0.8100317120552063, 0.6639946699142456, 0.39558470249176025, 0.27135419845581055, 0.9201985597610474, 0.26485443115234375, 0.2243112176656723, 0.20518872141838074, -0.048726681619882584, -0.0539090521633625, 0.21767428517341614, 0.10826563835144043, -0.034049563109874725, -0.26194486021995544, -0.2135569453239441, -0.34003975987434387, -0.23761236667633057, 0.19633406400680542, 0.2456779181957245, 0.18131209909915924, 0.285089910030365, -0.1439279019832611, 0.0926128402352333, -0.06951635330915451, -0.13913211226463318, -0.0073216380551457405, 0.2754722237586975, 0.053400423377752304, -0.25328412652015686, 0.11137864738702774], [0.19029906392097473, 0.3351422846317291, 0.3607306182384491, -1.2574453353881836, -0.4592287540435791, -1.986207365989685, 0.22433605790138245, -1.0359992980957031, -0.2080918550491333, 0.19627441465854645, -0.6075384020805359, 0.7769654393196106, -0.37025222182273865, 0.45995786786079407, -0.43526744842529297, -0.9478440880775452, -0.23147566616535187, -1.7173244953155518, 0.48647257685661316, -1.3085098266601562, 0.25580817461013794, -1.4110900163650513, -0.6792598962783813, -0.5637620687484741, 0.050091419368982315, -0.16719040274620056, 0.1291784793138504, -0.11019697785377502, 0.34205392003059387, 0.09001690149307251, 0.11139426380395889, 0.5324258804321289, -0.07317940890789032, -0.1617039144039154, 0.3675777316093445, 0.8969789743423462, 0.08040226250886917, 0.19081749022006989, -0.10383935272693634, 0.38003161549568176, 0.5821396708488464, 0.8084561824798584, 0.5746364593505859, 0.2429412603378296, 0.13604402542114258, 0.2513502836227417, -0.11456362903118134, 0.19925664365291595, -0.030318856239318848, 0.24674658477306366, -0.10116207599639893, -0.12547245621681213, 0.03567418083548546, -0.028736257925629616, -0.21380576491355896, 0.08829173445701599, -0.1875082403421402, 0.11202054470777512, 0.25115495920181274, 0.27080294489860535, -0.21700790524482727, 0.04169616848230362, 0.2530158758163452, 0.12068342417478561, 0.09209870547056198, -0.1225857064127922, -0.3089068830013275, 0.043777819722890854, -0.02190447971224785, 0.17469874024391174, -0.05702223628759384, -0.19434961676597595], [0.7494063377380371, -2.9728310108184814, 0.9284260869026184, -0.1688126027584076, 0.7448879480361938, 2.141143798828125, 1.718835711479187, 0.5270159840583801, -1.3090620040893555, -0.29404905438423157, -0.3170604109764099, 1.0960063934326172, -0.15978878736495972, -1.8216335773468018, 0.2325441986322403, 1.0690959692001343, 1.0586607456207275, -0.5693802237510681, -0.8716182708740234, 0.7113748788833618, -0.8439645767211914, 1.8364291191101074, -1.8958550691604614, 0.05792573466897011, -0.09485326707363129, -0.048305612057447433, 0.005030919797718525, -0.4117220938205719, 0.3688787817955017, -0.1923271268606186, 0.03646378219127655, -0.05095366761088371, -0.20306025445461273, 0.09941644221544266, 0.286374568939209, -0.23205961287021637, -0.139831081032753, 0.2614426612854004, 0.07683327049016953, -0.042857419699430466, -0.15554581582546234, 0.4198293685913086, -0.36452507972717285, 0.6187757849693298, -0.05451742187142372, -0.03366926312446594, 0.23357035219669342, 0.005733785219490528, -0.6313312649726868, -0.29725465178489685, -0.2198089212179184, -0.14222048223018646, 0.17845509946346283, -0.48943838477134705, 0.33820152282714844, -0.044989727437496185, -0.2790287733078003, -0.15742206573486328, 0.23869523406028748, 0.262311190366745, -0.41612952947616577, -0.04488414525985718, 0.03625812754034996, -0.24331623315811157, -0.3735012412071228, -0.41959986090660095, -0.13540118932724, -0.2991812527179718, -0.04633587598800659, -0.18850000202655792, 0.6137914061546326, -0.44585326313972473], [0.15647225081920624, 0.12312382459640503, 0.5155599117279053, -1.0963572263717651, -0.6579113602638245, -1.7229911088943481, 0.19199497997760773, 0.03157158941030502, 0.3491000235080719, 0.295836478471756, -0.5961379408836365, -0.014105533249676228, -0.09218071401119232, 0.18555179238319397, 0.05804771929979324, -0.04671052470803261, 0.11237873882055283, -1.2624660730361938, 0.616752028465271, -0.7420617938041687, 0.2347283959388733, -0.46533679962158203, -0.5582561492919922, -0.05335640907287598, 0.14717434346675873, -0.14990131556987762, -0.021257031708955765, 0.31653743982315063, 0.2055908739566803, -0.032178133726119995, -0.18493996560573578, 0.5084748268127441, -0.2935613989830017, 0.29102623462677, 0.4539032280445099, 0.42210114002227783, 0.03188316896557808, -0.21223270893096924, 0.19523335993289948, 0.12399524450302124, 0.12222384661436081, 0.06254033744335175, 0.2995218336582184, 0.40777796506881714, 0.466522753238678, 0.1635572463274002, 0.21060825884342194, 0.036519989371299744, -0.12127630412578583, 0.09822416305541992, -0.09613720327615738, 0.06570928543806076, -0.26129016280174255, 0.22176216542720795, -0.2308240830898285, 0.057580117136240005, -0.11925426125526428, -0.12503866851329803, -0.044457606971263885, -0.13787440955638885, -0.02576487883925438, 0.29479604959487915, -0.25796452164649963, 0.22969651222229004, -0.27259084582328796, 0.1105431541800499, 0.23905187845230103, 0.05190526694059372, 0.10324345529079437, 0.12329710274934769, 0.2583642303943634, 0.008708324283361435]], [[-0.09439834207296371, 1.487282395362854, 0.9231889247894287, -0.036296211183071136, 0.8493771553039551, -0.37505534291267395, 0.20317719876766205, -0.3092930316925049, -0.5564731359481812, -0.8243101835250854, 1.076387882232666, 0.44007381796836853, 0.40999558568000793, -0.17806851863861084, 0.06731124222278595, -0.7887551188468933, 0.16290640830993652, -0.9455201625823975, 0.07285179197788239, -0.8316183090209961, 0.619431734085083, -0.31847235560417175, 1.1281205415725708, -0.824812114238739, 0.0899306908249855, -0.9454545974731445, 0.1455388367176056, 0.08907092362642288, -0.0791943147778511, -0.2858983874320984, -0.03385962173342705, -0.0264488086104393, -0.19393007457256317, -0.1754518449306488, -0.12237837165594101, 0.042688772082328796, 0.055640291422605515, -0.13104218244552612, 0.2588095963001251, -0.2165549248456955, -0.014028258621692657, -0.22094285488128662, -0.5033612847328186, -1.0064936876296997, -0.02494250424206257, -0.20651261508464813, 0.11045277863740921, 0.14308986067771912, 0.3271845877170563, 0.06458135694265366, -0.12092240899801254, 0.03757768124341965, 0.0017768698744475842, 0.18847127258777618, 0.10629133880138397, 0.15272709727287292, 0.06049291789531708, 0.2851816415786743, -0.002371021779254079, -0.42819538712501526, 0.11099275946617126, 0.04801594838500023, -0.10621234029531479, 0.2503439784049988, 0.44742318987846375, 0.38969874382019043, -0.023101655766367912, 0.3721400499343872, -0.11273638904094696, -0.36822327971458435, -0.026748018339276314, -0.020792216062545776], [-2.7617650032043457, -0.4061198830604553, 0.01665104553103447, -0.4047863185405731, -0.4070512652397156, -1.0490423440933228, 0.702538788318634, -0.670633852481842, 1.0933057069778442, 0.3621193766593933, -0.16689401865005493, 0.2506664991378784, -0.12401152402162552, -0.567030668258667, -0.20421718060970306, -0.07702366262674332, -0.3936554789543152, -0.40727174282073975, -0.4141751825809479, -1.1809049844741821, 0.7237402200698853, -0.3363100588321686, -0.2254423052072525, -1.0887367725372314, 0.28724056482315063, 0.22971954941749573, 0.19360347092151642, 0.04939582943916321, 0.06140558794140816, -0.049780942499637604, 0.11104679852724075, 0.13296352326869965, -0.213701531291008, 0.18035399913787842, 0.9889260530471802, 0.16629484295845032, 0.38634732365608215, 0.061914753168821335, -0.0755900889635086, 0.2637665867805481, 0.16901521384716034, 0.23919285833835602, 0.33942195773124695, 0.6695605516433716, 0.22732940316200256, 0.14868028461933136, -0.19384761154651642, 0.3177901804447174, 0.17364580929279327, -0.20483237504959106, -0.13416215777397156, -0.20764678716659546, 0.11419442296028137, 0.1866343468427658, -0.08851701021194458, -0.2316485196352005, 0.16557148098945618, -0.1705043464899063, -0.06079709157347679, 0.0077138119377195835, 0.045279376208782196, 0.04275452345609665, 0.0508781336247921, -0.023990195244550705, 0.1497652679681778, -0.012582392431795597, -0.009718108922243118, 0.07764648646116257, 0.09136003255844116, -0.14989306032657623, 0.039703354239463806, 0.018460940569639206], [1.6591683626174927, 2.0355517864227295, -0.33659011125564575, 0.34384098649024963, -0.019623545929789543, 0.2025594711303711, -1.8450347185134888, 0.2269442230463028, -0.2958739697933197, -0.1815180629491806, 0.33069494366645813, -0.7850149869918823, -0.33465346693992615, 0.27795445919036865, -0.02624773420393467, -0.143474742770195, 1.5717990398406982, -0.1245642676949501, -1.024835228919983, 0.42764541506767273, -0.264567106962204, 0.20432248711585999, 0.3356422185897827, 0.16572260856628418, -0.267112135887146, -0.023494156077504158, 0.09013562649488449, 0.226532444357872, -0.010089321993291378, -0.05522773042321205, 0.002258531516417861, -0.06827296316623688, 0.2953805923461914, 0.04263020679354668, 0.015022140927612782, 0.3508985638618469, -0.1068846806883812, -0.05450964346528053, -0.21170414984226227, -0.19685108959674835, -0.6137949228286743, -0.38542652130126953, -0.2014329731464386, -0.305819571018219, -0.44445928931236267, -0.07051865011453629, 0.008179924450814724, -0.1176522970199585, -0.0548454113304615, 0.1107625737786293, 0.04222560673952103, -0.17965860664844513, 0.06256385147571564, -0.10677016526460648, 0.12672773003578186, -0.030330482870340347, 0.03461388126015663, -0.0735141709446907, 0.07140796631574631, 0.2351367324590683, 0.05260356515645981, 0.08018715679645538, 0.21564719080924988, -0.05711023509502411, -0.07842622697353363, -0.071809783577919, -0.10326697677373886, -0.13298222422599792, 0.021688764914870262, -0.2102467119693756, 0.004089281894266605, -0.011674826964735985], [-1.730636477470398, 0.6995736360549927, 0.6697248220443726, -0.3454515039920807, 0.6539666652679443, -0.21246886253356934, -0.018864503130316734, -0.33328697085380554, 0.6571270823478699, -0.23740969598293304, 0.5074219107627869, 0.24557682871818542, 0.7479045987129211, -0.7127004861831665, 0.37768253684043884, -0.7836179733276367, 0.5492321252822876, -0.11030646413564682, 0.267005056142807, -1.0281299352645874, 0.8061198592185974, -0.4289681315422058, 0.5823065638542175, -1.1561802625656128, -0.2022431343793869, -0.15334880352020264, -0.10209034383296967, -0.07493610680103302, -0.009133546613156796, -0.13924038410186768, 0.02140849083662033, -0.025253264233469963, -0.37929755449295044, 0.03715470805764198, 0.12897787988185883, -0.564716100692749, 0.025285791605710983, -0.016808703541755676, -0.17652970552444458, -0.05015576630830765, -0.16028472781181335, -0.062180954962968826, -0.10480885952711105, -0.01971076987683773, 0.4039869010448456, 0.18791837990283966, 0.31689372658729553, 0.080610491335392, 0.10402997583150864, -0.037274137139320374, -0.09623145312070847, -0.02536642551422119, -0.009705410338938236, 0.15389962494373322, 0.05334475263953209, 0.10210166871547699, 0.032533179968595505, -0.06809138506650925, 0.15581609308719635, 0.21582911908626556, -0.10356654971837997, 0.12538382411003113, -0.27592381834983826, 0.2572551965713501, 0.07606005668640137, 0.181884765625, -0.034959398210048676, 0.21320152282714844, -0.0663389340043068, 0.1589994728565216, 0.13631819188594818, -0.2558562159538269], [1.4953813552856445, 1.9529112577438354, -0.1720123142004013, 0.750061571598053, 0.23825791478157043, -0.2775881588459015, -1.175031304359436, 0.15321971476078033, 0.010581595823168755, -0.14284944534301758, 0.2617712616920471, -0.4580562114715576, -0.37791118025779724, 1.9218944311141968, 0.10195279866456985, -0.0773833841085434, 1.0710588693618774, 0.7835925221443176, 0.1894400715827942, -0.7154483795166016, -0.04864126071333885, 1.2128546237945557, 0.411302775144577, 0.09638471901416779, -0.4496570825576782, -0.08420176059007645, 0.049140941351652145, -0.07014091312885284, -0.42116299271583557, 0.0173963513225317, -0.16166256368160248, -0.10598448663949966, -0.37460529804229736, 0.04691022261977196, -0.17236171662807465, -0.5564736127853394, -0.238423153758049, 0.08169734477996826, 0.10891664028167725, -0.09588925540447235, 0.03186718747019768, -0.05869702994823456, -0.46102046966552734, -0.1529463231563568, -0.13009299337863922, -0.10137727111577988, -0.1980484575033188, -0.2479262501001358, 0.31310027837753296, -0.004691578447818756, -0.06997416168451309, 0.012896223925054073, 0.1948489099740982, -0.08579251915216446, -0.2802288830280304, -0.06639107316732407, 0.012261852622032166, 0.13358116149902344, -0.0407504141330719, 0.19270865619182587, -0.0497950054705143, 0.028720758855342865, -0.02838880941271782, -0.03528968617320061, -0.013284516520798206, 0.06330081820487976, 0.16132891178131104, -0.1559733897447586, 0.012373764999210835, 0.11079015582799911, 0.15828530490398407, -0.10510308295488358], [-1.9999535083770752, -0.6750058531761169, 0.3450275659561157, -0.4734202027320862, 0.20056094229221344, -0.1947401463985443, 0.9653264284133911, 0.5330992937088013, 0.8084458112716675, 0.2523343563079834, 0.3986477255821228, 0.478735089302063, 0.3203575909137726, -1.2050246000289917, 0.7252743244171143, 1.134373426437378, -0.9127205610275269, 0.20587308704853058, 0.3269334137439728, -0.3756552040576935, 0.4184008836746216, -0.7198745012283325, 0.21995028853416443, -0.28106459975242615, 0.10330256074666977, -0.068308986723423, -0.12666970491409302, -0.0984862819314003, -0.028433213010430336, -0.1495165377855301, 0.07749290019273758, 0.17391468584537506, -0.14885716140270233, -0.08872459083795547, 0.3462740182876587, 0.1340220868587494, 0.16491159796714783, -0.0971151739358902, -0.1525445133447647, -0.08526207506656647, 0.0074158660136163235, -0.12972882390022278, -0.014809162355959415, -0.0690193772315979, -0.008240437135100365, -0.14690721035003662, -0.14121611416339874, 0.1401822566986084, 0.1912459284067154, 0.12952344119548798, -0.10510923713445663, 0.11857727915048599, 0.13808023929595947, 0.021112656220793724, -0.23998498916625977, 0.02334892563521862, -0.018058838322758675, 0.029645424336194992, 0.05394836887717247, 0.10159268975257874, 0.04228219389915466, -0.1267748326063156, -0.30826956033706665, -0.1543968915939331, 0.2644958794116974, -0.04430962726473808, 0.0888114869594574, -0.11839959025382996, 0.13345174491405487, 0.03843341022729874, -0.030860044062137604, 0.10554051399230957], [1.427557349205017, 0.9185374975204468, -0.25708118081092834, 0.6783175468444824, 0.061191897839307785, 0.23508186638355255, -2.359924554824829, -0.16569362580776215, -0.4461106061935425, -0.26712119579315186, 0.3618263602256775, -0.25586265325546265, -0.24344949424266815, -0.03454229608178139, 0.12449038028717041, -0.44714194536209106, 1.3076869249343872, -0.23707275092601776, -0.061996329575777054, -0.009711132384836674, -0.2571214735507965, 0.23147040605545044, -0.15854410827159882, 0.37475287914276123, -0.10008658468723297, -0.0552777461707592, -0.10522875934839249, -0.013575145043432713, -0.17244884371757507, 0.044318076223134995, -0.3130814731121063, 0.09172823280096054, 0.2504485547542572, -0.19331780076026917, -0.09343010187149048, 0.2710873782634735, 0.056675974279642105, 0.023989230394363403, 0.020941026508808136, -0.41742026805877686, -0.40458443760871887, -0.18984568119049072, -0.3037523925304413, -0.22041723132133484, 0.09203673899173737, -0.00374983879737556, -0.24587395787239075, -0.25083059072494507, 0.1632756143808365, 0.04890879616141319, 0.12212426215410233, 0.007705658674240112, 0.09863769263029099, -0.008634883910417557, 0.031242236495018005, -0.13078467547893524, 0.09599422663450241, 0.1094856783747673, 0.07716209441423416, -0.0912449061870575, -0.0031385798938572407, 0.13136152923107147, 0.037199947983026505, -0.023936182260513306, -0.18357402086257935, -0.006019448395818472, 0.07221383601427078, -0.17544551193714142, -0.001677874242886901, -0.11851278692483902, 0.03810971602797508, -0.1692640632390976], [-0.5414411425590515, -0.29364249110221863, 1.5930912494659424, -0.2254692018032074, 0.9423482418060303, 0.5518420338630676, 0.42420700192451477, 0.21825987100601196, 0.8870864510536194, -0.6596105694770813, 0.5047464966773987, 0.4343127906322479, 0.4680090844631195, -0.6849952340126038, 0.47809818387031555, 0.2183157205581665, -0.7550903558731079, 0.0316949263215065, 0.3702445924282074, 0.38240498304367065, 0.16181117296218872, 0.034518152475357056, 0.8873870968818665, 0.328167587518692, -0.037108201533555984, 0.08090053498744965, -0.004588734824210405, 0.06444859504699707, -0.060640010982751846, -0.04713638499379158, -0.3207816481590271, -0.025239311158657074, -0.015376613475382328, -0.08697178214788437, -0.0090330196544528, -0.0730484202504158, 0.0702868402004242, -0.29708200693130493, 0.20286908745765686, -0.6208198666572571, -0.03423544019460678, -0.03071114420890808, 0.4378019869327545, -0.7241572141647339, 0.04373601824045181, -0.12918174266815186, 0.008146476931869984, 0.4039766490459442, -0.06624279916286469, -0.06403101980686188, -0.06427954137325287, -0.049611229449510574, -0.14609844982624054, 0.09261097013950348, -0.06046345829963684, 0.23436599969863892, 0.1702221930027008, 0.19065162539482117, 0.26815950870513916, 0.08447609096765518, 0.006292490288615227, -0.2396940439939499, -0.18461209535598755, 0.3818153738975525, -0.027806421741843224, 0.2510482966899872, -0.021848123520612717, -0.09782685339450836, 0.14474311470985413, 0.04304765909910202, -0.05678121745586395, 0.14588534832000732], [2.1608831882476807, 0.49764055013656616, -0.013637952506542206, 0.1462508589029312, 0.4473300278186798, 0.9511155486106873, -1.5626049041748047, 0.47712257504463196, -0.27283915877342224, -0.15364085137844086, 0.8127208948135376, -0.5865796804428101, -0.4789804220199585, -0.11985846608877182, -0.6011892557144165, -0.2806825637817383, 1.6776982545852661, 0.08189395070075989, -0.7648125290870667, 0.1505383998155594, 0.8872247934341431, 0.08547799289226532, 0.3536132872104645, 0.5582098364830017, -0.3824886083602905, -0.2509891390800476, -0.21445083618164062, -0.11584068089723587, -0.42733848094940186, -0.06462525576353073, -0.20346643030643463, -0.49310794472694397, 0.04103868827223778, -0.18984223902225494, -0.3872721195220947, -0.4688590466976166, -0.133951336145401, 0.054539427161216736, -0.13890506327152252, -0.9988328218460083, -0.7306131720542908, -0.27973273396492004, -0.19262655079364777, -0.4052266776561737, -0.1827986091375351, -0.28925618529319763, -0.42613986134529114, -0.34505897760391235, -0.1430446058511734, 0.01889069937169552, -0.08109845221042633, 0.05556858330965042, 0.14632444083690643, -0.09547067433595657, -0.006180415395647287, 0.11606352776288986, 0.1049315333366394, 0.14473293721675873, 0.00681424792855978, -0.189102441072464, 0.18252971768379211, -0.044372402131557465, -0.1124066635966301, 0.1716163605451584, -0.2872592806816101, 0.18187178671360016, 0.14670789241790771, 0.22225432097911835, -0.1779301017522812, -0.18389742076396942, 0.10719228535890579, 0.1357409805059433], [1.494126319885254, 0.449009507894516, 0.29227927327156067, 0.31553319096565247, 0.4239329993724823, 1.7859476804733276, -0.35771119594573975, -0.34689682722091675, -1.8440510034561157, -0.3922794759273529, 0.31407350301742554, -1.0645451545715332, -1.0384490489959717, -0.2812463939189911, -0.42707639932632446, -0.4395065903663635, 1.8169021606445312, -0.02849847823381424, 0.180738165974617, 0.3485449254512787, -0.7118695378303528, -0.07119189947843552, 0.16796891391277313, 0.7676448822021484, -0.1537131369113922, -0.1391289085149765, -0.15861529111862183, -0.05430532246828079, -0.9775829315185547, 0.1334914118051529, -0.094050332903862, -0.5290672183036804, 0.025983670726418495, -0.12255001068115234, -0.6435772180557251, 0.10907010734081268, -0.013746211305260658, -0.17264749109745026, -0.07101617753505707, -0.6809479594230652, -0.08988571166992188, -0.46195870637893677, 0.1282835453748703, -0.3194099962711334, -0.23597951233386993, -0.3652707636356354, -0.37108805775642395, -0.018517570570111275, -0.009786815382540226, -0.18152455985546112, 0.004918037913739681, -0.05134674161672592, 0.04674584046006203, -0.19780713319778442, -0.05889701098203659, 0.38707008957862854, 0.03440048173069954, 0.16882531344890594, 0.101542629301548, 0.12273845076560974, -0.0444575771689415, -0.1428176909685135, 0.026778068393468857, -0.35009393095970154, 0.0673200786113739, 0.0785079151391983, -0.06808130443096161, 0.26896733045578003, 0.0794253870844841, -0.0590658076107502, -0.06354052573442459, -0.07578487694263458], [-0.03866942971944809, 0.042421020567417145, 0.8178433179855347, -0.5054611563682556, -0.05680299177765846, 0.7315558195114136, 0.1669100672006607, -1.050803542137146, -1.495301365852356, -1.3795121908187866, 0.07376406341791153, 0.26690804958343506, 0.37119776010513306, -0.7467291951179504, -1.3473985195159912, -2.2310924530029297, 0.7502672672271729, -1.412632703781128, 0.09391794353723526, -0.8396419286727905, 0.4671646058559418, -0.7686107158660889, -0.7873693108558655, -0.9371543526649475, 0.31949689984321594, -0.12268401682376862, 0.367389440536499, 0.2269999086856842, -0.0023933083284646273, -0.26494207978248596, 0.1590924859046936, 0.03288637846708298, -0.09705261886119843, -0.4726810157299042, 0.010190865956246853, -0.19326889514923096, -0.0213826484978199, 0.08242063969373703, 0.04568701609969139, -0.18304410576820374, 0.21756485104560852, 0.5094250440597534, 0.38214004039764404, 0.5616764426231384, -0.0553712323307991, 0.32531794905662537, 0.3303210735321045, 0.3559052646160126, -0.06159830093383789, -0.17410750687122345, 0.07433801889419556, 0.05173945054411888, -0.2970050871372223, 0.24033430218696594, 0.11270394176244736, 0.34033045172691345, 0.015130632556974888, 0.341420978307724, 0.399129718542099, 0.31711122393608093, -0.2146250307559967, -0.20315949618816376, -0.6775932312011719, 0.25634586811065674, -0.02513323910534382, 0.012530151754617691, 0.3455124795436859, 0.1854419857263565, 0.02073241025209427, -0.050082962960004807, -0.07943515479564667, 0.18682561814785004], [-0.07876500487327576, 0.43634337186813354, 0.3248344659805298, -0.025889672338962555, -0.6306598782539368, -0.8138179779052734, -0.06683915853500366, -0.19580017030239105, -0.4716315269470215, -0.40899232029914856, 0.4107363522052765, 0.6717543005943298, 0.69527268409729, -0.46614232659339905, -0.11590544134378433, -0.6287438869476318, -0.08157093077898026, -0.32841241359710693, -0.7149291634559631, -0.6136348843574524, 0.9768840074539185, -0.13611797988414764, 0.6786400079727173, -0.5324806571006775, 0.22512374818325043, 0.1268680989742279, -0.07483672350645065, 0.10522040724754333, 0.40156298875808716, -0.32979249954223633, -0.09014712274074554, 0.040945444256067276, -0.4546366333961487, 0.12114694714546204, 0.15810836851596832, 0.6209173798561096, 0.691642165184021, 0.0015021908329799771, 0.19363322854042053, 0.21578192710876465, 0.12313082069158554, 0.5822063684463501, 0.18524712324142456, 0.7016047835350037, 0.20967108011245728, 0.46290451288223267, 0.2487170249223709, -0.029725277796387672, 0.21695277094841003, 0.20445965230464935, 0.16259364783763885, 0.5881176590919495, -0.2559114396572113, -0.3537957966327667, 0.2603435516357422, -0.0462072379887104, 0.09194087982177734, -0.26008111238479614, -0.030690189450979233, 0.45513659715652466, -0.25324147939682007, 0.31652823090553284, 0.08420969545841217, 0.3622082769870758, 0.19338521361351013, 0.42425858974456787, -0.290092796087265, 0.4852787256240845, 0.08648796379566193, 0.24822252988815308, -0.6834397912025452, -0.009598947130143642], [0.8110306262969971, -0.3965696096420288, -0.4319266080856323, -0.06155601516366005, -0.5773161053657532, 0.6346378326416016, 0.16665099561214447, 0.4786142408847809, 0.5440835952758789, 0.8055341243743896, -0.27383410930633545, 0.04664628580212593, -0.04912110045552254, 1.037903904914856, 0.1293497234582901, 0.7046135067939758, 1.0450025796890259, -0.06527439504861832, -0.20414304733276367, 0.5636380910873413, 0.19810861349105835, 0.12660278379917145, -0.7805857062339783, 0.7112477421760559, -0.06945521384477615, 0.16785185039043427, -0.7808288335800171, -0.06281211972236633, 0.39126238226890564, 0.6901325583457947, -0.3286310136318207, 0.27141156792640686, 0.27883055806159973, -0.03590000420808792, 0.35611405968666077, -0.3737466633319855, -0.5443518757820129, -0.10608001798391342, 0.29116636514663696, 0.3525412082672119, -0.34422558546066284, 0.07010909169912338, 0.035313159227371216, 0.877956211566925, -0.12356387078762054, -0.026638183742761612, -0.10442601889371872, 0.26408666372299194, -0.9672266244888306, -0.021019862964749336, 0.06979307532310486, -0.07047760486602783, -0.0038473247550427914, -0.714056134223938, -0.2648244798183441, -0.306608647108078, -0.6032593250274658, -0.13342858850955963, -0.3872804045677185, -0.13566076755523682, 0.28355666995048523, 0.042684610933065414, 0.17771068215370178, -0.5155436396598816, -0.5483857989311218, -0.17170298099517822, 0.03405631706118584, -0.4155007600784302, 0.5416529774665833, -0.04933319240808487, 0.008658204227685928, 0.06989409774541855], [-1.2070714235305786, -0.5407981872558594, 0.007002711296081543, 0.014707887545228004, -0.6017009019851685, -0.9477015137672424, 0.7568073868751526, 0.4774039089679718, 0.9883116483688354, 0.139015793800354, -0.6158723831176758, 0.0785224512219429, 0.049982599914073944, -0.4032438099384308, 0.2260434627532959, -0.4975517988204956, -0.8821253776550293, -0.6167889833450317, -0.003560249228030443, -0.7149982452392578, -0.12436693161725998, -0.6636635065078735, -0.4971112310886383, -0.7522373795509338, 0.33931005001068115, 0.22377213835716248, 0.18806491792201996, 0.14026279747486115, 0.30606433749198914, -0.012679210864007473, 0.23113718628883362, 0.7778090238571167, 0.03584199771285057, 0.07528834044933319, 0.3107823133468628, 0.6507267355918884, 0.07246376574039459, 0.12755227088928223, 0.1529809981584549, 0.8206204771995544, 0.24797815084457397, 0.669791042804718, 0.5250715613365173, 0.42154374718666077, 0.3585766851902008, 0.28154096007347107, 0.5579434037208557, 1.2066408395767212, -0.05368123948574066, 0.010212250053882599, 0.09007079899311066, 0.02035455033183098, 0.14786630868911743, 0.11204440891742706, -0.07977399975061417, -0.20174121856689453, -0.0797390565276146, -0.10794086754322052, -0.20269173383712769, 0.031785137951374054, 0.08190625160932541, -0.11363139748573303, 0.012623373419046402, -0.038906071335077286, 0.36422666907310486, -0.003683796850964427, -0.43880796432495117, 0.10030112415552139, 0.12631243467330933, 0.027638684958219528, 0.03133848309516907, 0.007447063457220793], [1.4278578758239746, 1.5589203834533691, -0.8985964059829712, 0.5222215056419373, -0.7305542230606079, -0.21105431020259857, -0.5436950922012329, -0.6031525135040283, -0.8107752799987793, -0.31969353556632996, -0.50473952293396, 0.045236360281705856, -0.7086964845657349, 0.5245233774185181, -1.0078555345535278, -0.8616535663604736, 0.8231229186058044, -0.9088000059127808, -0.7394075989723206, -0.806351363658905, 0.27375173568725586, -1.0782824754714966, -0.06589198112487793, -0.46513059735298157, -0.6332491636276245, 0.01891009882092476, -0.020706776529550552, 0.06425955146551132, -0.024580279365181923, -0.15377527475357056, 0.006492998450994492, -0.01557133998721838, 0.07244372367858887, -0.15756727755069733, -0.21491260826587677, 0.0004243614384904504, -0.3040502965450287, 0.019797325134277344, -0.17134243249893188, 0.38505759835243225, 0.05745251476764679, 0.1864595115184784, -0.048049408942461014, 0.0333537720143795, -0.3102184534072876, -0.10361121594905853, 0.07742732763290405, -0.1471610814332962, -0.20204168558120728, 0.2539868950843811, -0.1699889600276947, -0.07725699990987778, -0.006467345170676708, -0.23398633301258087, 0.19000482559204102, -0.0727991983294487, -0.02407870441675186, 0.05217813700437546, -0.18609999120235443, 0.22952210903167725, -0.1650533825159073, 0.1057855412364006, 0.2854653000831604, 0.1200542151927948, 0.12271460145711899, -0.054694369435310364, -0.15901082754135132, -0.043659359216690063, 0.04269227012991905, -0.00753334304317832, -0.11620835214853287, -0.018903804942965508], [-2.0001068115234375, 0.40800437331199646, 0.6514996886253357, -0.6365243196487427, 0.28074371814727783, 0.2652312219142914, 0.06822133809328079, -0.305954247713089, 0.1842997968196869, -0.255837082862854, 0.420849472284317, 0.1616434007883072, 0.4366682767868042, -1.254875659942627, 0.12327989190816879, -0.38646477460861206, -0.5216805934906006, -1.6730600595474243, 0.046649083495140076, -0.5620756149291992, 0.37920352816581726, -2.683225631713867, 0.15245811641216278, -0.3732437491416931, 0.262704074382782, 0.06709019839763641, -0.09767910838127136, 0.048044610768556595, 0.12959882616996765, 0.003510377136990428, 0.2560720443725586, 0.09817899763584137, 0.1507362723350525, 0.2490382045507431, -0.052299391478300095, 0.05894927680492401, 0.4975931942462921, 0.2653871178627014, -0.08596858382225037, -0.3645861744880676, 0.11080726981163025, 0.14569756388664246, 0.12846703827381134, -0.36088940501213074, 0.30566030740737915, 0.08390768617391586, -0.020223602652549744, -0.023926684632897377, 0.02660173922777176, -0.14306089282035828, -0.24776849150657654, 0.06928728520870209, 0.04570971801877022, 0.2373822033405304, -0.03861435502767563, 0.102990061044693, 0.08340151607990265, -0.0044168285094201565, -0.13823215663433075, 0.17816351354122162, 0.15392309427261353, -0.009812476113438606, -0.06849122047424316, 0.1879296451807022, 0.1287078857421875, 0.1947154998779297, -0.16212761402130127, 0.13493189215660095, 0.06543353199958801, 0.19626003503799438, -0.10598441958427429, 0.14991195499897003], [0.5041800141334534, 0.11833778768777847, 0.4304724931716919, 0.05523718148469925, 0.4283742904663086, -0.4549866318702698, 0.7303404808044434, -0.5066328048706055, -0.49239999055862427, -1.0984734296798706, 0.6120277047157288, -0.1319885402917862, -0.1716836839914322, -0.5156179070472717, 0.3874254524707794, -1.4736554622650146, -0.014231763780117035, -2.0674591064453125, -0.3109614849090576, -1.2317392826080322, 0.04255968704819679, -0.7791601419448853, 0.9173576831817627, -0.5203768014907837, 0.3648931086063385, -0.7628116607666016, 0.13134847581386566, 0.3141215741634369, 0.07810582965612411, -0.023961760103702545, -0.0467856340110302, -0.11434997618198395, -0.19248126447200775, -0.004757163114845753, 0.14864948391914368, 0.2845601439476013, -0.14859633147716522, -0.7046720385551453, 0.05928025022149086, -0.18806828558444977, 0.5093904733657837, -0.2063634842634201, 0.38306280970573425, -0.3470954895019531, -0.19713658094406128, 0.4113723635673523, 0.032538097351789474, 0.2753663957118988, 0.2203059047460556, 0.12856517732143402, -0.08806296437978745, 0.09688125550746918, -0.07388447225093842, -0.014037092216312885, 0.04109831154346466, 0.10861101001501083, -0.05927120894193649, 0.19799715280532837, 0.2030295729637146, 0.019808338955044746, 0.017166348174214363, 0.16433396935462952, 0.17574946582317352, 0.12924307584762573, 0.5116976499557495, 0.13693682849407196, -0.4323868751525879, 0.3100731074810028, 0.25233784317970276, 0.140239879488945, -0.14056797325611115, 0.197043776512146], [-0.1316833645105362, 0.5229273438453674, 0.8902209401130676, -0.10868758708238602, 0.9024749994277954, -0.3882642686367035, -0.948776364326477, -0.6190974116325378, -0.4731161296367645, -0.7752484679222107, 1.1639349460601807, 0.16841614246368408, 0.35352498292922974, -0.45444753766059875, 0.25304991006851196, -0.6343132853507996, 0.4297060966491699, -0.5239670276641846, -0.19613109529018402, -0.15972183644771576, 0.6423112154006958, -0.036461010575294495, 0.9025482535362244, -0.5982061624526978, -0.033504970371723175, 0.10010688006877899, -0.1689857542514801, 0.1677563190460205, -0.005888575688004494, -0.4719148576259613, -0.4465337097644806, -0.1135309711098671, -0.028159474954009056, 0.1585940271615982, -0.09086591750383377, -0.270009845495224, 0.11148598045110703, 0.03268738463521004, -0.06882987171411514, -0.42612847685813904, -0.1153702661395073, -0.16738282144069672, 0.3475445806980133, -0.49847570061683655, 0.06781984865665436, -0.10511307418346405, -0.05067654326558113, 0.09706666320562363, 0.3241155743598938, 0.1457371860742569, 0.13918371498584747, 0.06153611093759537, -0.10490277409553528, -0.09296295046806335, 0.16991306841373444, 0.43266981840133667, 0.07907168567180634, 0.1487804651260376, 0.12884342670440674, -0.3362690508365631, 0.3126453757286072, -0.22720472514629364, -0.1591728776693344, 0.06657826155424118, -0.03043082356452942, 0.34704652428627014, -0.034255124628543854, 0.21009664237499237, 0.34010231494903564, -0.27511805295944214, -0.024647485464811325, 0.13934551179409027], [-1.284873366355896, -0.0034339060075581074, 0.34676694869995117, 0.3048143982887268, 0.9767133593559265, -0.6797069311141968, -0.7363628149032593, 0.1750827133655548, 1.116589069366455, 0.9830816388130188, 0.3060964047908783, 0.9570285677909851, 1.0667805671691895, 0.6578511595726013, 0.36988359689712524, 1.2330124378204346, -0.4389764070510864, 1.4030158519744873, 1.6032817363739014, 0.3456127345561981, 1.058921456336975, 0.9261485934257507, 0.8408734202384949, -0.47847890853881836, 0.24936780333518982, 0.05784614384174347, 0.04705135151743889, 0.2435692995786667, 0.19799058139324188, 0.2581459879875183, -0.10434388369321823, -0.5078817009925842, 0.024284688755869865, 0.006659611593931913, 0.23609012365341187, -0.28155717253685, -0.022617092356085777, 0.4431275427341461, 0.1764715015888214, -0.21089643239974976, -0.3639150559902191, -0.14529994130134583, -0.39330044388771057, 0.10719479620456696, 0.08138159662485123, -0.1191495805978775, -0.24986425042152405, -0.9743293523788452, 0.09285622090101242, 0.06269044429063797, -0.34323468804359436, 0.2819289565086365, 0.11102797836065292, 0.07482674717903137, -0.1481083631515503, -0.0011044697603210807, -0.07567521929740906, -0.19981901347637177, 0.06605692207813263, 0.21479946374893188, -0.14174464344978333, -0.25559747219085693, -0.06775453686714172, -0.022663773968815804, -0.30353227257728577, -0.03365188464522362, 0.713351845741272, 0.002734680427238345, -0.0939275473356247, -0.007438134867697954, 0.06527727097272873, -0.15226441621780396], [-0.1457396000623703, 0.5422812104225159, 0.32978707551956177, -0.2699839472770691, 0.5706350207328796, -0.27845481038093567, 0.049432870000600815, -0.6436771750450134, -0.7370546460151672, -0.7897326946258545, 0.7559650540351868, 0.1848077028989792, 0.19638578593730927, -0.5040000081062317, -0.1668381243944168, -1.4960718154907227, 0.14455536007881165, -1.936994194984436, -0.4472466707229614, -1.4395471811294556, 0.15232272446155548, -1.198194146156311, 0.3676008880138397, -1.0957978963851929, 0.10728827118873596, -0.4756554961204529, 0.06048883870244026, 0.35986876487731934, 0.21965312957763672, -0.3840164244174957, -0.3308239281177521, 0.07614421844482422, -0.15643920004367828, 0.10714217275381088, 0.13713370263576508, -0.24984487891197205, 0.04121500626206398, -0.1935240924358368, 0.013715106062591076, -0.5733829736709595, 0.015336687676608562, 0.18223868310451508, 0.18547582626342773, -0.20918743312358856, 0.053720902651548386, 0.1687995046377182, 0.48781952261924744, 0.18053610622882843, 0.2788221836090088, 0.12163935601711273, -0.02404596656560898, 0.14912588894367218, -0.06665519624948502, 0.049922358244657516, 0.2788808047771454, 0.27800703048706055, 0.2388586550951004, 0.46866077184677124, 0.16249990463256836, -0.10493927448987961, 0.1364181637763977, -0.06256996840238571, 0.34640827775001526, -0.054634083062410355, 0.18698108196258545, 0.11926361918449402, -0.3591787815093994, 0.5335221290588379, 0.46490558981895447, 0.21898987889289856, -0.30988016724586487, 0.05765901133418083], [-0.5651648640632629, -0.9096851944923401, -0.9134385585784912, -0.6704087853431702, -2.4355697631835938, 0.01940487138926983, 0.8241024613380432, 0.29256558418273926, 0.3394621014595032, 0.43360650539398193, -0.8772921562194824, 0.8027798533439636, 0.03963150829076767, -0.34641170501708984, -0.18246182799339294, 0.10711803287267685, -0.9034151434898376, -0.5508455038070679, 0.21117964386940002, 0.12024501711130142, 0.0814550593495369, -0.4467852711677551, -1.8636009693145752, 0.30945029854774475, 0.2366952747106552, -0.22891318798065186, 0.08046256750822067, 0.21558113396167755, 0.1176849827170372, 0.30767303705215454, 0.3884095847606659, 0.3072340786457062, 0.4942391812801361, 0.011694885790348053, 0.24396054446697235, 0.40884456038475037, 0.36057519912719727, 0.212095245718956, 0.07300452142953873, 0.3308004140853882, 0.15377597510814667, 0.6149753332138062, 1.179490327835083, 0.8836174011230469, 0.38191235065460205, 0.277557373046875, 0.25480520725250244, 0.16016101837158203, -0.07696588337421417, -0.13259105384349823, 0.054881591349840164, 0.09062811732292175, 0.047727081924676895, -0.06137758493423462, 0.0008537636022083461, -0.02125452645123005, -0.06387317925691605, 0.05543561279773712, 0.12941589951515198, 0.2976439595222473, 0.09006175398826599, 0.12972648441791534, -0.015990421175956726, 0.03411141782999039, 0.11944741010665894, -0.3607676327228546, -0.022694271057844162, -0.34405097365379333, 0.17089883983135223, 0.2321174591779709, -0.13253629207611084, -0.16542673110961914], [-2.108578681945801, -0.1414065808057785, 0.6679553389549255, -1.043373703956604, -0.0887187123298645, 0.07570694386959076, 1.4974322319030762, -0.5202566981315613, -0.6186995506286621, 0.011459164321422577, 0.08112257719039917, 0.27983394265174866, -0.06411971151828766, -0.9929682016372681, 0.029996424913406372, -0.5271962881088257, -0.5203445553779602, -1.6217834949493408, 0.2344842106103897, -1.0635894536972046, 0.2379160076379776, -1.516905426979065, -0.10105428099632263, -0.3345615267753601, 0.639612078666687, 0.1258719116449356, 0.10448278486728668, 0.027612054720520973, 0.11730509251356125, 0.06998956948518753, -0.07694554328918457, 0.3965616226196289, -0.07963462918996811, 0.10819946229457855, 0.09369855374097824, 0.6570599675178528, 0.524972677230835, -0.0808318480849266, -0.11307305842638016, -0.11115685105323792, 0.33538907766342163, 0.0760130062699318, 0.37142622470855713, 0.06401610374450684, 0.16087521612644196, 0.07019180804491043, 0.08805211633443832, 0.12061724811792374, 0.21946264803409576, -0.11178886145353317, -0.17068500816822052, 0.06780765950679779, -0.3283286392688751, -0.04817098751664162, -0.087676040828228, 0.18365447223186493, -0.09030299633741379, -0.1646246314048767, 0.06356427818536758, -0.05154135823249817, 0.19663341343402863, -0.20982646942138672, -0.06586908549070358, 0.10692664235830307, 0.3067173957824707, -0.028252840042114258, -0.10601193457841873, -0.11064064502716064, -0.10379350185394287, 0.015313551761209965, -0.12806512415409088, 0.11132465302944183], [-1.6871236562728882, -0.321643590927124, 0.3060411214828491, 0.08787532895803452, 0.5349112153053284, 0.7555047869682312, -0.28232288360595703, 0.5514599680900574, 1.244611382484436, 0.7322397232055664, 0.45473116636276245, -0.5488489270210266, 0.7413150072097778, 0.5187793374061584, 0.7233968377113342, 1.2788671255111694, -0.9451320767402649, 0.6712142825126648, 0.7847460508346558, 0.18634724617004395, 0.25934696197509766, 0.5414596199989319, -0.01641368307173252, 0.1642412692308426, 0.008098078891634941, 0.38360363245010376, 0.14703896641731262, 0.2580079138278961, -0.11535204201936722, 0.14764924347400665, 0.040148768573999405, 0.21745699644088745, -0.08887022733688354, 0.3004576861858368, 0.13398651778697968, 0.0384940505027771, 0.24576978385448456, -0.1007809266448021, -0.0071524037048220634, 0.06597502529621124, 0.20368406176567078, 0.1769290268421173, -0.49752309918403625, 0.17444996535778046, 0.24569416046142578, -0.10944081097841263, -0.2728074789047241, -0.014933711849153042, 0.008222275413572788, -0.09464041888713837, 0.20020630955696106, 0.16640271246433258, -0.022671183571219444, -0.20536299049854279, -0.04844050854444504, -0.07078217715024948, 0.001486657070927322, 0.07122182101011276, -0.18320780992507935, 0.11976957321166992, -0.228906512260437, -0.17537687718868256, -0.15467722713947296, 0.05957435071468353, -0.057175930589437485, -0.00280368491075933, 0.0985071212053299, -0.14269019663333893, -0.21163757145404816, 0.05512707307934761, -0.016745254397392273, -0.10509418696165085], [-0.09121975302696228, -0.08076833188533783, 0.943211019039154, -0.1449868381023407, 0.5705195069313049, 0.7062778472900391, 0.10240866988897324, 0.026011014357209206, -0.18330569565296173, -0.9634698629379272, 0.5777922868728638, -0.16109417378902435, 0.09677296131849289, -0.30183884501457214, 0.21366681158542633, 0.057287540286779404, -0.36632585525512695, 0.04347674176096916, -0.11240877211093903, 0.005905859172344208, -0.22793078422546387, -0.20075364410877228, 0.5544473528862, 0.08601204305887222, 0.18358777463436127, -0.05333095043897629, -0.059127382934093475, 0.45687615871429443, -0.07597245275974274, -0.04289154335856438, 0.0601515918970108, -0.04300690069794655, -0.1558992564678192, -0.1852601021528244, -0.16353970766067505, 0.13818393647670746, 0.0975111573934555, 0.06835655122995377, 0.23095063865184784, -0.36580991744995117, 0.04534955695271492, -0.3100443184375763, 0.0842278003692627, -0.5083343982696533, -0.30387383699417114, 0.10797329246997833, -0.05714118108153343, 0.2595941722393036, -0.038075320422649384, -0.2444339096546173, 0.08149687200784683, -0.09207437187433243, -0.07261519134044647, 0.168266162276268, -0.30083826184272766, 0.29125654697418213, -0.00044300424633547664, 0.307873398065567, 0.2978239357471466, -0.29860618710517883, 0.37088242173194885, -0.1968482881784439, -0.35566461086273193, -0.16547495126724243, 0.03244083747267723, 0.28418704867362976, -0.17797814309597015, 0.2981645464897156, 0.177629292011261, -0.0732191652059555, -0.1938028335571289, 0.14558321237564087]], [[0.4417745769023895, 0.2911030054092407, 0.8829256296157837, -0.7324367165565491, 0.3655894696712494, -0.7225562930107117, 0.258253276348114, 0.5291883945465088, 0.46101832389831543, 0.5995661616325378, 0.9363657832145691, 0.3616751432418823, 1.12379789352417, 0.22347590327262878, 0.713386595249176, 0.2826877236366272, 0.6893078684806824, -0.44553902745246887, 0.8653363585472107, -0.18988041579723358, 0.3339603841304779, -0.005068502854555845, -0.31686487793922424, 0.5606558322906494, 0.3933490216732025, 0.03693275898694992, 0.038510534912347794, 0.03788376972079277, -0.1561713069677353, 0.04955389350652695, 0.017189571633934975, -0.32286253571510315, 0.0018629706464707851, 0.07064592838287354, 0.03646655008196831, -0.2359132468700409, 0.22146567702293396, 0.04202559217810631, 0.07335446029901505, 0.19899383187294006, -0.05994904786348343, -0.24398966133594513, -0.13916322588920593, 0.04134323447942734, 0.3231464922428131, 0.040592990815639496, -0.05599505454301834, -0.09161724150180817, -0.0024208633694797754, 0.01846345327794552, -0.00629816809669137, -0.0041122036054730415, 0.009304173290729523, 0.0360204353928566, -0.003181722480803728, 0.02552829124033451, -0.009802551940083504, -0.026478849351406097, -0.0068609691224992275, -0.009655361995100975, 0.004958262201398611, 0.0056427475064992905, -0.01831924542784691, 0.0037930463440716267, -0.07587791979312897, 0.004325522109866142, 0.11973169445991516, -0.015523293055593967, 0.015513665974140167, 0.0009279686491936445, 0.040543537586927414, 0.006564174313098192], [0.4417745769023895, 0.2911030054092407, 0.8829256296157837, -0.7324367165565491, 0.3655894696712494, -0.7225562930107117, 0.258253276348114, 0.5291883945465088, 0.46101832389831543, 0.5995661616325378, 0.9363657832145691, 0.3616751432418823, 1.12379789352417, 0.22347590327262878, 0.713386595249176, 0.2826877236366272, 0.6893078684806824, -0.44553902745246887, 0.8653363585472107, -0.18988041579723358, 0.3339603841304779, -0.005068502854555845, -0.31686487793922424, 0.5606558322906494, 0.3933490216732025, 0.03693275898694992, 0.038510534912347794, 0.03788376972079277, -0.1561713069677353, 0.04955389350652695, 0.017189571633934975, -0.32286253571510315, 0.0018629706464707851, 0.07064592838287354, 0.03646655008196831, -0.2359132468700409, 0.22146567702293396, 0.04202559217810631, 0.07335446029901505, 0.19899383187294006, -0.05994904786348343, -0.24398966133594513, -0.13916322588920593, 0.04134323447942734, 0.3231464922428131, 0.040592990815639496, -0.05599505454301834, -0.09161724150180817, 0.005044932477176189, 0.0170364361256361, -0.0075408220291137695, -0.001968482043594122, 0.008835077285766602, 0.034816671162843704, -0.003984291572123766, 0.023856140673160553, -0.011420302093029022, -0.026754077523946762, -0.007039777003228664, -0.013270445168018341, 0.006472194101661444, 0.004881605505943298, -0.01755240373313427, 0.008585910312831402, -0.05853787437081337, 0.00988204125314951, 0.10244707018136978, -0.015164563432335854, 0.013402882032096386, 0.002826992655172944, 0.03825950622558594, 0.004904470406472683]]]}, {"type": "dense", "shape": [null, null, 1], "weights": [[[-0.30430784821510315], [-0.1838286966085434], [-0.21020527184009552], [0.07798001915216446], [-0.4152098000049591], [0.02149507962167263], [-0.35152390599250793], [-0.06973138451576233], [0.5068524479866028], [0.139384463429451], [0.38866525888442993], [-0.25091353058815], [0.0569438636302948], [-0.3615468740463257], [-0.053601011633872986], [0.36381375789642334], [-0.5193926095962524], [0.26316332817077637], [-0.3062586784362793], [0.19137035310268402], [-0.3227282464504242], [0.06671567261219025], [-0.4587056636810303], [-0.037225108593702316]], [-0.035486843436956406]]}]}